booster[0]:
0:[f9<48] yes=1,no=2,missing=2
	1:[f11<0.00142071] yes=3,no=4,missing=3
		3:[f5<44.5] yes=7,no=8,missing=7
			7:[f16<2633] yes=15,no=16,missing=15
				15:[f6<4.75] yes=27,no=28,missing=28
					27:[f17<1.5] yes=47,no=48,missing=48
						47:[f12<0.749468] yes=75,no=76,missing=75
							75:[f15<71.5] yes=109,no=110,missing=110
								109:leaf=-0.0666667
								110:[f11<0.00124849] yes=143,no=144,missing=143
									143:[f18<0.0137597] yes=183,no=184,missing=183
										183:[f7<4.5] yes=225,no=226,missing=225
											225:[f4<2.5] yes=263,no=264,missing=264
												263:leaf=-0.0333333
												264:leaf=0.0910112
											226:[f1<-9.53674e-06] yes=265,no=266,missing=265
												265:leaf=-0.075
												266:leaf=0.0833333
										184:leaf=-0.06
									144:leaf=-0.06
							76:leaf=-0.0666667
						48:[f12<0.102578] yes=77,no=78,missing=77
							77:[f10<1.5] yes=111,no=112,missing=112
								111:[f16<412.5] yes=145,no=146,missing=145
									145:leaf=-0.0714286
									146:[f6<2.85] yes=185,no=186,missing=186
										185:leaf=-0.05
										186:[f7<2.5] yes=227,no=228,missing=228
											227:leaf=-0.05
											228:[f8<1.5] yes=267,no=268,missing=268
												267:leaf=-0.05
												268:leaf=0.0887324
								112:[f8<1.5] yes=147,no=148,missing=148
									147:[f10<2.5] yes=187,no=188,missing=188
										187:leaf=-0.05
										188:leaf=0.0833333
									148:leaf=-0.0888889
							78:leaf=-0.09
					28:leaf=-0.0866667
				16:[f14<404] yes=29,no=30,missing=30
					29:leaf=-0.0909091
					30:leaf=0.0428571
			8:leaf=-0.0933333
		4:[f14<193.893] yes=9,no=10,missing=9
			9:[f12<0.221638] yes=17,no=18,missing=17
				17:[f15<58] yes=31,no=32,missing=32
					31:leaf=-0.05
					32:[f16<2773.5] yes=51,no=52,missing=51
						51:[f5<6] yes=79,no=80,missing=80
							79:leaf=-0.0333333
							80:[f5<237] yes=113,no=114,missing=114
								113:[f6<3.75] yes=149,no=150,missing=150
									149:leaf=-0.0333333
									150:[f1300<-1.00136e-05] yes=189,no=190,missing=189
										189:[f4<9.5] yes=229,no=230,missing=230
											229:leaf=-0.0666667
											230:[f10<3.5] yes=269,no=270,missing=270
												269:leaf=0.0881773
												270:leaf=-0.05
										190:leaf=0.0976331
								114:leaf=-0.0333333
						52:[f6<4.55] yes=81,no=82,missing=82
							81:leaf=-0.075
							82:leaf=0.0888889
				18:[f6<4.7] yes=33,no=34,missing=34
					33:leaf=-0.075
					34:leaf=0.0636364
			10:leaf=-0.0818182
	2:[f16<958.5] yes=5,no=6,missing=5
		5:[f5<41.5] yes=11,no=12,missing=11
			11:[f17<2.5] yes=19,no=20,missing=20
				19:[f6<3.65] yes=35,no=36,missing=35
					35:[f5<8] yes=53,no=54,missing=53
						53:leaf=-0.0969697
						54:[f15<116] yes=83,no=84,missing=84
							83:leaf=-0.06
							84:leaf=0.05
					36:[f4<2.5] yes=55,no=56,missing=55
						55:[f12<0.39024] yes=85,no=86,missing=85
							85:[f12<0.217701] yes=115,no=116,missing=116
								115:[f5<5.5] yes=151,no=152,missing=151
									151:[f6<4.65] yes=191,no=192,missing=192
										191:[f2<16] yes=231,no=232,missing=232
											231:leaf=-0.0818182
											232:[f5<10] yes=271,no=272,missing=272
												271:leaf=0.0777778
												272:leaf=-0.05
										192:leaf=0.0846154
									152:[f5<36.5] yes=193,no=194,missing=194
										193:leaf=-0.0923077
										194:leaf=0.05
								116:[f5<31] yes=153,no=154,missing=154
									153:[f16<814.5] yes=195,no=196,missing=195
										195:[f18<0.12423] yes=233,no=234,missing=234
											233:leaf=-0.0714286
											234:[f5<3.5] yes=273,no=274,missing=274
												273:leaf=0.0225806
												274:leaf=0.0756579
										196:[f5<1.5] yes=235,no=236,missing=236
											235:[f2<4.00001] yes=275,no=276,missing=276
												275:leaf=-0.0333333
												276:leaf=0.0777778
											236:leaf=-0.09
									154:[f14<93.875] yes=197,no=198,missing=198
										197:[f15<73] yes=237,no=238,missing=238
											237:leaf=-0.06
											238:[f6<4.4] yes=277,no=278,missing=278
												277:leaf=0.0666667
												278:leaf=-0.0333333
										198:leaf=-0.0923077
							86:[f16<902.5] yes=117,no=118,missing=117
								117:[f2<46] yes=155,no=156,missing=156
									155:leaf=-0.0945946
									156:[f5<24] yes=199,no=200,missing=200
										199:leaf=-0.05
										200:leaf=0.0666667
								118:[f5<8.5] yes=157,no=158,missing=158
									157:[f5<5] yes=201,no=202,missing=202
										201:leaf=-0.0333333
										202:leaf=0.0909091
									158:leaf=-0.0714286
						56:[f6<4.55] yes=87,no=88,missing=88
							87:leaf=-0.0913044
							88:leaf=0.06
				20:[f2<2.5] yes=37,no=38,missing=38
					37:[f1<-9.53674e-06] yes=57,no=58,missing=57
						57:leaf=-0.097619
						58:leaf=0.0777778
					38:[f8<3.5] yes=59,no=60,missing=60
						59:[f17<6.00001] yes=89,no=90,missing=90
							89:leaf=0.08
							90:[f2<24.5] yes=119,no=120,missing=119
								119:leaf=-0.0975309
								120:[f16<314] yes=159,no=160,missing=159
									159:leaf=0.075
									160:leaf=-0.0777778
						60:[f15<52] yes=91,no=92,missing=91
							91:[f12<0.163109] yes=121,no=122,missing=121
								121:[f10<1.5] yes=161,no=162,missing=161
									161:[f16<577] yes=203,no=204,missing=203
										203:[f6<4.55] yes=239,no=240,missing=239
											239:[f16<436.5] yes=279,no=280,missing=279
												279:leaf=0.0333333
												280:leaf=0.0789474
											240:leaf=-0.0777778
										204:[f8<9] yes=241,no=242,missing=241
											241:leaf=-0.092
											242:[f5<13.5] yes=281,no=282,missing=282
												281:leaf=-0.0333333
												282:leaf=0.0866667
									162:leaf=-0.0857143
								122:[f16<938.5] yes=163,no=164,missing=163
									163:leaf=-0.0944444
									164:leaf=0.0666667
							92:[f16<938.5] yes=123,no=124,missing=123
								123:[f5<26] yes=165,no=166,missing=165
									165:[f11<0.00298151] yes=205,no=206,missing=205
										205:leaf=-0.0970588
										206:leaf=0.02
									166:[f2<10] yes=207,no=208,missing=208
										207:leaf=-0.0777778
										208:[f5<29.5] yes=243,no=244,missing=244
											243:[f14<100.8] yes=283,no=284,missing=284
												283:leaf=-0.0333333
												284:leaf=0.0833333
											244:leaf=-0.0333333
								124:leaf=0.075
			12:[f15<121.5] yes=21,no=22,missing=22
				21:leaf=-0.0925926
				22:[f8<1.5] yes=39,no=40,missing=39
					39:[f16<891] yes=61,no=62,missing=61
						61:[f17<1.5] yes=93,no=94,missing=93
							93:[f2<5.5] yes=125,no=126,missing=125
								125:[f18<0.0339637] yes=167,no=168,missing=168
									167:leaf=-0.06
									168:[f15<158] yes=209,no=210,missing=209
										209:[f15<143] yes=245,no=246,missing=245
											245:[f11<0.000357472] yes=285,no=286,missing=286
												285:leaf=-0.06
												286:leaf=0.0672897
											246:leaf=-0.0714286
										210:[f16<275.5] yes=247,no=248,missing=247
											247:leaf=-0.05
											248:[f7<2] yes=287,no=288,missing=288
												287:leaf=-0.0333333
												288:leaf=0.09125
								126:leaf=-0.0714286
							94:leaf=-0.075
						62:leaf=-0.0833333
					40:[f15<138.5] yes=63,no=64,missing=64
						63:[f4<18] yes=95,no=96,missing=96
							95:leaf=-0.05
							96:leaf=0.0935484
						64:leaf=-0.0947368
		6:[f6<4.75] yes=13,no=14,missing=14
			13:[f11<0.00133899] yes=23,no=24,missing=23
				23:[f2<11] yes=41,no=42,missing=41
					41:[f15<208.5] yes=65,no=66,missing=66
						65:[f15<207.5] yes=97,no=98,missing=98
							97:[f16<4012.5] yes=127,no=128,missing=127
								127:[f16<1042] yes=169,no=170,missing=169
									169:[f12<0.302416] yes=211,no=212,missing=211
										211:leaf=-0.09
										212:[f14<128.571] yes=249,no=250,missing=250
											249:leaf=-0.0666667
											250:leaf=0.0875
									170:[f18<0.248529] yes=213,no=214,missing=213
										213:[f11<0.000117962] yes=251,no=252,missing=252
											251:[f14<112.464] yes=289,no=290,missing=290
												289:leaf=0.0333333
												290:leaf=-0.0866667
											252:leaf=-0.0988024
										214:[f11<0.000487388] yes=253,no=254,missing=254
											253:leaf=0.0666667
											254:leaf=-0.0714286
								128:[f16<4146] yes=171,no=172,missing=171
									171:[f11<0.000589541] yes=215,no=216,missing=216
										215:leaf=-0.06
										216:[f2<8.00001] yes=255,no=256,missing=256
											255:leaf=-0.0333333
											256:[f5<4.5] yes=291,no=292,missing=292
												291:leaf=-0.0333333
												292:leaf=0.075
									172:leaf=-0.0916667
							98:[f2<2.00001] yes=129,no=130,missing=130
								129:leaf=0.08
								130:leaf=-0.0333333
						66:[f8<18] yes=99,no=100,missing=99
							99:[f5<44.5] yes=131,no=132,missing=131
								131:leaf=-0.0993827
								132:[f5<45.5] yes=173,no=174,missing=174
									173:[f6<4.4] yes=217,no=218,missing=218
										217:leaf=-0.0333333
										218:[f7<8.00001] yes=257,no=258,missing=258
											257:leaf=-0.0333333
											258:leaf=0.0818182
									174:leaf=-0.0972973
							100:leaf=0.0428571
					42:[f12<1.71094] yes=67,no=68,missing=67
						67:leaf=-0.0909091
						68:[f11<0.000402681] yes=101,no=102,missing=101
							101:leaf=-0.06
							102:leaf=0.0909091
				24:[f17<1.5] yes=43,no=44,missing=44
					43:[f16<3139.5] yes=69,no=70,missing=69
						69:leaf=-0.0974684
						70:[f16<3373] yes=103,no=104,missing=103
							103:leaf=0.0428571
							104:[f11<0.00140008] yes=135,no=136,missing=136
								135:leaf=0.05
								136:leaf=-0.0894737
					44:[f10<1.5] yes=71,no=72,missing=72
						71:leaf=-0.0942857
						72:[f16<1460] yes=105,no=106,missing=105
							105:[f8<2.5] yes=137,no=138,missing=137
								137:[f12<0.416775] yes=175,no=176,missing=175
									175:[f15<221] yes=219,no=220,missing=219
										219:[f16<1035.5] yes=259,no=260,missing=259
											259:leaf=-0.0666667
											260:[f18<0.297792] yes=293,no=294,missing=294
												293:leaf=-0.0666667
												294:leaf=0.0793104
										220:leaf=-0.0666667
									176:leaf=-0.075
								138:leaf=-0.0833333
							106:[f5<111] yes=139,no=140,missing=140
								139:[f5<18.5] yes=177,no=178,missing=178
									177:[f5<13.5] yes=221,no=222,missing=222
										221:leaf=-0.0882353
										222:[f6<4.65] yes=261,no=262,missing=262
											261:[f12<6.50072] yes=295,no=296,missing=296
												295:leaf=-0.0333333
												296:leaf=0.0875
											262:leaf=-0.0333333
									178:leaf=-0.0967742
								140:[f11<0.00167533] yes=179,no=180,missing=180
									179:leaf=0.0931035
									180:leaf=-0.0818182
			14:[f10<1.5] yes=25,no=26,missing=26
				25:leaf=-0.0953488
				26:[f11<0.000689802] yes=45,no=46,missing=46
					45:leaf=-0.0833333
					46:[f5<52.5] yes=73,no=74,missing=74
						73:[f7<1.5] yes=107,no=108,missing=107
							107:[f12<0.91907] yes=141,no=142,missing=141
								141:[f14<422.748] yes=181,no=182,missing=181
									181:[f16<4395.5] yes=223,no=224,missing=223
										223:leaf=0.0965517
										224:leaf=-0.0333333
									182:leaf=-0.05
								142:leaf=-0.05
							108:leaf=-0.05
						74:leaf=-0.06
booster[1]:
0:[f9<48] yes=1,no=2,missing=2
	1:[f11<0.000892938] yes=3,no=4,missing=3
		3:[f10<1.5] yes=7,no=8,missing=8
			7:[f16<2633] yes=15,no=16,missing=15
				15:[f15<71.5] yes=29,no=30,missing=30
					29:leaf=-0.0758424
					30:[f11<0.000698304] yes=49,no=50,missing=49
						49:[f15<124.5] yes=73,no=74,missing=74
							73:[f14<85.3285] yes=99,no=100,missing=100
								99:leaf=-0.0485487
								100:[f8<36] yes=135,no=136,missing=136
									135:[f6<3.75] yes=169,no=170,missing=170
										169:leaf=-0.0307743
										170:leaf=0.0886178
									136:leaf=-0.0333333
							74:[f14<224.929] yes=101,no=102,missing=102
								101:leaf=-0.0747435
								102:[f7<2.5] yes=137,no=138,missing=138
									137:leaf=-0.065816
									138:[f5<37] yes=171,no=172,missing=172
										171:[f2<7] yes=205,no=206,missing=205
											205:[f3<2.00001] yes=243,no=244,missing=244
												243:leaf=-0.033692
												244:leaf=0.0769792
											206:leaf=-0.0478668
										172:leaf=-0.0613375
						50:leaf=-0.0726826
				16:leaf=-0.0810139
			8:[f11<0.000133702] yes=17,no=18,missing=18
				17:[f7<1.5] yes=31,no=32,missing=32
					31:leaf=0.0763751
					32:leaf=-0.0553052
				18:leaf=-0.0883481
		4:[f14<193.893] yes=9,no=10,missing=9
			9:[f14<132.418] yes=19,no=20,missing=20
				19:[f2<2.5] yes=33,no=34,missing=33
					33:[f5<54.5] yes=51,no=52,missing=51
						51:[f11<0.00138885] yes=75,no=76,missing=76
							75:[f5<88] yes=103,no=104,missing=104
								103:leaf=-0.0616961
								104:leaf=0.0550313
							76:[f4<2.00001] yes=105,no=106,missing=106
								105:leaf=-0.0310833
								106:leaf=0.0892032
						52:leaf=-0.067013
					34:leaf=-0.0808676
				20:[f12<1.01399] yes=35,no=36,missing=35
					35:[f15<111] yes=53,no=54,missing=54
						53:leaf=-0.0478353
						54:[f5<237] yes=77,no=78,missing=78
							77:[f5<4.5] yes=107,no=108,missing=108
								107:leaf=-0.0472703
								108:[f6<3.75] yes=139,no=140,missing=140
									139:leaf=-0.0311981
									140:[f2<24.5] yes=173,no=174,missing=173
										173:[f16<29.5] yes=207,no=208,missing=207
											207:leaf=-0.0303036
											208:leaf=0.0817368
										174:leaf=-0.031076
							78:leaf=-0.0475466
					36:leaf=-0.0550247
			10:leaf=-0.0807959
	2:[f16<958.5] yes=5,no=6,missing=5
		5:[f5<40.5] yes=11,no=12,missing=11
			11:[f17<2.5] yes=21,no=22,missing=22
				21:[f6<3.65] yes=37,no=38,missing=37
					37:[f5<8] yes=55,no=56,missing=55
						55:leaf=-0.0894812
						56:[f15<116] yes=79,no=80,missing=80
							79:leaf=-0.0560572
							80:leaf=0.0464316
					38:[f5<30.5] yes=57,no=58,missing=57
						57:[f16<553.5] yes=81,no=82,missing=81
							81:[f11<0.00219735] yes=109,no=110,missing=110
								109:[f12<0.281642] yes=141,no=142,missing=141
									141:[f18<0.12423] yes=175,no=176,missing=176
										175:leaf=-0.0661429
										176:[f12<0.218076] yes=209,no=210,missing=210
											209:[f8<13.5] yes=247,no=248,missing=247
												247:leaf=-0.0791235
												248:leaf=0.0798597
											210:[f8<4.5] yes=249,no=250,missing=249
												249:leaf=0.0713534
												250:leaf=-0.0711984
									142:leaf=-0.0803228
								110:[f2<16] yes=143,no=144,missing=144
									143:leaf=-0.0871257
									144:[f14<125.944] yes=177,no=178,missing=178
										177:[f6<3.85] yes=211,no=212,missing=212
											211:leaf=-0.0560453
											212:[f6<4.75] yes=251,no=252,missing=252
												251:leaf=0.0655345
												252:leaf=-0.0458693
										178:leaf=-0.0758605
							82:[f5<7.5] yes=111,no=112,missing=111
								111:[f11<0.000574617] yes=145,no=146,missing=146
									145:leaf=-0.0811454
									146:[f6<4.25] yes=179,no=180,missing=180
										179:[f18<0.178748] yes=213,no=214,missing=214
											213:leaf=0.0739437
											214:leaf=-0.0824224
										180:[f11<0.0021959] yes=215,no=216,missing=215
											215:[f16<636] yes=253,no=254,missing=253
												253:leaf=-0.0493454
												254:leaf=0.0825754
											216:leaf=-0.055476
								112:[f11<0.00300286] yes=147,no=148,missing=148
									147:[f11<0.00017318] yes=181,no=182,missing=182
										181:leaf=-0.0155052
										182:leaf=-0.0899824
									148:leaf=0.066572
						58:leaf=-0.0829387
				22:[f1<-9.53674e-06] yes=39,no=40,missing=39
					39:[f2<2.5] yes=59,no=60,missing=60
						59:leaf=-0.08962
						60:[f8<1.5] yes=83,no=84,missing=84
							83:[f2<24.5] yes=113,no=114,missing=113
								113:leaf=-0.0886965
								114:[f6<4.45] yes=149,no=150,missing=150
									149:leaf=-0.0695263
									150:leaf=0.0659422
							84:[f11<0.000124114] yes=115,no=116,missing=115
								115:leaf=-0.0884814
								116:[f11<0.000218574] yes=151,no=152,missing=152
									151:[f7<6.00001] yes=183,no=184,missing=184
										183:[f5<10] yes=219,no=220,missing=220
											219:leaf=0.0916236
											220:leaf=-0.0562106
										184:leaf=-0.0783326
									152:[f16<436.5] yes=185,no=186,missing=185
										185:[f11<0.00171322] yes=221,no=222,missing=222
											221:[f6<4.85] yes=255,no=256,missing=255
												255:leaf=-0.0913587
												256:leaf=0.0415192
											222:[f11<0.00191562] yes=257,no=258,missing=258
												257:leaf=0.0705081
												258:leaf=-0.0716275
										186:[f16<577] yes=223,no=224,missing=223
											223:[f6<4.25] yes=259,no=260,missing=260
												259:leaf=-0.0753729
												260:leaf=0.0750107
											224:[f16<912.5] yes=261,no=262,missing=261
												261:leaf=-0.0767318
												262:leaf=0.0261882
					40:[f2<8.5] yes=61,no=62,missing=62
						61:[f8<2.00001] yes=85,no=86,missing=86
							85:leaf=-0.0304783
							86:leaf=0.0861409
						62:leaf=-0.0464225
			12:[f15<121.5] yes=23,no=24,missing=24
				23:leaf=-0.0853735
				24:[f8<6.5] yes=41,no=42,missing=41
					41:[f14<93.175] yes=63,no=64,missing=64
						63:leaf=-0.0755214
						64:[f18<0.0892147] yes=87,no=88,missing=88
							87:[f5<76] yes=117,no=118,missing=118
								117:leaf=-0.076549
								118:leaf=0.0455844
							88:[f2<7.5] yes=119,no=120,missing=119
								119:[f3<8.00001] yes=153,no=154,missing=154
									153:[f11<0.00282648] yes=187,no=188,missing=188
										187:leaf=0.091496
										188:leaf=-0.0333333
									154:[f16<669] yes=189,no=190,missing=189
										189:[f11<0.00117196] yes=225,no=226,missing=226
											225:[f14<330.227] yes=263,no=264,missing=263
												263:leaf=-0.0831393
												264:leaf=0.0788339
											226:[f7<60] yes=265,no=266,missing=265
												265:leaf=0.0729525
												266:leaf=-0.05
										190:[f16<832] yes=227,no=228,missing=227
											227:leaf=-0.0870463
											228:[f14<200.5] yes=267,no=268,missing=267
												267:leaf=0.0662768
												268:leaf=-0.0756241
								120:leaf=-0.0690902
					42:leaf=-0.080155
		6:[f6<4.75] yes=13,no=14,missing=14
			13:[f11<0.00133899] yes=25,no=26,missing=25
				25:[f8<18.5] yes=43,no=44,missing=43
					43:[f2<11] yes=65,no=66,missing=65
						65:[f15<208.5] yes=89,no=90,missing=90
							89:[f8<34] yes=121,no=122,missing=122
								121:leaf=-0.0898977
								122:[f14<147.871] yes=155,no=156,missing=156
									155:[f11<0.000324631] yes=191,no=192,missing=192
										191:[f16<1876] yes=229,no=230,missing=229
											229:[f16<1467.5] yes=269,no=270,missing=269
												269:leaf=-0.0555551
												270:leaf=0.0782422
											230:leaf=-0.0769692
										192:leaf=-0.0898008
									156:[f14<177.175] yes=193,no=194,missing=194
										193:[f11<0.000344219] yes=231,no=232,missing=231
											231:leaf=-0.0765658
											232:[f5<3.5] yes=271,no=272,missing=272
												271:leaf=-0.0555395
												272:leaf=0.0582003
										194:[f12<0.261739] yes=233,no=234,missing=234
											233:leaf=0.0465071
											234:leaf=-0.0861962
							90:[f5<44.5] yes=123,no=124,missing=123
								123:leaf=-0.0911604
								124:[f5<45.5] yes=157,no=158,missing=158
									157:leaf=0.0423269
									158:leaf=-0.0892531
						66:[f12<1.71094] yes=91,no=92,missing=91
							91:leaf=-0.0841257
							92:[f11<0.000402681] yes=125,no=126,missing=125
								125:leaf=-0.0556707
								126:leaf=0.0833388
					44:[f5<33] yes=67,no=68,missing=68
						67:leaf=0.0755651
						68:leaf=-0.0333333
				26:[f10<1.5] yes=45,no=46,missing=46
					45:leaf=-0.0895031
					46:[f15<106.5] yes=69,no=70,missing=69
						69:[f2<3.5] yes=93,no=94,missing=94
							93:leaf=-0.0858893
							94:[f16<1460] yes=127,no=128,missing=127
								127:[f16<1066] yes=159,no=160,missing=159
									159:leaf=-0.0738009
									160:[f5<8.5] yes=197,no=198,missing=198
										197:leaf=-0.0498851
										198:[f12<0.387863] yes=237,no=238,missing=237
											237:[f11<0.00147266] yes=275,no=276,missing=276
												275:leaf=-0.0330468
												276:leaf=0.0829352
											238:leaf=-0.0458861
								128:[f16<2910] yes=161,no=162,missing=161
									161:[f7<1.5] yes=199,no=200,missing=200
										199:[f5<20.5] yes=239,no=240,missing=240
											239:leaf=0.0757151
											240:leaf=-0.0548557
										200:leaf=-0.0872049
									162:[f16<3286.5] yes=201,no=202,missing=201
										201:[f18<0.842115] yes=241,no=242,missing=242
											241:leaf=-0.0640598
											242:[f11<0.00154639] yes=277,no=278,missing=278
												277:leaf=-0.0454318
												278:leaf=0.0803846
										202:leaf=-0.07762
						70:[f11<0.00148539] yes=95,no=96,missing=96
							95:[f14<206.75] yes=129,no=130,missing=130
								129:[f16<4453.5] yes=163,no=164,missing=163
									163:leaf=-0.0766542
									164:leaf=0.0464978
								130:leaf=0.0819083
							96:[f5<120.5] yes=131,no=132,missing=132
								131:leaf=-0.0892679
								132:[f2<2.5] yes=165,no=166,missing=166
									165:leaf=0.0549573
									166:leaf=-0.0616288
			14:[f10<1.5] yes=27,no=28,missing=28
				27:leaf=-0.0873147
				28:[f11<0.000689802] yes=47,no=48,missing=48
					47:leaf=-0.0755876
					48:[f5<52.5] yes=71,no=72,missing=72
						71:[f18<0.215] yes=97,no=98,missing=97
							97:[f16<1020] yes=133,no=134,missing=133
								133:leaf=-0.0468753
								134:[f14<422.748] yes=167,no=168,missing=167
									167:[f8<2.5] yes=203,no=204,missing=203
										203:leaf=0.0879122
										204:leaf=-0.0309332
									168:leaf=-0.0467728
							98:leaf=-0.0469555
						72:leaf=-0.0559545
booster[2]:
0:[f9<48] yes=1,no=2,missing=2
	1:[f16<2696] yes=3,no=4,missing=3
		3:[f11<0.00142071] yes=7,no=8,missing=7
			7:[f5<44.5] yes=15,no=16,missing=15
				15:[f6<4.75] yes=29,no=30,missing=30
					29:[f17<1.5] yes=45,no=46,missing=46
						45:[f12<0.749468] yes=69,no=70,missing=69
							69:[f11<0.00124849] yes=99,no=100,missing=99
								99:[f18<0.0137597] yes=137,no=138,missing=137
									137:[f15<71.5] yes=181,no=182,missing=182
										181:leaf=-0.0517371
										182:[f7<9.5] yes=221,no=222,missing=221
											221:[f16<78] yes=251,no=252,missing=251
												251:leaf=-0.0317364
												252:leaf=0.0775754
											222:leaf=-0.0425662
									138:leaf=-0.0527378
								100:leaf=-0.0531097
							70:leaf=-0.0572325
						46:[f12<0.102578] yes=71,no=72,missing=71
							71:[f10<1.5] yes=101,no=102,missing=102
								101:[f16<412.5] yes=139,no=140,missing=139
									139:leaf=-0.0625264
									140:[f8<1.5] yes=183,no=184,missing=184
										183:leaf=-0.0469482
										184:[f7<2.5] yes=223,no=224,missing=224
											223:leaf=-0.0433293
											224:[f11<0.00106466] yes=253,no=254,missing=253
												253:leaf=0.0756522
												254:leaf=-0.0334127
								102:[f8<1.5] yes=141,no=142,missing=142
									141:[f10<2.5] yes=185,no=186,missing=186
										185:leaf=-0.0433419
										186:leaf=0.0706822
									142:leaf=-0.0756355
							72:leaf=-0.0764264
					30:leaf=-0.0730471
				16:leaf=-0.0779184
			8:[f14<193.893] yes=17,no=18,missing=17
				17:[f12<0.221638] yes=31,no=32,missing=31
					31:[f6<3.75] yes=47,no=48,missing=48
						47:leaf=-0.0442584
						48:[f15<58] yes=73,no=74,missing=74
							73:leaf=-0.0435458
							74:[f5<237] yes=103,no=104,missing=104
								103:[f5<6] yes=143,no=144,missing=144
									143:leaf=-0.0295762
									144:[f1300<-1.00136e-05] yes=187,no=188,missing=187
										187:[f4<9.5] yes=225,no=226,missing=226
											225:leaf=-0.0593759
											226:[f17<1.5] yes=255,no=256,missing=255
												255:leaf=0.0765815
												256:leaf=-0.05
										188:leaf=0.0837011
								104:leaf=-0.0297833
					32:[f6<4.7] yes=49,no=50,missing=50
						49:leaf=-0.0701256
						50:leaf=0.0677863
				18:leaf=-0.0702234
		4:[f8<1.5] yes=9,no=10,missing=10
			9:[f2<2.5] yes=19,no=20,missing=20
				19:leaf=0.078374
				20:leaf=-0.0517816
			10:leaf=-0.0810724
	2:[f16<844] yes=5,no=6,missing=5
		5:[f5<41.5] yes=11,no=12,missing=11
			11:[f5<32.5] yes=21,no=22,missing=22
				21:[f17<2.5] yes=33,no=34,missing=34
					33:[f12<0.404994] yes=51,no=52,missing=51
						51:[f6<3.75] yes=75,no=76,missing=75
							75:[f5<8] yes=105,no=106,missing=106
								105:leaf=-0.0780299
								106:[f16<253] yes=145,no=146,missing=145
									145:leaf=-0.0469312
									146:leaf=0.044104
							76:[f12<0.218076] yes=107,no=108,missing=108
								107:[f5<5.5] yes=147,no=148,missing=148
									147:[f5<3.5] yes=191,no=192,missing=192
										191:leaf=-0.041775
										192:leaf=0.0765258
									148:[f8<13.5] yes=193,no=194,missing=193
										193:leaf=-0.0780453
										194:leaf=0.0450617
								108:[f4<2.5] yes=149,no=150,missing=149
									149:[f18<0.12423] yes=195,no=196,missing=196
										195:leaf=-0.0619491
										196:[f5<3.5] yes=229,no=230,missing=230
											229:[f11<0.000163557] yes=257,no=258,missing=257
												257:leaf=-0.0521186
												258:leaf=0.0439638
											230:[f16<764] yes=259,no=260,missing=259
												259:leaf=0.0645537
												260:leaf=-0.062537
									150:leaf=-0.0700788
						52:leaf=-0.0798134
					34:[f16<577] yes=53,no=54,missing=53
						53:[f16<557.5] yes=77,no=78,missing=77
							77:[f15<46.5] yes=109,no=110,missing=110
								109:[f4<4.00001] yes=151,no=152,missing=152
									151:leaf=0.0786249
									152:leaf=-0.0284204
								110:[f16<229.5] yes=153,no=154,missing=153
									153:leaf=-0.0846504
									154:[f16<236.5] yes=197,no=198,missing=197
										197:leaf=0.0839108
										198:[f11<0.00171153] yes=231,no=232,missing=231
											231:[f5<31] yes=261,no=262,missing=262
												261:leaf=-0.0536467
												262:leaf=0.0745017
											232:[f10<3.5] yes=263,no=264,missing=264
												263:leaf=-0.0736847
												264:leaf=0.0572108
							78:[f5<10] yes=111,no=112,missing=112
								111:leaf=0.0829085
								112:leaf=-0.0557174
						54:[f15<348.5] yes=79,no=80,missing=79
							79:leaf=-0.0833448
							80:[f6<4.1] yes=113,no=114,missing=114
								113:leaf=0.0650121
								114:leaf=-0.0435479
				22:[f12<0.579449] yes=35,no=36,missing=36
					35:[f15<87.5] yes=55,no=56,missing=56
						55:leaf=-0.0748049
						56:[f6<4.05] yes=81,no=82,missing=81
							81:leaf=-0.0662975
							82:[f5<78] yes=115,no=116,missing=116
								115:leaf=-0.0567457
								116:leaf=0.0815434
					36:leaf=-0.0846069
			12:[f14<93.175] yes=23,no=24,missing=24
				23:leaf=-0.0776349
				24:[f2<5.5] yes=37,no=38,missing=37
					37:[f15<121.5] yes=57,no=58,missing=57
						57:[f11<0.00126359] yes=83,no=84,missing=84
							83:leaf=-0.0825397
							84:[f8<1.5] yes=117,no=118,missing=117
								117:[f14<716] yes=155,no=156,missing=156
									155:leaf=-0.0608072
									156:[f4<2.5] yes=199,no=200,missing=199
										199:[f2<3.5] yes=233,no=234,missing=233
											233:[f18<0.449448] yes=265,no=266,missing=266
												265:leaf=-0.0479469
												266:leaf=0.0652565
											234:leaf=-0.0496319
										200:leaf=-0.050404
								118:leaf=-0.0706505
						58:[f7<2] yes=85,no=86,missing=86
							85:leaf=-0.0446141
							86:[f6<4.15] yes=119,no=120,missing=120
								119:[f5<114.5] yes=157,no=158,missing=158
									157:leaf=-0.0684533
									158:leaf=0.0751528
								120:[f12<0.389833] yes=159,no=160,missing=159
									159:[f18<0.0293221] yes=201,no=202,missing=202
										201:leaf=-0.0286708
										202:[f7<48] yes=235,no=236,missing=235
											235:[f18<0.117037] yes=267,no=268,missing=267
												267:leaf=0.0789181
												268:leaf=-0.0278699
											236:leaf=-0.0279203
									160:leaf=-0.033295
					38:leaf=-0.0767602
		6:[f6<4.75] yes=13,no=14,missing=14
			13:[f16<1476] yes=25,no=26,missing=25
				25:[f16<1444.5] yes=39,no=40,missing=39
					39:[f12<0.200049] yes=59,no=60,missing=59
						59:[f5<120] yes=87,no=88,missing=87
							87:[f14<101.333] yes=121,no=122,missing=121
								121:[f7<16.5] yes=161,no=162,missing=162
									161:[f5<39.5] yes=203,no=204,missing=204
										203:leaf=-0.0740028
										204:leaf=0.078988
									162:[f14<90.5556] yes=205,no=206,missing=205
										205:[f8<10] yes=237,no=238,missing=237
											237:leaf=-0.0847988
											238:leaf=0.037602
										206:[f5<1.5] yes=239,no=240,missing=239
											239:[f16<942] yes=271,no=272,missing=271
												271:leaf=0.0766257
												272:leaf=-0.0304841
											240:leaf=-0.055351
								122:leaf=-0.0848414
							88:[f11<0.00202045] yes=123,no=124,missing=124
								123:[f6<4.35] yes=163,no=164,missing=164
									163:leaf=0.0783954
									164:leaf=-0.0427052
								124:leaf=-0.0471901
						60:[f16<1040] yes=89,no=90,missing=89
							89:[f11<0.00168971] yes=125,no=126,missing=126
								125:[f15<93.5] yes=165,no=166,missing=166
									165:leaf=-0.0704859
									166:[f7<3.5] yes=207,no=208,missing=208
										207:[f4<1.5] yes=241,no=242,missing=242
											241:leaf=0.0641134
											242:leaf=-0.0677295
										208:[f5<3] yes=243,no=244,missing=244
											243:leaf=-0.0425162
											244:[f6<4.55] yes=273,no=274,missing=274
												273:leaf=0.0742391
												274:leaf=-0.042489
								126:leaf=-0.0733647
							90:[f11<0.00219391] yes=127,no=128,missing=127
								127:leaf=-0.0820116
								128:[f2<6.00001] yes=167,no=168,missing=168
									167:leaf=-0.042316
									168:leaf=0.0775853
					40:[f6<4.05] yes=61,no=62,missing=62
						61:leaf=0.081671
						62:[f15<116.5] yes=91,no=92,missing=92
							91:leaf=0.0592957
							92:leaf=-0.0736689
				26:[f11<0.00448322] yes=41,no=42,missing=41
					41:[f7<2.5] yes=63,no=64,missing=64
						63:[f8<17] yes=93,no=94,missing=94
							93:leaf=-0.0805758
							94:[f5<19.5] yes=129,no=130,missing=130
								129:[f5<16.5] yes=169,no=170,missing=170
									169:leaf=-0.0693647
									170:[f12<3.74634] yes=209,no=210,missing=209
										209:leaf=0.0816745
										210:leaf=-0.0282211
								130:[f2<1.5] yes=171,no=172,missing=172
									171:leaf=0.0519554
									172:leaf=-0.0769629
						64:[f5<111.5] yes=95,no=96,missing=95
							95:[f6<3.65] yes=131,no=132,missing=132
								131:[f5<58] yes=173,no=174,missing=173
									173:leaf=-0.0776677
									174:leaf=0.0644653
								132:[f16<4144.5] yes=175,no=176,missing=175
									175:[f16<1845.5] yes=213,no=214,missing=213
										213:[f16<1842.5] yes=245,no=246,missing=245
											245:leaf=-0.0818286
											246:leaf=0.0622209
										214:[f15<104.5] yes=247,no=248,missing=248
											247:[f15<102.5] yes=277,no=278,missing=278
												277:leaf=-0.0803236
												278:leaf=0.00614253
											248:leaf=-0.0851426
									176:[f16<4146] yes=215,no=216,missing=215
										215:leaf=0.0702294
										216:[f11<0.00128075] yes=249,no=250,missing=249
											249:leaf=-0.0825539
											250:[f11<0.00139829] yes=279,no=280,missing=280
												279:leaf=0.0663976
												280:leaf=-0.0765578
							96:[f5<124.5] yes=133,no=134,missing=134
								133:[f16<2545.5] yes=177,no=178,missing=177
									177:leaf=-0.0663079
									178:[f11<0.00123927] yes=217,no=218,missing=218
										217:leaf=-0.0280501
										218:leaf=0.0788872
								134:leaf=-0.0786315
					42:[f5<24.5] yes=65,no=66,missing=66
						65:leaf=0.0783878
						66:leaf=-0.0658942
			14:[f10<1.5] yes=27,no=28,missing=28
				27:leaf=-0.0816504
				28:[f11<0.000769829] yes=43,no=44,missing=44
					43:leaf=-0.0755228
					44:[f5<52.5] yes=67,no=68,missing=68
						67:[f18<0.215] yes=97,no=98,missing=97
							97:[f14<422.748] yes=135,no=136,missing=135
								135:[f16<1020] yes=179,no=180,missing=179
									179:leaf=-0.0438375
									180:[f8<2.5] yes=219,no=220,missing=219
										219:leaf=0.0831978
										220:leaf=-0.0291822
								136:leaf=-0.0440715
							98:leaf=-0.0441048
						68:leaf=-0.0620472
booster[3]:
0:[f9<48] yes=1,no=2,missing=2
	1:[f11<0.00142071] yes=3,no=4,missing=3
		3:[f5<44.5] yes=7,no=8,missing=7
			7:[f6<4.75] yes=15,no=16,missing=16
				15:[f16<2633] yes=27,no=28,missing=27
					27:[f12<0.749468] yes=45,no=46,missing=45
						45:[f17<1.5] yes=69,no=70,missing=70
							69:[f15<71.5] yes=101,no=102,missing=102
								101:leaf=-0.0543123
								102:[f11<0.00124849] yes=137,no=138,missing=137
									137:[f18<0.0137597] yes=175,no=176,missing=175
										175:[f7<9.5] yes=221,no=222,missing=221
											221:[f8<36] yes=259,no=260,missing=260
												259:leaf=0.0725043
												260:leaf=-0.0313421
											222:leaf=-0.0482561
										176:leaf=-0.0491388
									138:leaf=-0.0498723
							70:[f15<172.5] yes=103,no=104,missing=104
								103:leaf=-0.0697924
								104:[f7<2.5] yes=139,no=140,missing=140
									139:leaf=-0.0642832
									140:[f16<1043.5] yes=177,no=178,missing=177
										177:[f16<232.5] yes=223,no=224,missing=223
											223:leaf=-0.0490321
											224:[f6<2.85] yes=261,no=262,missing=262
												261:leaf=-0.0466491
												262:leaf=0.0591599
										178:leaf=-0.0563232
						46:leaf=-0.0642719
					28:[f14<404] yes=47,no=48,missing=48
						47:leaf=-0.0724734
						48:leaf=0.0550068
				16:leaf=-0.0701374
			8:leaf=-0.0756273
		4:[f14<193.893] yes=9,no=10,missing=9
			9:[f16<2773.5] yes=17,no=18,missing=17
				17:[f15<58] yes=29,no=30,missing=30
					29:leaf=-0.0410015
					30:[f12<1.01399] yes=49,no=50,missing=49
						49:leaf=0.0697165
						50:leaf=-0.0398186
				18:[f6<4.55] yes=31,no=32,missing=32
					31:leaf=-0.0624612
					32:leaf=0.0663625
			10:leaf=-0.0677593
	2:[f16<958.5] yes=5,no=6,missing=5
		5:[f5<40.5] yes=11,no=12,missing=11
			11:[f17<6.00001] yes=19,no=20,missing=20
				19:[f6<3.75] yes=33,no=34,missing=33
					33:[f5<8] yes=51,no=52,missing=51
						51:leaf=-0.079261
						52:[f17<1.5] yes=75,no=76,missing=76
							75:[f11<0.000892615] yes=107,no=108,missing=108
								107:leaf=-0.0418856
								108:leaf=0.0656246
							76:leaf=-0.0586104
					34:[f16<553.5] yes=53,no=54,missing=53
						53:[f11<0.0115839] yes=77,no=78,missing=78
							77:[f5<30.5] yes=109,no=110,missing=109
								109:[f5<1.5] yes=143,no=144,missing=144
									143:[f6<4.4] yes=181,no=182,missing=182
										181:leaf=-0.0732193
										182:leaf=0.0593437
									144:[f12<0.218076] yes=183,no=184,missing=184
										183:[f8<13.5] yes=227,no=228,missing=227
											227:leaf=-0.0704937
											228:leaf=0.0676787
										184:[f18<0.12423] yes=229,no=230,missing=230
											229:leaf=-0.0582018
											230:[f12<1.32308] yes=265,no=266,missing=265
												265:leaf=0.0599908
												266:leaf=-0.053041
								110:leaf=-0.0707195
							78:[f12<0.284881] yes=111,no=112,missing=112
								111:[f2<15.5] yes=145,no=146,missing=146
									145:leaf=-0.048467
									146:leaf=0.0648007
								112:[f16<106] yes=147,no=148,missing=147
									147:leaf=0.0195303
									148:leaf=-0.0749277
						54:[f5<7.5] yes=79,no=80,missing=79
							79:[f11<0.000574617] yes=113,no=114,missing=114
								113:leaf=-0.0737528
								114:[f11<0.00086234] yes=149,no=150,missing=149
									149:[f6<4.35] yes=191,no=192,missing=192
										191:[f16<901] yes=233,no=234,missing=233
											233:leaf=-0.0647657
											234:leaf=0.0405946
										192:leaf=0.0733122
									150:[f18<0.281852] yes=193,no=194,missing=193
										193:leaf=-0.0753725
										194:leaf=0.0616296
							80:[f2<8.5] yes=115,no=116,missing=115
								115:leaf=-0.0792035
								116:[f15<111.5] yes=151,no=152,missing=152
									151:leaf=0.0395217
									152:leaf=-0.0480777
				20:[f8<3.5] yes=35,no=36,missing=36
					35:[f2<24.5] yes=55,no=56,missing=55
						55:leaf=-0.0791331
						56:[f16<314] yes=81,no=82,missing=81
							81:leaf=0.0615323
							82:leaf=-0.0609737
					36:[f2<2.5] yes=57,no=58,missing=58
						57:[f1<-9.53674e-06] yes=83,no=84,missing=83
							83:leaf=-0.0786049
							84:leaf=0.0662361
						58:[f12<0.61353] yes=85,no=86,missing=85
							85:[f14<164] yes=117,no=118,missing=117
								117:[f10<1.5] yes=153,no=154,missing=153
									153:[f6<4.55] yes=197,no=198,missing=197
										197:[f16<577] yes=237,no=238,missing=237
											237:[f16<232] yes=269,no=270,missing=269
												269:leaf=-0.00191371
												270:leaf=0.0540591
											238:[f15<164] yes=271,no=272,missing=271
												271:leaf=-0.0511179
												272:leaf=0.0717876
										198:leaf=-0.0726048
									154:leaf=-0.0724949
								118:[f6<4.8] yes=155,no=156,missing=155
									155:leaf=-0.0756487
									156:leaf=0.0343257
							86:[f16<938.5] yes=119,no=120,missing=119
								119:leaf=-0.0783284
								120:leaf=0.0541661
			12:[f15<121.5] yes=21,no=22,missing=22
				21:leaf=-0.0740899
				22:[f8<6.5] yes=37,no=38,missing=37
					37:[f14<93.175] yes=59,no=60,missing=60
						59:leaf=-0.0670875
						60:[f3<8.00001] yes=87,no=88,missing=88
							87:[f11<0.00282648] yes=121,no=122,missing=122
								121:leaf=0.0807334
								122:leaf=-0.0469746
							88:[f11<0.000435818] yes=123,no=124,missing=124
								123:leaf=-0.0674583
								124:[f4<3.5] yes=157,no=158,missing=157
									157:[f15<425] yes=201,no=202,missing=202
										201:[f16<852.5] yes=239,no=240,missing=239
											239:[f12<0.345591] yes=273,no=274,missing=273
												273:leaf=0.0693762
												274:leaf=-0.0433289
											240:[f2<4.5] yes=275,no=276,missing=275
												275:leaf=-0.0727648
												276:leaf=0.0683492
										202:[f6<4.35] yes=241,no=242,missing=242
											241:[f18<0.449448] yes=277,no=278,missing=278
												277:leaf=-0.0603451
												278:leaf=0.0550465
											242:[f11<0.000628765] yes=279,no=280,missing=280
												279:leaf=0.0650494
												280:leaf=-0.0826175
									158:leaf=-0.0676379
					38:leaf=-0.0696822
		6:[f6<4.75] yes=13,no=14,missing=14
			13:[f11<0.00133899] yes=23,no=24,missing=23
				23:[f2<11] yes=39,no=40,missing=39
					39:[f8<18.5] yes=61,no=62,missing=61
						61:[f15<188.5] yes=89,no=90,missing=90
							89:[f16<4012.5] yes=125,no=126,missing=125
								125:[f16<1042] yes=159,no=160,missing=159
									159:[f16<1009.5] yes=203,no=204,missing=203
										203:leaf=-0.066094
										204:leaf=0.0566592
									160:[f18<0.248529] yes=205,no=206,missing=205
										205:[f11<0.000117962] yes=247,no=248,missing=248
											247:[f14<112.464] yes=283,no=284,missing=284
												283:leaf=0.0290299
												284:leaf=-0.0670642
											248:leaf=-0.0792917
										206:[f11<0.000487388] yes=249,no=250,missing=250
											249:leaf=0.0584255
											250:leaf=-0.067298
								126:[f16<4185] yes=161,no=162,missing=161
									161:[f5<4.5] yes=207,no=208,missing=208
										207:leaf=-0.0424054
										208:[f14<150.613] yes=251,no=252,missing=252
											251:leaf=-0.0416854
											252:leaf=0.0681395
									162:leaf=-0.075244
							90:[f5<38.5] yes=127,no=128,missing=127
								127:leaf=-0.0796228
								128:[f5<45.5] yes=163,no=164,missing=164
									163:[f5<44.5] yes=209,no=210,missing=210
										209:leaf=-0.0614414
										210:leaf=0.0407765
									164:leaf=-0.0783826
						62:leaf=0.0395678
					40:[f12<1.71094] yes=63,no=64,missing=63
						63:leaf=-0.0725291
						64:[f11<0.000402681] yes=93,no=94,missing=93
							93:leaf=-0.0481039
							94:leaf=0.0723688
				24:[f10<1.5] yes=41,no=42,missing=42
					41:leaf=-0.078342
					42:[f5<19.5] yes=65,no=66,missing=66
						65:[f5<10.5] yes=95,no=96,missing=96
							95:leaf=-0.0743619
							96:[f14<121.438] yes=129,no=130,missing=129
								129:[f2<2.5] yes=165,no=166,missing=166
									165:leaf=-0.0480108
									166:[f18<0.331843] yes=211,no=212,missing=212
										211:leaf=-0.0468419
										212:[f18<0.363627] yes=257,no=258,missing=257
											257:[f12<0.435173] yes=289,no=290,missing=289
												289:leaf=0.0713934
												290:leaf=-0.0397666
											258:leaf=-0.0411765
								130:[f12<0.292615] yes=167,no=168,missing=168
									167:leaf=0.0500093
									168:leaf=-0.067566
						66:[f5<111] yes=97,no=98,missing=98
							97:[f18<0.410222] yes=131,no=132,missing=131
								131:[f2<11] yes=169,no=170,missing=169
									169:leaf=-0.0795117
									170:[f16<1579] yes=215,no=216,missing=215
										215:leaf=0.0534611
										216:leaf=-0.0526944
								132:leaf=0.0626049
							98:[f11<0.00186036] yes=133,no=134,missing=134
								133:[f15<206] yes=171,no=172,missing=172
									171:leaf=-0.040551
									172:leaf=0.0736611
								134:leaf=-0.071018
			14:[f10<1.5] yes=25,no=26,missing=26
				25:leaf=-0.0756707
				26:[f11<0.000689802] yes=43,no=44,missing=44
					43:leaf=-0.0642976
					44:[f5<52.5] yes=67,no=68,missing=68
						67:[f14<422.748] yes=99,no=100,missing=99
							99:[f7<1.5] yes=135,no=136,missing=135
								135:[f12<0.91907] yes=173,no=174,missing=173
									173:[f16<4395.5] yes=219,no=220,missing=219
										219:leaf=0.0781428
										220:leaf=-0.027568
									174:leaf=-0.0413249
								136:leaf=-0.0414763
							100:leaf=-0.0416276
						68:leaf=-0.0491317
booster[4]:
0:[f9<48] yes=1,no=2,missing=2
	1:[f11<0.00142071] yes=3,no=4,missing=3
		3:[f5<44.5] yes=7,no=8,missing=7
			7:[f16<3750.5] yes=15,no=16,missing=15
				15:[f16<131.5] yes=27,no=28,missing=27
					27:leaf=-0.0655503
					28:[f12<0.749468] yes=45,no=46,missing=45
						45:[f15<71.5] yes=65,no=66,missing=66
							65:leaf=-0.0612353
							66:[f8<2.5] yes=93,no=94,missing=94
								93:[f6<3.45] yes=125,no=126,missing=126
									125:leaf=-0.0438394
									126:[f2<7.5] yes=161,no=162,missing=161
										161:leaf=0.0653648
										162:leaf=-0.0333333
								94:[f10<1.5] yes=127,no=128,missing=128
									127:[f9<2.5] yes=163,no=164,missing=164
										163:[f4<1.5] yes=201,no=202,missing=202
											201:leaf=0.066858
											202:leaf=-0.0738736
										164:[f16<2062] yes=203,no=204,missing=203
											203:[f12<0.0855256] yes=235,no=236,missing=236
												235:leaf=-0.0462105
												236:leaf=0.0623647
											204:leaf=-0.0471021
									128:leaf=-0.0708893
						46:leaf=-0.0637235
				16:leaf=-0.0649754
			8:leaf=-0.0714994
		4:[f14<193.893] yes=9,no=10,missing=9
			9:[f12<0.221638] yes=17,no=18,missing=17
				17:[f15<58] yes=29,no=30,missing=30
					29:leaf=-0.0387812
					30:[f16<2773.5] yes=47,no=48,missing=47
						47:[f5<237] yes=67,no=68,missing=68
							67:[f5<6] yes=95,no=96,missing=96
								95:leaf=-0.0281128
								96:[f6<3.75] yes=129,no=130,missing=130
									129:leaf=-0.027516
									130:[f14<87.629] yes=165,no=166,missing=166
										165:[f6<4.45] yes=205,no=206,missing=206
											205:leaf=-0.059618
											206:leaf=0.0718331
										166:[f6<4.35] yes=207,no=208,missing=208
											207:leaf=0.0727264
											208:[f8<4] yes=237,no=238,missing=238
												237:leaf=0.0749538
												238:leaf=0.00709067
							68:leaf=-0.0285593
						48:[f6<4.55] yes=69,no=70,missing=70
							69:leaf=-0.0540703
							70:leaf=0.061894
				18:[f6<4.7] yes=31,no=32,missing=32
					31:leaf=-0.0624393
					32:leaf=0.0608413
			10:leaf=-0.0620848
	2:[f16<958.5] yes=5,no=6,missing=5
		5:[f5<40.5] yes=11,no=12,missing=11
			11:[f6<3.75] yes=19,no=20,missing=19
				19:[f11<0.000999335] yes=33,no=34,missing=34
					33:[f15<266] yes=49,no=50,missing=50
						49:leaf=-0.0713473
						50:[f2<24] yes=71,no=72,missing=72
							71:leaf=-0.0515608
							72:leaf=0.0691556
					34:leaf=-0.0746871
				20:[f17<2.5] yes=35,no=36,missing=36
					35:[f4<2.5] yes=51,no=52,missing=51
						51:[f12<0.39024] yes=73,no=74,missing=73
							73:[f16<814.5] yes=99,no=100,missing=99
								99:[f5<31] yes=131,no=132,missing=132
									131:[f12<0.218076] yes=167,no=168,missing=168
										167:[f5<5.5] yes=209,no=210,missing=210
											209:[f12<0.0295649] yes=239,no=240,missing=240
												239:leaf=-0.0466848
												240:leaf=0.0663952
											210:leaf=-0.0692888
										168:[f5<3.5] yes=211,no=212,missing=212
											211:[f11<0.000163557] yes=241,no=242,missing=241
												241:leaf=-0.041123
												242:leaf=0.0378863
											212:[f18<0.12423] yes=243,no=244,missing=244
												243:leaf=-0.0550243
												244:leaf=0.0557976
									132:[f12<0.0403011] yes=169,no=170,missing=169
										169:leaf=-0.0718022
										170:[f8<7.5] yes=213,no=214,missing=214
											213:leaf=-0.0386266
											214:leaf=0.0608006
								100:[f5<1.5] yes=133,no=134,missing=133
									133:[f16<942] yes=171,no=172,missing=171
										171:leaf=0.0624702
										172:leaf=-0.041423
									134:leaf=-0.0705625
							74:[f16<902.5] yes=101,no=102,missing=101
								101:[f2<46] yes=135,no=136,missing=136
									135:leaf=-0.0735501
									136:leaf=0.0207474
								102:[f5<8.5] yes=137,no=138,missing=138
									137:leaf=0.0640674
									138:leaf=-0.0496611
						52:leaf=-0.0609842
					36:[f7<1.5] yes=53,no=54,missing=54
						53:[f8<44] yes=77,no=78,missing=78
							77:leaf=-0.0699499
							78:[f5<19] yes=103,no=104,missing=104
								103:[f5<4] yes=139,no=140,missing=140
									139:leaf=-0.0373867
									140:[f14<186.5] yes=177,no=178,missing=177
										177:leaf=0.0623793
										178:leaf=-0.0372609
								104:leaf=-0.0593638
						54:[f2<4.5] yes=79,no=80,missing=80
							79:leaf=-0.0757625
							80:[f11<0.000374547] yes=105,no=106,missing=106
								105:leaf=-0.0744479
								106:[f16<229.5] yes=141,no=142,missing=141
									141:leaf=-0.0725359
									142:[f16<584] yes=179,no=180,missing=179
										179:[f6<4.15] yes=217,no=218,missing=218
											217:leaf=-0.0736376
											218:[f5<6.5] yes=249,no=250,missing=250
												249:leaf=-0.0217956
												250:leaf=0.0541444
										180:[f6<3.95] yes=219,no=220,missing=220
											219:[f5<13.5] yes=251,no=252,missing=251
												251:leaf=-0.054154
												252:leaf=0.0705048
											220:[f5<37.5] yes=253,no=254,missing=253
												253:leaf=-0.0746398
												254:leaf=0.0575954
			12:[f15<121.5] yes=21,no=22,missing=22
				21:leaf=-0.070764
				22:[f8<6.5] yes=37,no=38,missing=37
					37:[f14<93.175] yes=55,no=56,missing=56
						55:leaf=-0.0633028
						56:[f3<8.00001] yes=81,no=82,missing=82
							81:[f11<0.00282648] yes=107,no=108,missing=108
								107:leaf=0.0767523
								108:leaf=-0.0293007
							82:[f11<0.000435818] yes=109,no=110,missing=110
								109:leaf=-0.0651504
								110:[f4<3.5] yes=143,no=144,missing=143
									143:[f14<223.188] yes=181,no=182,missing=182
										181:[f8<3] yes=221,no=222,missing=222
											221:leaf=-0.0499648
											222:[f11<0.0023343] yes=255,no=256,missing=256
												255:leaf=0.0673593
												256:leaf=-0.0418319
										182:[f8<1.5] yes=223,no=224,missing=223
											223:[f5<42.5] yes=257,no=258,missing=258
												257:leaf=-0.0628624
												258:leaf=0.041925
											224:leaf=-0.0676045
									144:leaf=-0.0646642
					38:leaf=-0.0682137
		6:[f6<4.75] yes=13,no=14,missing=14
			13:[f11<0.00133899] yes=23,no=24,missing=23
				23:[f8<18.5] yes=39,no=40,missing=39
					39:[f2<11] yes=57,no=58,missing=57
						57:[f16<1040] yes=83,no=84,missing=83
							83:[f12<0.302416] yes=111,no=112,missing=111
								111:leaf=-0.0718723
								112:[f14<128.571] yes=145,no=146,missing=146
									145:leaf=-0.0524623
									146:leaf=0.0626737
							84:[f16<4012.5] yes=113,no=114,missing=113
								113:[f5<38.5] yes=147,no=148,missing=147
									147:[f15<91] yes=183,no=184,missing=184
										183:[f15<89.5] yes=225,no=226,missing=226
											225:leaf=-0.0681168
											226:leaf=0.0513903
										184:leaf=-0.0754109
									148:[f5<45.5] yes=185,no=186,missing=186
										185:[f16<1848] yes=227,no=228,missing=227
											227:[f16<1730.5] yes=259,no=260,missing=259
												259:leaf=-0.0610506
												260:leaf=0.0643016
											228:leaf=-0.0679019
										186:leaf=-0.0749078
								114:[f16<4146] yes=149,no=150,missing=149
									149:[f15<190] yes=187,no=188,missing=188
										187:[f5<4.5] yes=229,no=230,missing=230
											229:leaf=-0.0401137
											230:[f14<150.613] yes=261,no=262,missing=262
												261:leaf=-0.0384266
												262:leaf=0.0640805
										188:leaf=-0.0637315
									150:leaf=-0.0738188
						58:[f12<1.71094] yes=85,no=86,missing=85
							85:leaf=-0.0691724
							86:[f11<0.000402681] yes=115,no=116,missing=115
								115:leaf=-0.0454069
								116:leaf=0.0684572
					40:[f5<33] yes=59,no=60,missing=60
						59:leaf=0.0640832
						60:leaf=-0.0429068
				24:[f10<1.5] yes=41,no=42,missing=42
					41:leaf=-0.0742434
					42:[f5<19.5] yes=61,no=62,missing=62
						61:[f5<10.5] yes=87,no=88,missing=88
							87:leaf=-0.0705929
							88:[f14<121.438] yes=117,no=118,missing=117
								117:[f2<2.5] yes=151,no=152,missing=152
									151:leaf=-0.0453825
									152:[f18<0.331843] yes=189,no=190,missing=190
										189:leaf=-0.0442692
										190:[f18<0.363627] yes=231,no=232,missing=231
											231:[f12<0.435173] yes=263,no=264,missing=263
												263:leaf=0.0683538
												264:leaf=-0.0376777
											232:leaf=-0.0391448
								118:[f11<0.00142075] yes=153,no=154,missing=154
									153:leaf=0.0396162
									154:leaf=-0.0635049
						62:[f5<111] yes=89,no=90,missing=90
							89:[f18<0.410222] yes=119,no=120,missing=119
								119:[f2<11] yes=155,no=156,missing=155
									155:leaf=-0.0756255
									156:[f16<1579] yes=193,no=194,missing=193
										193:leaf=0.0623977
										194:leaf=-0.0446589
								120:leaf=0.0621755
							90:[f11<0.00186036] yes=121,no=122,missing=122
								121:[f15<206] yes=157,no=158,missing=158
									157:leaf=-0.0383425
									158:leaf=0.0683083
								122:leaf=-0.0656156
			14:[f10<1.5] yes=25,no=26,missing=26
				25:leaf=-0.0723176
				26:[f11<0.000689802] yes=43,no=44,missing=44
					43:leaf=-0.0621391
					44:[f5<52.5] yes=63,no=64,missing=64
						63:[f14<422.748] yes=91,no=92,missing=91
							91:[f18<0.215] yes=123,no=124,missing=123
								123:[f12<0.91907] yes=159,no=160,missing=159
									159:leaf=0.0727012
									160:leaf=-0.0393693
								124:leaf=-0.0394116
							92:leaf=-0.0394641
						64:leaf=-0.0465802
booster[5]:
0:[f9<48] yes=1,no=2,missing=2
	1:[f11<0.000892938] yes=3,no=4,missing=3
		3:[f10<1.5] yes=7,no=8,missing=8
			7:[f16<2633] yes=15,no=16,missing=15
				15:[f15<71.5] yes=29,no=30,missing=29
					29:[f6<3.15] yes=51,no=52,missing=52
						51:[f8<3] yes=81,no=82,missing=82
							81:leaf=-0.0414574
							82:leaf=0.0689782
						52:[f18<0.641519] yes=83,no=84,missing=84
							83:leaf=0.0563264
							84:leaf=-0.0726179
					30:[f11<0.00072703] yes=53,no=54,missing=53
						53:[f12<0.74508] yes=85,no=86,missing=86
							85:leaf=0.0728179
							86:[f11<0.00055991] yes=119,no=120,missing=119
								119:leaf=-0.0706019
								120:leaf=0.0695752
						54:leaf=-0.0558196
				16:leaf=-0.0628289
			8:[f7<1.5] yes=17,no=18,missing=18
				17:[f5<9] yes=31,no=32,missing=32
					31:leaf=0.0448012
					32:leaf=-0.0413829
				18:leaf=-0.0706869
		4:[f14<193.893] yes=9,no=10,missing=9
			9:[f16<3750.5] yes=19,no=20,missing=19
				19:[f15<130.5] yes=33,no=34,missing=34
					33:[f2<2.5] yes=55,no=56,missing=55
						55:[f11<0.00142043] yes=87,no=88,missing=88
							87:[f5<166] yes=121,no=122,missing=122
								121:leaf=-0.0589548
								122:leaf=0.0506279
							88:[f11<0.00262654] yes=123,no=124,missing=124
								123:[f15<58] yes=159,no=160,missing=160
									159:leaf=-0.0366562
									160:[f2<1.5] yes=205,no=206,missing=206
										205:leaf=-0.0323125
										206:leaf=0.073613
								124:leaf=-0.0450623
						56:leaf=-0.061409
					34:[f12<1.01399] yes=57,no=58,missing=57
						57:[f14<132.418] yes=89,no=90,missing=90
							89:leaf=-0.0371994
							90:[f2<24.5] yes=125,no=126,missing=126
								125:[f18<0.0133797] yes=161,no=162,missing=161
									161:[f16<1447] yes=207,no=208,missing=207
										207:leaf=0.0721057
										208:[f16<2266] yes=251,no=252,missing=251
											251:leaf=-0.0527335
											252:leaf=0.0687905
									162:leaf=-0.0240183
								126:[f8<3] yes=163,no=164,missing=164
									163:[f11<0.00603682] yes=209,no=210,missing=210
										209:leaf=0.0669521
										210:leaf=-0.0333333
									164:[f7<34.5] yes=211,no=212,missing=211
										211:leaf=-0.0741885
										212:leaf=0.0611486
						58:leaf=-0.0425054
				20:[f8<1.5] yes=35,no=36,missing=36
					35:leaf=0.0284204
					36:leaf=-0.0579327
			10:leaf=-0.0667792
	2:[f16<844] yes=5,no=6,missing=5
		5:[f5<42.5] yes=11,no=12,missing=11
			11:[f12<0.39024] yes=21,no=22,missing=21
				21:[f5<32.5] yes=37,no=38,missing=38
					37:[f17<2.5] yes=59,no=60,missing=60
						59:[f6<3.65] yes=91,no=92,missing=91
							91:[f11<0.00120191] yes=127,no=128,missing=127
								127:leaf=-0.0653796
								128:leaf=0.00914805
							92:[f4<2.5] yes=129,no=130,missing=130
								129:[f12<0.061536] yes=167,no=168,missing=168
									167:leaf=-0.0419766
									168:leaf=0.0683102
								130:[f16<612.5] yes=169,no=170,missing=169
									169:[f15<67.5] yes=215,no=216,missing=216
										215:leaf=-0.0603876
										216:[f11<0.00013385] yes=257,no=258,missing=257
											257:[f2<16] yes=291,no=292,missing=291
												291:leaf=-0.0700777
												292:leaf=0.044678
											258:[f18<0.12423] yes=293,no=294,missing=294
												293:leaf=-0.0552102
												294:leaf=0.0466291
									170:[f11<0.00206421] yes=217,no=218,missing=218
										217:[f5<3.5] yes=259,no=260,missing=260
											259:[f15<119] yes=295,no=296,missing=296
												295:leaf=-0.0575037
												296:leaf=0.0433267
											260:leaf=-0.0727471
										218:leaf=0.0475514
						60:[f8<3.5] yes=93,no=94,missing=94
							93:[f2<24.5] yes=131,no=132,missing=131
								131:leaf=-0.0710406
								132:[f6<4.45] yes=171,no=172,missing=172
									171:leaf=-0.052319
									172:leaf=0.0605881
							94:[f14<93.7083] yes=133,no=134,missing=133
								133:[f16<577] yes=173,no=174,missing=173
									173:[f7<3.5] yes=219,no=220,missing=219
										219:[f2<3.5] yes=263,no=264,missing=263
											263:[f11<0.00361584] yes=297,no=298,missing=298
												297:leaf=0.0447652
												298:leaf=-0.0592886
											264:[f5<30.5] yes=299,no=300,missing=300
												299:leaf=-0.069092
												300:leaf=0.0378283
										220:leaf=-0.0688506
									174:leaf=-0.0691615
								134:[f5<26] yes=175,no=176,missing=176
									175:leaf=-0.0713579
									176:[f2<10] yes=221,no=222,missing=222
										221:leaf=-0.0469818
										222:leaf=0.0611482
					38:[f12<0.0772783] yes=61,no=62,missing=62
						61:[f6<3.7] yes=95,no=96,missing=96
							95:leaf=-0.0339842
							96:leaf=0.069165
						62:[f12<0.217701] yes=97,no=98,missing=97
							97:leaf=-0.0731876
							98:[f8<26] yes=135,no=136,missing=136
								135:leaf=-0.0351469
								136:leaf=0.0556978
				22:[f17<2.5] yes=39,no=40,missing=39
					39:[f5<41.5] yes=63,no=64,missing=64
						63:leaf=-0.0725429
						64:[f2<46] yes=99,no=100,missing=100
							99:leaf=-0.0597271
							100:leaf=0.05796
					40:leaf=0.0571505
			12:[f8<1.5] yes=23,no=24,missing=23
				23:[f15<121.5] yes=41,no=42,missing=42
					41:leaf=-0.062924
					42:[f11<0.00137209] yes=67,no=68,missing=68
						67:[f16<599.5] yes=101,no=102,missing=101
							101:[f7<13] yes=137,no=138,missing=137
								137:[f4<2] yes=179,no=180,missing=179
									179:[f14<209.1] yes=223,no=224,missing=224
										223:leaf=-0.0426057
										224:[f6<4.25] yes=265,no=266,missing=266
											265:leaf=-0.0464343
											266:[f11<0.00131035] yes=301,no=302,missing=302
												301:leaf=0.0709137
												302:leaf=-0.0333902
									180:leaf=-0.0515555
								138:leaf=-0.0679151
							102:leaf=-0.0674333
						68:[f5<48] yes=103,no=104,missing=104
							103:leaf=-0.0422647
							104:leaf=0.061264
				24:[f15<138.5] yes=43,no=44,missing=44
					43:[f15<134.5] yes=69,no=70,missing=70
						69:leaf=-0.0535167
						70:leaf=0.068572
					44:leaf=-0.0699134
		6:[f6<4.75] yes=13,no=14,missing=14
			13:[f16<1476] yes=25,no=26,missing=25
				25:[f15<106] yes=45,no=46,missing=45
					45:[f15<89.5] yes=71,no=72,missing=71
						71:[f7<9.5] yes=105,no=106,missing=105
							105:[f6<4.05] yes=141,no=142,missing=142
								141:[f5<14] yes=183,no=184,missing=183
									183:leaf=-0.0663758
									184:[f8<9] yes=227,no=228,missing=228
										227:leaf=-0.0519038
										228:[f2<5.5] yes=269,no=270,missing=270
											269:leaf=-0.0379492
											270:leaf=0.0653914
								142:[f2<11] yes=185,no=186,missing=185
									185:[f5<354] yes=229,no=230,missing=230
										229:leaf=-0.0726281
										230:leaf=0.0232466
									186:[f7<2.00001] yes=231,no=232,missing=232
										231:leaf=0.0608712
										232:leaf=-0.0542953
							106:leaf=0.0617841
						72:[f6<3.85] yes=107,no=108,missing=108
							107:leaf=-0.0608477
							108:[f5<4.5] yes=145,no=146,missing=145
								145:[f6<4.55] yes=189,no=190,missing=190
									189:leaf=-0.0510286
									190:leaf=0.0516179
								146:[f6<4.55] yes=191,no=192,missing=192
									191:leaf=0.0674232
									192:leaf=-0.0345958
					46:[f12<0.200049] yes=73,no=74,missing=73
						73:[f5<117] yes=109,no=110,missing=109
							109:leaf=-0.0724905
							110:leaf=0.0327764
						74:[f16<1041.5] yes=111,no=112,missing=111
							111:[f14<133.571] yes=149,no=150,missing=150
								149:leaf=-0.0635739
								150:[f16<937] yes=193,no=194,missing=193
									193:leaf=-0.0425451
									194:[f11<0.00213661] yes=235,no=236,missing=236
										235:leaf=0.064642
										236:leaf=-0.0339403
							112:leaf=-0.0678468
				26:[f11<0.00448322] yes=47,no=48,missing=47
					47:[f7<2.5] yes=75,no=76,missing=76
						75:[f8<17] yes=113,no=114,missing=114
							113:leaf=-0.0676737
							114:[f16<2724] yes=151,no=152,missing=151
								151:[f10<3.5] yes=195,no=196,missing=196
									195:[f11<0.00154194] yes=237,no=238,missing=238
										237:leaf=0.0670381
										238:leaf=-0.0334568
									196:[f11<0.00145229] yes=239,no=240,missing=239
										239:leaf=-0.0626771
										240:leaf=0.050843
								152:leaf=-0.0602184
						76:[f5<111.5] yes=115,no=116,missing=115
							115:[f6<3.65] yes=153,no=154,missing=154
								153:[f5<58] yes=197,no=198,missing=197
									197:leaf=-0.0673641
									198:leaf=0.0509648
								154:[f17<1.5] yes=199,no=200,missing=199
									199:[f16<1845.5] yes=243,no=244,missing=243
										243:[f16<1842.5] yes=281,no=282,missing=281
											281:[f11<0.00013245] yes=307,no=308,missing=308
												307:leaf=-0.00787101
												308:leaf=-0.0713054
											282:leaf=0.0504685
										244:[f14<112.464] yes=283,no=284,missing=284
											283:[f14<110] yes=311,no=312,missing=312
												311:leaf=-0.0701559
												312:leaf=-0.0167741
											284:leaf=-0.0725664
									200:[f16<4138.5] yes=245,no=246,missing=245
										245:leaf=-0.0702033
										246:[f16<4185] yes=285,no=286,missing=285
											285:leaf=0.0612414
											286:leaf=-0.0533226
							116:[f15<242] yes=155,no=156,missing=156
								155:leaf=-0.0659367
								156:[f8<8.00001] yes=201,no=202,missing=202
									201:leaf=-0.0538836
									202:[f11<0.00178991] yes=247,no=248,missing=248
										247:leaf=0.0615996
										248:leaf=-0.0354798
					48:[f5<24.5] yes=77,no=78,missing=78
						77:leaf=0.0667808
						78:leaf=-0.054821
			14:[f10<1.5] yes=27,no=28,missing=28
				27:leaf=-0.0689311
				28:[f11<0.000769829] yes=49,no=50,missing=50
					49:leaf=-0.0645382
					50:[f16<1020] yes=79,no=80,missing=79
						79:leaf=-0.0538071
						80:[f5<52.5] yes=117,no=118,missing=118
							117:[f14<422.748] yes=157,no=158,missing=157
								157:[f18<0.215] yes=203,no=204,missing=203
									203:leaf=0.0659945
									204:leaf=-0.037353
								158:leaf=-0.0377439
							118:leaf=-0.044582
booster[6]:
0:[f9<48] yes=1,no=2,missing=2
	1:[f11<0.00142071] yes=3,no=4,missing=3
		3:[f5<44.5] yes=7,no=8,missing=7
			7:[f6<4.75] yes=15,no=16,missing=16
				15:[f16<2633] yes=27,no=28,missing=27
					27:[f2<12.5] yes=45,no=46,missing=46
						45:[f4<2.5] yes=73,no=74,missing=74
							73:[f16<542.5] yes=103,no=104,missing=103
								103:leaf=0.053389
								104:leaf=-0.0612564
							74:[f6<3.7] yes=105,no=106,missing=106
								105:leaf=-0.0432166
								106:[f11<0.00124849] yes=143,no=144,missing=143
									143:[f18<0.0137597] yes=181,no=182,missing=181
										181:[f17<4.00001] yes=221,no=222,missing=222
											221:leaf=0.0632268
											222:[f11<0.000835298] yes=267,no=268,missing=267
												267:leaf=-0.0572132
												268:leaf=0.0647979
										182:leaf=-0.0327592
									144:leaf=-0.0358461
						46:[f5<16.5] yes=75,no=76,missing=76
							75:[f8<10.5] yes=107,no=108,missing=108
								107:[f14<145] yes=145,no=146,missing=146
									145:leaf=-0.0522115
									146:[f11<0.00100702] yes=183,no=184,missing=184
										183:[f6<4.15] yes=223,no=224,missing=224
											223:leaf=-0.0369551
											224:leaf=0.0679662
										184:[f9<2.5] yes=225,no=226,missing=226
											225:leaf=-0.0590682
											226:leaf=0.0563833
								108:leaf=-0.0562892
							76:leaf=-0.0546045
					28:[f14<404] yes=47,no=48,missing=48
						47:leaf=-0.0626342
						48:leaf=0.0420886
				16:leaf=-0.0620679
			8:leaf=-0.0651956
		4:[f14<193.893] yes=9,no=10,missing=9
			9:[f15<58] yes=17,no=18,missing=18
				17:leaf=-0.0420133
				18:[f12<0.221638] yes=29,no=30,missing=29
					29:[f5<6] yes=49,no=50,missing=50
						49:leaf=-0.0272301
						50:[f16<2773.5] yes=79,no=80,missing=79
							79:[f5<237] yes=111,no=112,missing=112
								111:[f6<3.75] yes=149,no=150,missing=150
									149:leaf=-0.0240636
									150:[f16<134] yes=185,no=186,missing=185
										185:[f3<3.5] yes=227,no=228,missing=227
											227:leaf=-0.0580543
											228:leaf=0.0634396
										186:[f8<2.5] yes=229,no=230,missing=230
											229:leaf=0.0707286
											230:[f9<1.5] yes=269,no=270,missing=270
												269:leaf=-0.0659459
												270:leaf=0.0648433
								112:leaf=-0.0255792
							80:[f6<4.55] yes=113,no=114,missing=114
								113:leaf=-0.0484789
								114:leaf=0.058375
					30:[f6<4.7] yes=51,no=52,missing=52
						51:leaf=-0.0541269
						52:leaf=0.0560291
			10:leaf=-0.0558017
	2:[f16<844] yes=5,no=6,missing=5
		5:[f5<47.5] yes=11,no=12,missing=11
			11:[f1<-9.53674e-06] yes=19,no=20,missing=19
				19:[f17<6.00001] yes=31,no=32,missing=32
					31:[f6<3.65] yes=53,no=54,missing=53
						53:leaf=-0.0635351
						54:[f11<0.000310387] yes=83,no=84,missing=83
							83:[f14<101.764] yes=117,no=118,missing=118
								117:[f2<5] yes=151,no=152,missing=152
									151:[f5<1.5] yes=187,no=188,missing=188
										187:[f11<0.000192487] yes=231,no=232,missing=232
											231:leaf=0.0572863
											232:leaf=-0.0408841
										188:leaf=-0.0646602
									152:[f5<7.5] yes=189,no=190,missing=190
										189:[f10<2.00001] yes=233,no=234,missing=234
											233:leaf=0.0688026
											234:leaf=-0.0397329
										190:[f8<11.5] yes=235,no=236,missing=235
											235:[f12<0.480073] yes=271,no=272,missing=271
												271:leaf=-0.0345606
												272:leaf=0.0333603
											236:leaf=0.0606099
								118:leaf=-0.0707079
							84:[f16<556] yes=119,no=120,missing=119
								119:[f5<30.5] yes=153,no=154,missing=153
									153:[f12<0.218076] yes=191,no=192,missing=192
										191:leaf=-0.062376
										192:[f5<1.5] yes=237,no=238,missing=238
											237:leaf=-0.0593119
											238:[f8<6.5] yes=273,no=274,missing=273
												273:leaf=0.0509778
												274:leaf=-0.0634251
									154:[f12<0.0718369] yes=193,no=194,missing=194
										193:leaf=0.0403832
										194:leaf=-0.0630228
								120:[f5<5.5] yes=155,no=156,missing=156
									155:[f6<4.25] yes=195,no=196,missing=196
										195:leaf=-0.0552565
										196:leaf=0.0557501
									156:[f11<0.00300286] yes=197,no=198,missing=198
										197:leaf=-0.0695642
										198:leaf=0.0418145
					32:[f12<0.163235] yes=55,no=56,missing=55
						55:[f2<2.5] yes=85,no=86,missing=86
							85:leaf=-0.0685969
							86:[f8<3.5] yes=121,no=122,missing=122
								121:[f2<18] yes=157,no=158,missing=157
									157:leaf=-0.067914
									158:[f5<4] yes=199,no=200,missing=200
										199:leaf=0.0573148
										200:leaf=-0.0362624
								122:[f5<10.5] yes=159,no=160,missing=160
									159:[f2<3.5] yes=201,no=202,missing=201
										201:[f14<153.833] yes=243,no=244,missing=243
											243:[f16<577] yes=277,no=278,missing=277
												277:leaf=0.0530773
												278:leaf=-0.0448188
											244:leaf=-0.0553407
										202:leaf=-0.065239
									160:[f11<0.00235884] yes=203,no=204,missing=203
										203:[f5<31] yes=245,no=246,missing=245
											245:[f14<319] yes=279,no=280,missing=279
												279:leaf=-0.0679799
												280:leaf=0.046849
											246:[f2<4.5] yes=281,no=282,missing=281
												281:leaf=-0.052052
												282:leaf=0.066504
										204:[f11<0.00300036] yes=247,no=248,missing=248
											247:leaf=0.0679354
											248:leaf=-0.0425026
						56:leaf=-0.0697474
				20:[f2<8.5] yes=33,no=34,missing=34
					33:leaf=0.0679599
					34:leaf=-0.0483297
			12:[f8<1.5] yes=21,no=22,missing=21
				21:[f15<121.5] yes=35,no=36,missing=36
					35:leaf=-0.0610788
					36:[f11<0.0013605] yes=59,no=60,missing=60
						59:[f14<209.1] yes=87,no=88,missing=87
							87:leaf=-0.0708104
							88:[f6<4.45] yes=123,no=124,missing=124
								123:leaf=-0.0469113
								124:[f16<271] yes=161,no=162,missing=161
									161:leaf=-0.0415399
									162:leaf=0.0680619
						60:[f7<96.5] yes=89,no=90,missing=89
							89:leaf=0.0588878
							90:leaf=-0.0451958
				22:[f15<138.5] yes=37,no=38,missing=38
					37:[f12<0.233975] yes=61,no=62,missing=61
						61:leaf=-0.0478355
						62:leaf=0.0653895
					38:leaf=-0.0666628
		6:[f6<4.75] yes=13,no=14,missing=14
			13:[f8<11.5] yes=23,no=24,missing=24
				23:[f7<9.5] yes=39,no=40,missing=39
					39:[f15<99.5] yes=63,no=64,missing=64
						63:[f12<0.345725] yes=91,no=92,missing=91
							91:leaf=-0.0627418
							92:leaf=0.0623661
						64:[f6<3.75] yes=93,no=94,missing=94
							93:[f12<0.23896] yes=127,no=128,missing=127
								127:leaf=-0.0624972
								128:leaf=0.0399227
							94:leaf=-0.0695073
					40:leaf=0.0458834
				24:[f7<24] yes=41,no=42,missing=42
					41:[f16<2712.5] yes=67,no=68,missing=67
						67:[f12<4.43645] yes=95,no=96,missing=96
							95:[f11<0.00208984] yes=129,no=130,missing=130
								129:[f14<263.929] yes=167,no=168,missing=167
									167:[f14<101.938] yes=207,no=208,missing=208
										207:leaf=-0.0381921
										208:leaf=0.0474893
									168:leaf=-0.0430036
								130:leaf=-0.0436841
							96:[f11<0.0015497] yes=131,no=132,missing=131
								131:leaf=-0.0663318
								132:[f15<206] yes=169,no=170,missing=170
									169:leaf=-0.0528062
									170:leaf=0.0651667
						68:leaf=-0.0644995
					42:[f11<0.00316253] yes=69,no=70,missing=69
						69:[f5<111.5] yes=97,no=98,missing=97
							97:[f14<177.175] yes=133,no=134,missing=134
								133:[f5<7.5] yes=171,no=172,missing=172
									171:[f5<4.5] yes=209,no=210,missing=210
										209:[f12<0.510969] yes=253,no=254,missing=254
											253:leaf=0.0394444
											254:[f11<0.00437474] yes=289,no=290,missing=290
												289:leaf=-0.0674923
												290:leaf=-0.00404455
										210:[f11<0.000908486] yes=255,no=256,missing=256
											255:[f11<0.000284495] yes=291,no=292,missing=292
												291:leaf=-0.0386959
												292:leaf=0.0632785
											256:leaf=-0.0566028
									172:[f14<176.337] yes=211,no=212,missing=212
										211:[f11<0.000110153] yes=257,no=258,missing=258
											257:[f6<3.95] yes=293,no=294,missing=294
												293:leaf=0.0633127
												294:leaf=-0.0520472
											258:leaf=-0.0537495
										212:[f5<53] yes=259,no=260,missing=259
											259:leaf=-0.0511062
											260:leaf=0.055186
								134:[f8<12.5] yes=173,no=174,missing=174
									173:leaf=0.0257989
									174:[f5<44.5] yes=215,no=216,missing=215
										215:leaf=-0.0699152
										216:[f5<45.5] yes=261,no=262,missing=262
											261:[f6<4.45] yes=297,no=298,missing=298
												297:leaf=-0.0553322
												298:leaf=0.0647123
											262:leaf=-0.0679448
							98:[f15<242] yes=135,no=136,missing=136
								135:leaf=-0.063294
								136:[f2<10] yes=175,no=176,missing=176
									175:leaf=-0.0426397
									176:[f11<0.0012719] yes=217,no=218,missing=218
										217:leaf=-0.0339468
										218:leaf=0.062915
						70:[f5<19.5] yes=99,no=100,missing=100
							99:[f5<13] yes=137,no=138,missing=138
								137:leaf=-0.0484744
								138:leaf=0.063672
							100:leaf=-0.0599573
			14:[f10<1.5] yes=25,no=26,missing=26
				25:leaf=-0.0661153
				26:[f11<0.000769829] yes=43,no=44,missing=44
					43:leaf=-0.0613008
					44:[f5<52.5] yes=71,no=72,missing=72
						71:[f8<1.5] yes=101,no=102,missing=101
							101:[f14<422.748] yes=139,no=140,missing=139
								139:[f16<1020] yes=179,no=180,missing=179
									179:leaf=-0.0357937
									180:leaf=0.0665954
								140:leaf=-0.035832
							102:leaf=-0.0361859
						72:leaf=-0.0548288
booster[7]:
0:[f9<48] yes=1,no=2,missing=2
	1:[f11<0.00142071] yes=3,no=4,missing=3
		3:[f5<44.5] yes=7,no=8,missing=7
			7:[f6<4.75] yes=15,no=16,missing=16
				15:[f16<2633] yes=27,no=28,missing=27
					27:[f17<1.5] yes=45,no=46,missing=46
						45:[f18<0.0137597] yes=67,no=68,missing=67
							67:[f12<0.749468] yes=99,no=100,missing=99
								99:[f4<2.5] yes=135,no=136,missing=136
									135:leaf=-0.0444265
									136:[f11<0.00124849] yes=187,no=188,missing=187
										187:[f7<2.5] yes=237,no=238,missing=237
											237:[f15<74.5] yes=267,no=268,missing=268
												267:leaf=-0.0311204
												268:leaf=0.063474
											238:[f2<5] yes=269,no=270,missing=270
												269:leaf=0.0413944
												270:leaf=-0.052384
										188:leaf=-0.0403059
								100:leaf=-0.0430073
							68:leaf=-0.0438826
						46:[f10<1.5] yes=69,no=70,missing=70
							69:[f16<650] yes=101,no=102,missing=101
								101:[f6<3.5] yes=137,no=138,missing=138
									137:leaf=0.0540084
									138:leaf=-0.0621457
								102:[f12<0.226876] yes=139,no=140,missing=139
									139:leaf=0.0593838
									140:leaf=-0.0383168
							70:[f16<262.5] yes=103,no=104,missing=103
								103:leaf=0.0351426
								104:leaf=-0.0626147
					28:[f14<404] yes=47,no=48,missing=48
						47:leaf=-0.0601483
						48:leaf=0.0389646
				16:leaf=-0.0583081
			8:leaf=-0.0632365
		4:[f14<193.893] yes=9,no=10,missing=9
			9:[f12<0.221638] yes=17,no=18,missing=17
				17:[f15<58] yes=29,no=30,missing=30
					29:leaf=-0.0328034
					30:[f8<37] yes=49,no=50,missing=50
						49:[f5<6] yes=73,no=74,missing=74
							73:leaf=-0.0260795
							74:[f5<237] yes=105,no=106,missing=106
								105:[f6<3.75] yes=143,no=144,missing=144
									143:leaf=-0.0228931
									144:[f9<18] yes=191,no=192,missing=192
										191:[f14<87.629] yes=241,no=242,missing=242
											241:[f6<4.45] yes=271,no=272,missing=272
												271:leaf=-0.0491286
												272:leaf=0.0631248
											242:leaf=0.0608305
										192:leaf=-0.019443
								106:leaf=-0.0230412
						50:leaf=-0.0303001
				18:[f6<4.7] yes=31,no=32,missing=32
					31:leaf=-0.052612
					32:leaf=0.0521289
			10:leaf=-0.0541614
	2:[f16<950.5] yes=5,no=6,missing=5
		5:[f3<5.5] yes=11,no=12,missing=12
			11:[f5<17.5] yes=19,no=20,missing=20
				19:leaf=-0.0554799
				20:[f11<0.00282648] yes=33,no=34,missing=34
					33:leaf=0.0660957
					34:leaf=-0.0359416
			12:[f6<3.65] yes=21,no=22,missing=21
				21:[f5<5.5] yes=35,no=36,missing=35
					35:leaf=-0.0667182
					36:[f16<515] yes=53,no=54,missing=53
						53:leaf=-0.0573935
						54:[f10<4.00001] yes=77,no=78,missing=78
							77:leaf=-0.0488927
							78:leaf=0.0638748
				22:[f17<2.5] yes=37,no=38,missing=38
					37:[f6<4.25] yes=55,no=56,missing=56
						55:[f16<386] yes=79,no=80,missing=79
							79:[f11<0.000703893] yes=107,no=108,missing=107
								107:[f16<207] yes=145,no=146,missing=145
									145:[f2<16] yes=193,no=194,missing=194
										193:leaf=-0.0520702
										194:leaf=0.0628516
									146:[f8<17] yes=195,no=196,missing=195
										195:leaf=-0.0680655
										196:leaf=0.0380103
								108:[f14<98.1889] yes=147,no=148,missing=148
									147:leaf=-0.0539215
									148:[f8<1.5] yes=197,no=198,missing=197
										197:[f5<20] yes=243,no=244,missing=244
											243:leaf=0.0663684
											244:[f2<52] yes=277,no=278,missing=278
												277:leaf=-0.0584523
												278:leaf=0.0526892
										198:leaf=-0.0525208
							80:[f2<6.5] yes=109,no=110,missing=109
								109:[f5<212] yes=149,no=150,missing=150
									149:leaf=-0.0704263
									150:[f18<0.178748] yes=199,no=200,missing=200
										199:leaf=0.0538189
										200:leaf=-0.0451885
								110:[f16<735] yes=151,no=152,missing=151
									151:leaf=-0.0585096
									152:[f6<4.05] yes=201,no=202,missing=202
										201:leaf=0.063727
										202:leaf=-0.0384561
						56:[f12<0.39024] yes=81,no=82,missing=81
							81:[f16<848] yes=111,no=112,missing=111
								111:[f12<0.207423] yes=153,no=154,missing=154
									153:[f16<372] yes=203,no=204,missing=203
										203:leaf=-0.0610785
										204:[f11<0.000546334] yes=245,no=246,missing=246
											245:leaf=-0.0413412
											246:[f11<0.00176851] yes=279,no=280,missing=279
												279:leaf=0.055102
												280:leaf=-0.0388511
									154:[f8<1.5] yes=205,no=206,missing=206
										205:[f5<78.5] yes=247,no=248,missing=247
											247:leaf=-0.0641984
											248:leaf=0.0609206
										206:[f2<11.5] yes=249,no=250,missing=249
											249:[f15<25.5] yes=281,no=282,missing=282
												281:leaf=-0.0356714
												282:leaf=0.0534853
											250:[f16<174] yes=283,no=284,missing=283
												283:leaf=0.0536303
												284:leaf=-0.0322555
								112:[f5<1.5] yes=155,no=156,missing=156
									155:leaf=0.0398344
									156:leaf=-0.0618356
							82:[f16<902.5] yes=113,no=114,missing=113
								113:leaf=-0.0631951
								114:[f5<8.5] yes=157,no=158,missing=158
									157:leaf=0.0498958
									158:leaf=-0.0372668
					38:[f5<42.5] yes=57,no=58,missing=57
						57:[f2<2.5] yes=83,no=84,missing=84
							83:leaf=-0.0666068
							84:[f11<0.000228459] yes=115,no=116,missing=116
								115:[f7<6.00001] yes=159,no=160,missing=160
									159:[f8<36] yes=209,no=210,missing=210
										209:leaf=-0.0415404
										210:[f5<11.5] yes=251,no=252,missing=252
											251:leaf=0.0701536
											252:leaf=-0.0348391
									160:leaf=-0.0630814
								116:[f16<437] yes=161,no=162,missing=161
									161:[f2<20.5] yes=211,no=212,missing=211
										211:[f11<0.00173401] yes=253,no=254,missing=253
											253:[f14<319] yes=285,no=286,missing=285
												285:leaf=-0.0694999
												286:leaf=0.00979711
											254:[f11<0.00179795] yes=287,no=288,missing=288
												287:leaf=0.0455317
												288:leaf=-0.0599225
										212:[f6<4.45] yes=255,no=256,missing=256
											255:leaf=-0.0512241
											256:leaf=0.060342
									162:[f16<577] yes=213,no=214,missing=213
										213:[f6<4.15] yes=257,no=258,missing=258
											257:leaf=-0.0585248
											258:[f6<4.55] yes=289,no=290,missing=290
												289:leaf=0.0550835
												290:leaf=-0.0532466
										214:[f16<911] yes=259,no=260,missing=259
											259:[f15<333.5] yes=291,no=292,missing=291
												291:leaf=-0.0666495
												292:leaf=0.0039187
											260:[f11<0.000862467] yes=293,no=294,missing=294
												293:leaf=0.0571555
												294:leaf=-0.0503518
						58:[f8<1.5] yes=85,no=86,missing=85
							85:[f16<655.5] yes=117,no=118,missing=117
								117:[f11<0.0010976] yes=163,no=164,missing=164
									163:[f10<2.5] yes=215,no=216,missing=216
										215:leaf=0.0416704
										216:leaf=-0.0566875
									164:[f14<330.227] yes=217,no=218,missing=217
										217:[f2<3.5] yes=261,no=262,missing=261
											261:[f7<60] yes=295,no=296,missing=295
												295:leaf=0.0528677
												296:leaf=-0.0449701
											262:leaf=-0.0501328
										218:leaf=-0.0534491
								118:[f4<2.5] yes=165,no=166,missing=166
									165:leaf=0.0574475
									166:leaf=-0.0661088
							86:leaf=-0.064248
		6:[f6<4.75] yes=13,no=14,missing=14
			13:[f11<0.00133899] yes=23,no=24,missing=23
				23:[f7<2.5] yes=39,no=40,missing=40
					39:[f12<1.77113] yes=59,no=60,missing=60
						59:[f8<16] yes=87,no=88,missing=88
							87:leaf=-0.0584606
							88:[f6<4.35] yes=119,no=120,missing=120
								119:leaf=-0.047394
								120:leaf=0.0503366
						60:leaf=-0.0642795
					40:[f15<188.5] yes=61,no=62,missing=62
						61:[f15<187.5] yes=89,no=90,missing=90
							89:[f16<1042.5] yes=121,no=122,missing=121
								121:[f16<1009.5] yes=169,no=170,missing=169
									169:leaf=-0.0563801
									170:[f2<3.5] yes=221,no=222,missing=222
										221:leaf=-0.0346987
										222:leaf=0.0590536
								122:[f18<0.248529] yes=171,no=172,missing=171
									171:[f5<57.5] yes=223,no=224,missing=223
										223:leaf=-0.0665085
										224:[f6<3.7] yes=263,no=264,missing=264
											263:leaf=0.0503771
											264:leaf=-0.060139
									172:[f18<0.258663] yes=225,no=226,missing=226
										225:leaf=0.042046
										226:leaf=-0.0495853
							90:[f5<5.5] yes=123,no=124,missing=124
								123:leaf=0.0586039
								124:leaf=-0.049531
						62:[f5<44.5] yes=91,no=92,missing=91
							91:leaf=-0.067209
							92:[f5<45.5] yes=125,no=126,missing=126
								125:leaf=0.0233226
								126:leaf=-0.0659797
				24:[f10<1.5] yes=41,no=42,missing=42
					41:leaf=-0.0659034
					42:[f5<19.5] yes=63,no=64,missing=64
						63:[f5<10.5] yes=93,no=94,missing=94
							93:leaf=-0.0624624
							94:[f14<121.438] yes=127,no=128,missing=127
								127:[f2<3] yes=175,no=176,missing=176
									175:leaf=-0.0423974
									176:[f18<0.331843] yes=229,no=230,missing=230
										229:leaf=-0.0368734
										230:[f6<4.65] yes=265,no=266,missing=266
											265:[f12<0.435173] yes=297,no=298,missing=297
												297:leaf=0.060225
												298:leaf=-0.0329175
											266:leaf=-0.033015
								128:[f12<0.292615] yes=177,no=178,missing=178
									177:leaf=0.028285
									178:leaf=-0.0559464
						64:[f5<111] yes=95,no=96,missing=96
							95:[f2<11] yes=129,no=130,missing=129
								129:[f18<0.410222] yes=179,no=180,missing=179
									179:leaf=-0.0670617
									180:leaf=0.0280857
								130:[f16<1579] yes=181,no=182,missing=181
									181:leaf=0.0568782
									182:leaf=-0.0373738
							96:[f11<0.00186036] yes=131,no=132,missing=132
								131:[f15<206] yes=183,no=184,missing=184
									183:leaf=-0.031996
									184:leaf=0.0628122
								132:leaf=-0.0590075
			14:[f10<1.5] yes=25,no=26,missing=26
				25:leaf=-0.063538
				26:[f11<0.000689802] yes=43,no=44,missing=44
					43:leaf=-0.0522897
					44:[f5<52.5] yes=65,no=66,missing=66
						65:[f18<0.215] yes=97,no=98,missing=97
							97:[f16<1020] yes=133,no=134,missing=133
								133:leaf=-0.034343
								134:[f14<422.748] yes=185,no=186,missing=185
									185:leaf=0.0642542
									186:leaf=-0.0340606
							98:leaf=-0.034652
						66:leaf=-0.0396738
booster[8]:
0:[f9<48] yes=1,no=2,missing=2
	1:[f11<0.00142071] yes=3,no=4,missing=3
		3:[f5<44.5] yes=7,no=8,missing=7
			7:[f2<12.5] yes=15,no=16,missing=16
				15:[f16<3750.5] yes=27,no=28,missing=27
					27:[f6<4.75] yes=47,no=48,missing=48
						47:[f4<2.5] yes=75,no=76,missing=76
							75:[f16<542.5] yes=113,no=114,missing=113
								113:leaf=0.0405349
								114:leaf=-0.0563005
							76:[f6<3.7] yes=115,no=116,missing=116
								115:leaf=-0.0399708
								116:[f11<0.0012382] yes=153,no=154,missing=153
									153:leaf=0.0515225
									154:leaf=-0.038891
						48:leaf=-0.0489598
					28:leaf=-0.0514675
				16:[f5<16.5] yes=29,no=30,missing=30
					29:[f5<11.5] yes=49,no=50,missing=50
						49:[f6<4.25] yes=77,no=78,missing=78
							77:[f8<6] yes=117,no=118,missing=118
								117:[f9<1.5] yes=155,no=156,missing=156
									155:leaf=-0.0371922
									156:leaf=0.0557614
								118:leaf=-0.0408688
							78:leaf=-0.058762
						50:[f12<2.22034] yes=79,no=80,missing=80
							79:leaf=-0.0348786
							80:[f6<4.15] yes=119,no=120,missing=120
								119:leaf=-0.0331075
								120:leaf=0.0596672
					30:leaf=-0.0553518
			8:leaf=-0.060402
		4:[f14<193.893] yes=9,no=10,missing=9
			9:[f12<0.221638] yes=17,no=18,missing=17
				17:[f15<58] yes=31,no=32,missing=32
					31:leaf=-0.0312458
					32:[f16<2773.5] yes=53,no=54,missing=53
						53:[f5<6] yes=83,no=84,missing=84
							83:leaf=-0.0249503
							84:[f5<237] yes=121,no=122,missing=122
								121:[f6<3.75] yes=159,no=160,missing=160
									159:leaf=-0.0218256
									160:[f16<1050] yes=195,no=196,missing=195
										195:[f10<2.5] yes=239,no=240,missing=240
											239:[f14<86.8179] yes=283,no=284,missing=284
												283:leaf=-0.0336019
												284:leaf=0.0639682
											240:leaf=-0.0431696
										196:[f16<1260.5] yes=241,no=242,missing=241
											241:leaf=-0.0567837
											242:[f4<19.5] yes=285,no=286,missing=286
												285:leaf=-0.0440994
												286:leaf=0.0597546
								122:leaf=-0.0219673
						54:[f6<4.55] yes=85,no=86,missing=86
							85:leaf=-0.0455944
							86:leaf=0.0520241
				18:[f6<4.7] yes=33,no=34,missing=34
					33:leaf=-0.0529413
					34:leaf=0.0417689
			10:leaf=-0.0549884
	2:[f16<950.5] yes=5,no=6,missing=5
		5:[f5<40.5] yes=11,no=12,missing=11
			11:[f17<6.00001] yes=19,no=20,missing=20
				19:[f6<3.65] yes=35,no=36,missing=35
					35:leaf=-0.0594708
					36:[f5<30.5] yes=57,no=58,missing=57
						57:[f16<553.5] yes=89,no=90,missing=89
							89:[f11<0.0115839] yes=123,no=124,missing=124
								123:[f5<3.5] yes=161,no=162,missing=162
									161:[f16<259] yes=197,no=198,missing=197
										197:[f16<212.5] yes=243,no=244,missing=243
											243:leaf=-0.044628
											244:leaf=0.0653116
										198:leaf=-0.0522349
									162:[f18<0.12423] yes=199,no=200,missing=200
										199:leaf=-0.0507164
										200:[f12<0.218076] yes=247,no=248,missing=248
											247:[f8<13.5] yes=289,no=290,missing=289
												289:leaf=-0.0554509
												290:leaf=0.0585449
											248:[f4<2.5] yes=291,no=292,missing=291
												291:leaf=0.0476546
												292:leaf=-0.041041
								124:[f16<203.5] yes=163,no=164,missing=163
									163:[f2<15.5] yes=201,no=202,missing=202
										201:leaf=-0.0525767
										202:leaf=0.0532191
									164:leaf=-0.0587744
							90:[f5<7.5] yes=125,no=126,missing=125
								125:[f6<4.25] yes=165,no=166,missing=166
									165:[f18<0.178748] yes=205,no=206,missing=206
										205:leaf=0.0460157
										206:leaf=-0.0630314
									166:[f11<0.000571752] yes=207,no=208,missing=208
										207:leaf=-0.0452927
										208:[f6<4.8] yes=255,no=256,missing=256
											255:leaf=0.0556983
											256:leaf=-0.0353087
								126:[f11<0.00300286] yes=167,no=168,missing=168
									167:leaf=-0.0635231
									168:leaf=0.0428496
						58:leaf=-0.0578577
				20:[f12<0.163235] yes=37,no=38,missing=37
					37:[f8<3.5] yes=59,no=60,missing=60
						59:[f2<18] yes=91,no=92,missing=91
							91:leaf=-0.0634454
							92:leaf=0.0286272
						60:[f14<93.7083] yes=93,no=94,missing=93
							93:[f5<18.5] yes=129,no=130,missing=130
								129:[f16<577] yes=169,no=170,missing=169
									169:[f2<3.5] yes=211,no=212,missing=211
										211:[f5<4.5] yes=257,no=258,missing=258
											257:[f7<2] yes=297,no=298,missing=297
												297:leaf=-0.0611635
												298:leaf=0.0583687
											258:[f7<1.5] yes=299,no=300,missing=299
												299:leaf=0.051598
												300:leaf=-0.0565646
										212:leaf=-0.0592611
									170:[f8<8] yes=213,no=214,missing=213
										213:leaf=-0.0594488
										214:leaf=0.0413777
								130:[f2<4.5] yes=171,no=172,missing=171
									171:leaf=-0.0641372
									172:leaf=0.0327664
							94:[f14<325.248] yes=131,no=132,missing=132
								131:leaf=-0.0618324
								132:leaf=0.0277354
					38:[f16<938.5] yes=61,no=62,missing=61
						61:leaf=-0.0651101
						62:leaf=0.042965
			12:[f15<121.5] yes=21,no=22,missing=22
				21:leaf=-0.0615146
				22:[f8<1.5] yes=39,no=40,missing=39
					39:[f3<8.00001] yes=63,no=64,missing=64
						63:leaf=0.0648898
						64:[f11<0.00115172] yes=97,no=98,missing=98
							97:[f14<330.227] yes=133,no=134,missing=134
								133:leaf=-0.0600935
								134:[f5<52.5] yes=175,no=176,missing=176
									175:leaf=-0.0564652
									176:[f12<2.69975] yes=217,no=218,missing=218
										217:leaf=-0.0339379
										218:leaf=0.0585529
							98:[f16<852.5] yes=135,no=136,missing=135
								135:[f15<135.5] yes=177,no=178,missing=177
									177:[f6<4.35] yes=219,no=220,missing=220
										219:[f2<3.5] yes=263,no=264,missing=263
											263:[f18<0.449448] yes=301,no=302,missing=302
												301:leaf=-0.047336
												302:leaf=0.0555386
											264:leaf=-0.052718
										220:[f10<3.5] yes=265,no=266,missing=265
											265:leaf=-0.0723119
											266:leaf=0.0416974
									178:[f4<4] yes=221,no=222,missing=221
										221:leaf=0.0596046
										222:leaf=-0.0345197
								136:leaf=-0.0539303
					40:[f15<138.5] yes=65,no=66,missing=66
						65:[f4<18] yes=99,no=100,missing=100
							99:leaf=-0.0287323
							100:leaf=0.0631385
						66:leaf=-0.0625828
		6:[f6<4.75] yes=13,no=14,missing=14
			13:[f11<0.00133899] yes=23,no=24,missing=23
				23:[f2<11] yes=41,no=42,missing=41
					41:[f16<1040] yes=67,no=68,missing=67
						67:[f12<0.302416] yes=101,no=102,missing=101
							101:leaf=-0.0626686
							102:[f14<128.571] yes=137,no=138,missing=138
								137:leaf=-0.0423187
								138:leaf=0.0617763
						68:[f6<3.65] yes=103,no=104,missing=104
							103:[f5<58] yes=139,no=140,missing=139
								139:leaf=-0.0598685
								140:leaf=0.0575049
							104:[f8<18.5] yes=141,no=142,missing=141
								141:[f16<1845.5] yes=179,no=180,missing=179
									179:[f16<1767.5] yes=223,no=224,missing=223
										223:[f15<95] yes=269,no=270,missing=270
											269:[f15<89.5] yes=305,no=306,missing=306
												305:leaf=-0.0513604
												306:leaf=0.035802
											270:leaf=-0.0647483
										224:[f8<8.00001] yes=271,no=272,missing=272
											271:leaf=-0.0497822
											272:[f5<35.5] yes=307,no=308,missing=308
												307:leaf=-0.0113553
												308:leaf=0.056605
									180:[f17<1.5] yes=225,no=226,missing=225
										225:leaf=-0.0654569
										226:[f16<4138.5] yes=273,no=274,missing=273
											273:leaf=-0.0618671
											274:[f11<0.000661825] yes=309,no=310,missing=309
												309:leaf=-0.0405252
												310:leaf=0.0461921
								142:leaf=0.00888045
					42:[f7<1.5] yes=69,no=70,missing=69
						69:leaf=-0.0595182
						70:[f7<3] yes=105,no=106,missing=106
							105:leaf=0.0586157
							106:leaf=-0.04028
				24:[f10<1.5] yes=43,no=44,missing=44
					43:leaf=-0.0634591
					44:[f15<106.5] yes=71,no=72,missing=71
						71:[f2<3.5] yes=107,no=108,missing=108
							107:leaf=-0.0599233
							108:[f16<1460] yes=143,no=144,missing=143
								143:[f16<1066] yes=183,no=184,missing=183
									183:leaf=-0.0494634
									184:[f5<8.5] yes=227,no=228,missing=228
										227:leaf=-0.0312613
										228:leaf=0.0547206
								144:[f16<2910] yes=185,no=186,missing=185
									185:[f7<1.5] yes=229,no=230,missing=230
										229:leaf=0.0202717
										230:leaf=-0.0625189
									186:[f16<3286.5] yes=231,no=232,missing=231
										231:leaf=0.0418264
										232:leaf=-0.0541518
						72:[f11<0.00148539] yes=109,no=110,missing=110
							109:[f15<145] yes=145,no=146,missing=146
								145:leaf=-0.0442342
								146:[f6<4.35] yes=187,no=188,missing=188
									187:leaf=0.0511283
									188:leaf=-0.0342332
							110:[f5<120.5] yes=147,no=148,missing=148
								147:leaf=-0.0637273
								148:[f2<2.5] yes=189,no=190,missing=190
									189:leaf=0.0461932
									190:leaf=-0.0474422
			14:[f10<1.5] yes=25,no=26,missing=26
				25:leaf=-0.0614406
				26:[f11<0.000689802] yes=45,no=46,missing=46
					45:leaf=-0.050519
					46:[f16<1020] yes=73,no=74,missing=73
						73:leaf=-0.0402232
						74:[f5<52.5] yes=111,no=112,missing=112
							111:[f8<1.5] yes=149,no=150,missing=149
								149:[f14<422.748] yes=191,no=192,missing=191
									191:leaf=0.0623035
									192:leaf=-0.0325653
								150:leaf=-0.0336421
							112:leaf=-0.0387607
booster[9]:
0:[f9<48] yes=1,no=2,missing=2
	1:[f11<0.00142071] yes=3,no=4,missing=3
		3:[f5<44.5] yes=7,no=8,missing=7
			7:[f16<2633] yes=15,no=16,missing=15
				15:[f15<71.5] yes=27,no=28,missing=28
					27:leaf=-0.0531926
					28:[f17<1.5] yes=47,no=48,missing=48
						47:[f11<0.00124849] yes=73,no=74,missing=73
							73:[f12<0.749468] yes=107,no=108,missing=107
								107:[f18<0.0137597] yes=147,no=148,missing=147
									147:[f16<128.5] yes=195,no=196,missing=195
										195:leaf=-0.0332245
										196:[f7<9.5] yes=237,no=238,missing=237
											237:leaf=0.0573087
											238:leaf=-0.0300757
									148:leaf=-0.0347469
								108:leaf=-0.0397771
							74:leaf=-0.040335
						48:[f10<1.5] yes=75,no=76,missing=76
							75:[f16<421] yes=109,no=110,missing=109
								109:leaf=-0.0530359
								110:[f8<1.5] yes=149,no=150,missing=150
									149:leaf=-0.0400401
									150:[f7<2.5] yes=197,no=198,missing=198
										197:leaf=-0.0359587
										198:[f6<2.85] yes=239,no=240,missing=240
											239:leaf=-0.0352963
											240:leaf=0.0535805
							76:[f11<0.000877836] yes=111,no=112,missing=111
								111:leaf=-0.0592605
								112:leaf=0.0318987
				16:[f14<404] yes=29,no=30,missing=30
					29:leaf=-0.0575054
					30:leaf=0.0323106
			8:leaf=-0.0589197
		4:[f14<193.893] yes=9,no=10,missing=9
			9:[f12<0.221638] yes=17,no=18,missing=17
				17:[f15<58] yes=31,no=32,missing=32
					31:leaf=-0.0297197
					32:[f16<2773.5] yes=51,no=52,missing=51
						51:[f5<6] yes=77,no=78,missing=78
							77:leaf=-0.0239156
							78:[f5<237] yes=113,no=114,missing=114
								113:[f6<3.75] yes=153,no=154,missing=154
									153:leaf=-0.0207659
									154:[f1<-9.53674e-06] yes=199,no=200,missing=199
										199:[f4<18] yes=241,no=242,missing=242
											241:leaf=-0.0484503
											242:leaf=0.0554233
										200:leaf=0.0630521
								114:leaf=-0.0224044
						52:[f6<4.55] yes=79,no=80,missing=80
							79:leaf=-0.0463682
							80:leaf=0.0526746
				18:[f6<4.7] yes=33,no=34,missing=34
					33:leaf=-0.0486762
					34:leaf=0.0453914
			10:leaf=-0.0499911
	2:[f16<958.5] yes=5,no=6,missing=5
		5:[f5<42.5] yes=11,no=12,missing=11
			11:[f8<1.5] yes=19,no=20,missing=20
				19:[f18<0.0943669] yes=35,no=36,missing=35
					35:[f2<24.5] yes=53,no=54,missing=53
						53:leaf=-0.0655613
						54:[f16<314] yes=81,no=82,missing=81
							81:leaf=0.040934
							82:leaf=-0.0538034
					36:leaf=0.0495188
				20:[f11<0.00625594] yes=37,no=38,missing=38
					37:[f16<600] yes=57,no=58,missing=57
						57:[f12<0.281642] yes=83,no=84,missing=83
							83:[f17<1.5] yes=115,no=116,missing=116
								115:[f6<4.05] yes=155,no=156,missing=155
									155:[f11<0.00131683] yes=201,no=202,missing=202
										201:[f8<17] yes=243,no=244,missing=243
											243:[f15<269] yes=277,no=278,missing=278
												277:leaf=-0.0664757
												278:leaf=0.0276526
											244:leaf=0.0456183
										202:leaf=0.0545093
									156:[f8<4.5] yes=203,no=204,missing=203
										203:[f12<0.203179] yes=247,no=248,missing=248
											247:[f5<40.5] yes=279,no=280,missing=280
												279:leaf=-0.0540575
												280:leaf=0.045272
											248:[f5<30] yes=281,no=282,missing=281
												281:leaf=0.0562638
												282:leaf=-0.0427923
										204:leaf=-0.0587998
								116:[f15<119] yes=157,no=158,missing=157
									157:[f7<3.5] yes=205,no=206,missing=205
										205:[f11<0.00170974] yes=249,no=250,missing=250
											249:[f5<9.5] yes=283,no=284,missing=284
												283:leaf=0.0314959
												284:leaf=-0.0332483
											250:[f15<110.5] yes=285,no=286,missing=286
												285:leaf=-0.0391431
												286:leaf=0.054548
										206:leaf=-0.0586332
									158:[f11<0.00278789] yes=207,no=208,missing=208
										207:[f6<4.85] yes=251,no=252,missing=251
											251:leaf=-0.0637287
											252:leaf=0.00843003
										208:leaf=0.0205718
							84:[f17<2] yes=117,no=118,missing=117
								117:leaf=-0.0623718
								118:leaf=0.0506235
						58:[f16<941] yes=85,no=86,missing=85
							85:[f8<10.5] yes=119,no=120,missing=119
								119:[f14<176.337] yes=159,no=160,missing=160
									159:[f14<151.3] yes=209,no=210,missing=210
										209:[f16<769.5] yes=253,no=254,missing=253
											253:leaf=-0.0624658
											254:[f16<814.5] yes=289,no=290,missing=289
												289:leaf=0.0380863
												290:leaf=-0.0259236
										210:leaf=0.0313058
									160:leaf=-0.0628444
								120:[f6<4.05] yes=161,no=162,missing=162
									161:leaf=0.0533555
									162:leaf=-0.0348916
							86:[f6<4.55] yes=121,no=122,missing=122
								121:leaf=0.054118
								122:leaf=-0.0415038
					38:[f12<0.579449] yes=59,no=60,missing=60
						59:[f6<3.85] yes=87,no=88,missing=87
							87:leaf=-0.0514949
							88:[f2<5] yes=123,no=124,missing=124
								123:leaf=-0.0471413
								124:leaf=0.0542229
						60:[f16<905] yes=89,no=90,missing=89
							89:leaf=-0.0624674
							90:leaf=0.0105741
			12:[f15<121.5] yes=21,no=22,missing=22
				21:leaf=-0.0578345
				22:[f8<1.5] yes=39,no=40,missing=39
					39:[f16<891] yes=61,no=62,missing=61
						61:[f17<1.5] yes=91,no=92,missing=91
							91:[f2<5.5] yes=129,no=130,missing=129
								129:[f14<135.1] yes=171,no=172,missing=171
									171:[f11<0.00125753] yes=213,no=214,missing=214
										213:[f12<2.82443] yes=257,no=258,missing=257
											257:leaf=-0.0591674
											258:leaf=0.05365
										214:[f18<0.449448] yes=259,no=260,missing=260
											259:leaf=-0.0374302
											260:[f2<3.5] yes=293,no=294,missing=293
												293:leaf=0.04522
												294:leaf=-0.0369891
									172:[f6<4.15] yes=215,no=216,missing=216
										215:[f5<114.5] yes=261,no=262,missing=262
											261:leaf=-0.0578364
											262:leaf=0.0544568
										216:[f5<47] yes=263,no=264,missing=264
											263:leaf=-0.0303085
											264:leaf=0.0613485
								130:leaf=-0.0435355
							92:leaf=-0.0505417
						62:leaf=-0.0514276
					40:[f15<138.5] yes=63,no=64,missing=64
						63:[f4<18] yes=93,no=94,missing=94
							93:leaf=-0.0340169
							94:leaf=0.0608903
						64:leaf=-0.0604414
		6:[f6<4.75] yes=13,no=14,missing=14
			13:[f11<0.00133899] yes=23,no=24,missing=23
				23:[f2<11] yes=41,no=42,missing=41
					41:[f15<158.5] yes=65,no=66,missing=66
						65:[f14<147.871] yes=95,no=96,missing=96
							95:[f18<0.24569] yes=131,no=132,missing=131
								131:leaf=-0.059649
								132:[f11<0.000487388] yes=175,no=176,missing=176
									175:leaf=0.0578311
									176:leaf=-0.0428422
							96:[f12<0.230141] yes=133,no=134,missing=133
								133:[f6<3.65] yes=177,no=178,missing=178
									177:[f5<34] yes=219,no=220,missing=219
										219:leaf=-0.0373119
										220:leaf=0.0535096
									178:leaf=-0.0594887
								134:leaf=0.047714
						66:[f8<18.5] yes=97,no=98,missing=97
							97:[f17<1.5] yes=135,no=136,missing=135
								135:[f5<44.5] yes=181,no=182,missing=181
									181:leaf=-0.0635548
									182:[f5<45.5] yes=221,no=222,missing=222
										221:leaf=0.0341814
										222:leaf=-0.0620323
								136:[f16<4138.5] yes=183,no=184,missing=183
									183:[f7<1.5] yes=223,no=224,missing=224
										223:leaf=0.0126245
										224:leaf=-0.0608828
									184:leaf=0.0242565
							98:leaf=0.0293584
					42:[f12<1.71094] yes=67,no=68,missing=67
						67:leaf=-0.0567328
						68:[f11<0.000402681] yes=99,no=100,missing=99
							99:leaf=-0.0349584
							100:leaf=0.0564813
				24:[f10<1.5] yes=43,no=44,missing=44
					43:leaf=-0.0616719
					44:[f5<19.5] yes=69,no=70,missing=70
						69:[f5<10.5] yes=101,no=102,missing=102
							101:leaf=-0.0589411
							102:[f14<121.438] yes=139,no=140,missing=139
								139:[f2<2.5] yes=185,no=186,missing=186
									185:leaf=-0.0336419
									186:[f18<0.331843] yes=227,no=228,missing=228
										227:leaf=-0.0332225
										228:leaf=0.0515634
								140:[f15<213] yes=187,no=188,missing=188
									187:leaf=-0.050805
									188:leaf=0.0271119
						70:[f5<111] yes=103,no=104,missing=104
							103:[f18<0.410222] yes=141,no=142,missing=141
								141:[f2<11] yes=189,no=190,missing=189
									189:leaf=-0.063152
									190:leaf=0.0189232
								142:leaf=0.0515226
							104:[f11<0.00186036] yes=143,no=144,missing=144
								143:leaf=0.0505317
								144:leaf=-0.0536724
			14:[f10<1.5] yes=25,no=26,missing=26
				25:leaf=-0.0591737
				26:[f11<0.000689802] yes=45,no=46,missing=46
					45:leaf=-0.0497412
					46:[f14<422.748] yes=71,no=72,missing=71
						71:[f5<52.5] yes=105,no=106,missing=106
							105:[f18<0.215] yes=145,no=146,missing=145
								145:[f12<0.91907] yes=193,no=194,missing=193
									193:leaf=0.0604408
									194:leaf=-0.0317611
								146:leaf=-0.0327522
							106:leaf=-0.0362613
						72:leaf=-0.0381138
