booster[0]:
0:[f1010<48] yes=1,no=2,missing=2
	1:[f1800<0.00142071] yes=3,no=4,missing=3
		3:[f300<44.5] yes=7,no=8,missing=7
			7:[f600<2633] yes=15,no=16,missing=15
				15:[f400<4.75] yes=27,no=28,missing=28
					27:[f3648<1.5] yes=47,no=48,missing=48
						47:[f1988<0.749468] yes=75,no=76,missing=75
							75:[f3676<71.5] yes=109,no=110,missing=110
								109:leaf=-0.0666667
								110:[f800<0.0137597] yes=143,no=144,missing=143
									143:[f1800<0.00124849] yes=183,no=184,missing=183
										183:[f500<4.5] yes=225,no=226,missing=225
											225:[f170<2.5] yes=263,no=264,missing=264
												263:leaf=-0.0333333
												264:leaf=0.0910112
											226:[f100<-9.53674e-06] yes=265,no=266,missing=265
												265:leaf=-0.075
												266:leaf=0.0833333
										184:leaf=-0.06
									144:leaf=-0.06
							76:leaf=-0.0666667
						48:[f1988<0.102578] yes=77,no=78,missing=77
							77:[f1600<1.5] yes=111,no=112,missing=112
								111:[f600<412.5] yes=145,no=146,missing=145
									145:leaf=-0.0714286
									146:[f400<2.85] yes=185,no=186,missing=186
										185:leaf=-0.05
										186:[f500<2.5] yes=227,no=228,missing=228
											227:leaf=-0.05
											228:[f1000<1.5] yes=267,no=268,missing=268
												267:leaf=-0.05
												268:leaf=0.0887324
								112:[f600<262.5] yes=147,no=148,missing=147
									147:[f600<232.5] yes=187,no=188,missing=187
										187:leaf=-0.05
										188:leaf=0.0833333
									148:leaf=-0.0888889
							78:leaf=-0.09
					28:leaf=-0.0866667
				16:[f3670<404] yes=29,no=30,missing=30
					29:leaf=-0.0909091
					30:leaf=0.0428571
			8:leaf=-0.0933333
		4:[f3670<193.893] yes=9,no=10,missing=9
			9:[f1988<0.221638] yes=17,no=18,missing=17
				17:[f3676<58] yes=31,no=32,missing=32
					31:leaf=-0.05
					32:[f600<2773.5] yes=51,no=52,missing=51
						51:[f300<6] yes=79,no=80,missing=80
							79:leaf=-0.0333333
							80:[f300<237] yes=113,no=114,missing=114
								113:[f400<3.75] yes=149,no=150,missing=150
									149:leaf=-0.0333333
									150:[f1300<-1.00136e-05] yes=189,no=190,missing=189
										189:[f170<9.5] yes=229,no=230,missing=230
											229:leaf=-0.0666667
											230:[f1600<3.5] yes=269,no=270,missing=270
												269:leaf=0.0881773
												270:leaf=-0.05
										190:leaf=0.0976331
								114:leaf=-0.0333333
						52:[f400<4.55] yes=81,no=82,missing=82
							81:leaf=-0.075
							82:leaf=0.0888889
				18:[f400<4.7] yes=33,no=34,missing=34
					33:leaf=-0.075
					34:leaf=0.0636364
			10:leaf=-0.0818182
	2:[f600<958.5] yes=5,no=6,missing=5
		5:[f300<41.5] yes=11,no=12,missing=11
			11:[f3648<2.5] yes=19,no=20,missing=20
				19:[f400<3.65] yes=35,no=36,missing=35
					35:[f300<8] yes=53,no=54,missing=53
						53:leaf=-0.0969697
						54:[f3676<116] yes=83,no=84,missing=84
							83:leaf=-0.06
							84:leaf=0.05
					36:[f170<2.5] yes=55,no=56,missing=55
						55:[f1988<0.39024] yes=85,no=86,missing=85
							85:[f1988<0.217701] yes=115,no=116,missing=116
								115:[f300<5.5] yes=151,no=152,missing=151
									151:[f400<4.65] yes=191,no=192,missing=192
										191:[f140<16] yes=231,no=232,missing=232
											231:leaf=-0.0818182
											232:[f300<10] yes=271,no=272,missing=272
												271:leaf=0.0777778
												272:leaf=-0.05
										192:leaf=0.0846154
									152:[f300<36.5] yes=193,no=194,missing=194
										193:leaf=-0.0923077
										194:leaf=0.05
								116:[f300<31] yes=153,no=154,missing=154
									153:[f600<814.5] yes=195,no=196,missing=195
										195:[f800<0.12423] yes=233,no=234,missing=234
											233:leaf=-0.0714286
											234:[f300<3.5] yes=273,no=274,missing=274
												273:leaf=0.0225806
												274:leaf=0.0756579
										196:[f300<1.5] yes=235,no=236,missing=236
											235:[f140<4.00001] yes=275,no=276,missing=276
												275:leaf=-0.0333333
												276:leaf=0.0777778
											236:leaf=-0.09
									154:[f3670<93.875] yes=197,no=198,missing=198
										197:[f3676<73] yes=237,no=238,missing=238
											237:leaf=-0.06
											238:[f400<4.4] yes=277,no=278,missing=278
												277:leaf=0.0666667
												278:leaf=-0.0333333
										198:leaf=-0.0923077
							86:[f600<902.5] yes=117,no=118,missing=117
								117:[f140<46] yes=155,no=156,missing=156
									155:leaf=-0.0945946
									156:[f300<24] yes=199,no=200,missing=200
										199:leaf=-0.05
										200:leaf=0.0666667
								118:[f300<8.5] yes=157,no=158,missing=158
									157:[f300<5] yes=201,no=202,missing=202
										201:leaf=-0.0333333
										202:leaf=0.0909091
									158:leaf=-0.0714286
						56:[f400<4.55] yes=87,no=88,missing=88
							87:leaf=-0.0913044
							88:leaf=0.06
				20:[f140<2.5] yes=37,no=38,missing=38
					37:[f100<-9.53674e-06] yes=57,no=58,missing=57
						57:leaf=-0.097619
						58:leaf=0.0777778
					38:[f1000<3.5] yes=59,no=60,missing=60
						59:[f3648<6.00001] yes=89,no=90,missing=90
							89:leaf=0.08
							90:[f140<24.5] yes=119,no=120,missing=119
								119:leaf=-0.0975309
								120:[f600<314] yes=159,no=160,missing=159
									159:leaf=0.075
									160:leaf=-0.0777778
						60:[f3676<52] yes=91,no=92,missing=91
							91:[f1988<0.163109] yes=121,no=122,missing=121
								121:[f1600<1.5] yes=161,no=162,missing=161
									161:[f600<577] yes=203,no=204,missing=203
										203:[f400<4.55] yes=239,no=240,missing=239
											239:[f600<436.5] yes=279,no=280,missing=279
												279:leaf=0.0333333
												280:leaf=0.0789474
											240:leaf=-0.0777778
										204:[f1000<9] yes=241,no=242,missing=241
											241:leaf=-0.092
											242:[f300<13.5] yes=281,no=282,missing=282
												281:leaf=-0.0333333
												282:leaf=0.0866667
									162:leaf=-0.0857143
								122:[f600<938.5] yes=163,no=164,missing=163
									163:leaf=-0.0944444
									164:leaf=0.0666667
							92:[f600<938.5] yes=123,no=124,missing=123
								123:[f300<26] yes=165,no=166,missing=165
									165:[f1800<0.00298151] yes=205,no=206,missing=205
										205:leaf=-0.0970588
										206:leaf=0.02
									166:[f140<10] yes=207,no=208,missing=208
										207:leaf=-0.0777778
										208:[f300<29.5] yes=243,no=244,missing=244
											243:[f600<226] yes=283,no=284,missing=283
												283:leaf=-0.0333333
												284:leaf=0.0833333
											244:leaf=-0.0333333
								124:leaf=0.075
			12:[f3676<121.5] yes=21,no=22,missing=22
				21:leaf=-0.0925926
				22:[f1000<1.5] yes=39,no=40,missing=39
					39:[f600<891] yes=61,no=62,missing=61
						61:[f3648<1.5] yes=93,no=94,missing=93
							93:[f140<5.5] yes=125,no=126,missing=125
								125:[f800<0.0339637] yes=167,no=168,missing=168
									167:leaf=-0.06
									168:[f3676<158] yes=209,no=210,missing=209
										209:[f3676<143] yes=245,no=246,missing=245
											245:[f800<0.449448] yes=285,no=286,missing=286
												285:leaf=-0.06
												286:leaf=0.0672897
											246:leaf=-0.0714286
										210:[f600<275.5] yes=247,no=248,missing=247
											247:leaf=-0.05
											248:[f500<2] yes=287,no=288,missing=288
												287:leaf=-0.0333333
												288:leaf=0.09125
								126:leaf=-0.0714286
							94:leaf=-0.075
						62:leaf=-0.0833333
					40:[f3676<138.5] yes=63,no=64,missing=64
						63:[f170<18] yes=95,no=96,missing=96
							95:leaf=-0.05
							96:leaf=0.0935484
						64:leaf=-0.0947368
		6:[f400<4.75] yes=13,no=14,missing=14
			13:[f1800<0.00133899] yes=23,no=24,missing=23
				23:[f140<11] yes=41,no=42,missing=41
					41:[f3676<208.5] yes=65,no=66,missing=66
						65:[f3676<207.5] yes=97,no=98,missing=98
							97:[f600<4012.5] yes=127,no=128,missing=127
								127:[f600<1042] yes=169,no=170,missing=169
									169:[f1988<0.302416] yes=211,no=212,missing=211
										211:leaf=-0.09
										212:[f3670<128.571] yes=249,no=250,missing=250
											249:leaf=-0.0666667
											250:leaf=0.0875
									170:[f800<0.248529] yes=213,no=214,missing=213
										213:[f1800<0.000117962] yes=251,no=252,missing=252
											251:[f3670<112.464] yes=289,no=290,missing=290
												289:leaf=0.0333333
												290:leaf=-0.0866667
											252:leaf=-0.0988024
										214:[f800<0.25854] yes=253,no=254,missing=254
											253:leaf=0.0666667
											254:leaf=-0.0714286
								128:[f600<4146] yes=171,no=172,missing=171
									171:[f1800<0.000589541] yes=215,no=216,missing=216
										215:leaf=-0.06
										216:[f140<8.00001] yes=255,no=256,missing=256
											255:leaf=-0.0333333
											256:[f300<4.5] yes=291,no=292,missing=292
												291:leaf=-0.0333333
												292:leaf=0.075
									172:leaf=-0.0916667
							98:[f140<2.00001] yes=129,no=130,missing=130
								129:leaf=0.08
								130:leaf=-0.0333333
						66:[f1000<18] yes=99,no=100,missing=99
							99:[f300<44.5] yes=131,no=132,missing=131
								131:leaf=-0.0993827
								132:[f300<45.5] yes=173,no=174,missing=174
									173:[f400<4.4] yes=217,no=218,missing=218
										217:leaf=-0.0333333
										218:[f500<8.00001] yes=257,no=258,missing=258
											257:leaf=-0.0333333
											258:leaf=0.0818182
									174:leaf=-0.0972973
							100:leaf=0.0428571
					42:[f1988<1.71094] yes=67,no=68,missing=67
						67:leaf=-0.0909091
						68:[f1800<0.000402681] yes=101,no=102,missing=101
							101:leaf=-0.06
							102:leaf=0.0909091
				24:[f3648<1.5] yes=43,no=44,missing=44
					43:[f600<3139.5] yes=69,no=70,missing=69
						69:leaf=-0.0974684
						70:[f600<3373] yes=103,no=104,missing=103
							103:leaf=0.0428571
							104:[f1800<0.00140008] yes=135,no=136,missing=136
								135:leaf=0.05
								136:leaf=-0.0894737
					44:[f1600<1.5] yes=71,no=72,missing=72
						71:leaf=-0.0942857
						72:[f600<1460] yes=105,no=106,missing=105
							105:[f1000<2.5] yes=137,no=138,missing=137
								137:[f1988<0.416775] yes=175,no=176,missing=175
									175:[f600<1035.5] yes=219,no=220,missing=219
										219:leaf=-0.0666667
										220:[f800<0.297792] yes=259,no=260,missing=260
											259:leaf=-0.0666667
											260:[f3676<221] yes=293,no=294,missing=293
												293:leaf=0.0793104
												294:leaf=-0.0666667
									176:leaf=-0.075
								138:leaf=-0.0833333
							106:[f300<111] yes=139,no=140,missing=140
								139:[f300<18.5] yes=177,no=178,missing=178
									177:[f300<13.5] yes=221,no=222,missing=222
										221:leaf=-0.0882353
										222:[f400<4.65] yes=261,no=262,missing=262
											261:[f800<0.842115] yes=295,no=296,missing=296
												295:leaf=-0.0333333
												296:leaf=0.0875
											262:leaf=-0.0333333
									178:leaf=-0.0967742
								140:[f1800<0.00167533] yes=179,no=180,missing=180
									179:leaf=0.0931035
									180:leaf=-0.0818182
			14:[f1600<1.5] yes=25,no=26,missing=26
				25:leaf=-0.0953488
				26:[f1800<0.000689802] yes=45,no=46,missing=46
					45:leaf=-0.0833333
					46:[f300<52.5] yes=73,no=74,missing=74
						73:[f500<1.5] yes=107,no=108,missing=107
							107:[f1988<0.91907] yes=141,no=142,missing=141
								141:[f3670<422.748] yes=181,no=182,missing=181
									181:[f600<4395.5] yes=223,no=224,missing=223
										223:leaf=0.0965517
										224:leaf=-0.0333333
									182:leaf=-0.05
								142:leaf=-0.05
							108:leaf=-0.05
						74:leaf=-0.06
booster[1]:
0:[f1010<48] yes=1,no=2,missing=2
	1:[f1800<0.000892938] yes=3,no=4,missing=3
		3:[f1600<1.5] yes=7,no=8,missing=8
			7:[f600<2633] yes=15,no=16,missing=15
				15:[f3676<71.5] yes=29,no=30,missing=30
					29:leaf=-0.0758424
					30:[f1800<0.000698304] yes=49,no=50,missing=49
						49:[f3676<124.5] yes=73,no=74,missing=74
							73:[f600<134.5] yes=99,no=100,missing=99
								99:leaf=-0.0485487
								100:[f1000<36] yes=135,no=136,missing=136
									135:[f400<3.75] yes=169,no=170,missing=170
										169:leaf=-0.0307743
										170:leaf=0.0886336
									136:leaf=-0.0333333
							74:[f3670<224.929] yes=101,no=102,missing=102
								101:leaf=-0.0747435
								102:[f500<2.5] yes=137,no=138,missing=138
									137:leaf=-0.065816
									138:[f300<37] yes=171,no=172,missing=172
										171:[f140<7] yes=205,no=206,missing=205
											205:[f160<2.00001] yes=243,no=244,missing=244
												243:leaf=-0.033692
												244:leaf=0.0739888
											206:leaf=-0.0478668
										172:leaf=-0.0613375
						50:leaf=-0.0726826
				16:leaf=-0.0810139
			8:[f1800<0.000133702] yes=17,no=18,missing=18
				17:[f500<1.5] yes=31,no=32,missing=32
					31:leaf=0.0763751
					32:leaf=-0.0553024
				18:leaf=-0.0881782
		4:[f3670<193.893] yes=9,no=10,missing=9
			9:[f3670<132.418] yes=19,no=20,missing=20
				19:[f140<2.5] yes=33,no=34,missing=33
					33:[f300<54.5] yes=51,no=52,missing=51
						51:[f1800<0.00138885] yes=75,no=76,missing=76
							75:[f300<88] yes=103,no=104,missing=104
								103:leaf=-0.0619879
								104:leaf=0.0550313
							76:[f170<2.00001] yes=105,no=106,missing=106
								105:leaf=-0.0310833
								106:leaf=0.0892403
						52:leaf=-0.067013
					34:leaf=-0.0808676
				20:[f1988<1.01399] yes=35,no=36,missing=35
					35:[f3676<111] yes=53,no=54,missing=54
						53:leaf=-0.0478353
						54:[f300<237] yes=77,no=78,missing=78
							77:[f300<4.5] yes=107,no=108,missing=108
								107:leaf=-0.0472703
								108:[f400<3.75] yes=139,no=140,missing=140
									139:leaf=-0.0311981
									140:[f140<24.5] yes=173,no=174,missing=173
										173:[f600<29.5] yes=207,no=208,missing=207
											207:leaf=-0.0303036
											208:leaf=0.0817237
										174:leaf=-0.031076
							78:leaf=-0.0475466
					36:leaf=-0.0550247
			10:leaf=-0.0807959
	2:[f600<958.5] yes=5,no=6,missing=5
		5:[f300<40.5] yes=11,no=12,missing=11
			11:[f3648<2.5] yes=21,no=22,missing=22
				21:[f400<3.65] yes=37,no=38,missing=37
					37:[f300<8] yes=55,no=56,missing=55
						55:leaf=-0.0894812
						56:[f3676<116] yes=79,no=80,missing=80
							79:leaf=-0.0560572
							80:leaf=0.0464316
					38:[f300<30.5] yes=57,no=58,missing=57
						57:[f600<553.5] yes=81,no=82,missing=81
							81:[f1800<0.00219735] yes=109,no=110,missing=110
								109:[f1988<0.281642] yes=141,no=142,missing=141
									141:[f800<0.12423] yes=175,no=176,missing=176
										175:leaf=-0.0661429
										176:[f1988<0.218076] yes=209,no=210,missing=210
											209:[f1000<13.5] yes=247,no=248,missing=247
												247:leaf=-0.0791235
												248:leaf=0.0798597
											210:[f1000<4.5] yes=249,no=250,missing=249
												249:leaf=0.0713534
												250:leaf=-0.0711984
									142:leaf=-0.0803228
								110:[f140<16] yes=143,no=144,missing=144
									143:leaf=-0.0871257
									144:[f3670<125.944] yes=177,no=178,missing=178
										177:[f400<3.85] yes=211,no=212,missing=212
											211:leaf=-0.0560453
											212:[f400<4.75] yes=251,no=252,missing=252
												251:leaf=0.0655345
												252:leaf=-0.0458693
										178:leaf=-0.0758605
							82:[f300<7.5] yes=111,no=112,missing=111
								111:[f1800<0.000574617] yes=145,no=146,missing=146
									145:leaf=-0.0811454
									146:[f400<4.25] yes=179,no=180,missing=180
										179:[f800<0.178748] yes=213,no=214,missing=214
											213:leaf=0.0739437
											214:leaf=-0.0824224
										180:[f1800<0.0021959] yes=215,no=216,missing=215
											215:[f600<636] yes=253,no=254,missing=253
												253:leaf=-0.0493454
												254:leaf=0.0825754
											216:leaf=-0.055476
								112:[f1800<0.00300286] yes=147,no=148,missing=148
									147:[f1800<0.00017318] yes=181,no=182,missing=182
										181:leaf=-0.0155052
										182:leaf=-0.0899824
									148:leaf=0.066572
						58:leaf=-0.0829387
				22:[f100<-9.53674e-06] yes=39,no=40,missing=39
					39:[f140<2.5] yes=59,no=60,missing=60
						59:leaf=-0.08962
						60:[f1000<1.5] yes=83,no=84,missing=84
							83:[f140<24.5] yes=113,no=114,missing=113
								113:leaf=-0.0886965
								114:[f400<4.45] yes=149,no=150,missing=150
									149:leaf=-0.0695263
									150:leaf=0.0659422
							84:[f1800<0.000124114] yes=115,no=116,missing=115
								115:leaf=-0.0884814
								116:[f1800<0.000218574] yes=151,no=152,missing=152
									151:[f500<6.00001] yes=183,no=184,missing=184
										183:[f300<10] yes=219,no=220,missing=220
											219:leaf=0.0914995
											220:leaf=-0.0562106
										184:leaf=-0.0783326
									152:[f600<436.5] yes=185,no=186,missing=185
										185:[f1800<0.00171322] yes=221,no=222,missing=222
											221:[f400<4.85] yes=255,no=256,missing=255
												255:leaf=-0.0913587
												256:leaf=0.0415192
											222:[f1800<0.00191562] yes=257,no=258,missing=258
												257:leaf=0.0705081
												258:leaf=-0.0716275
										186:[f600<577] yes=223,no=224,missing=223
											223:[f400<4.25] yes=259,no=260,missing=260
												259:leaf=-0.0753729
												260:leaf=0.0750107
											224:[f600<912.5] yes=261,no=262,missing=261
												261:leaf=-0.0767318
												262:leaf=0.0261882
					40:[f140<8.5] yes=61,no=62,missing=62
						61:[f600<490] yes=85,no=86,missing=85
							85:leaf=-0.0304783
							86:leaf=0.0861409
						62:leaf=-0.0464225
			12:[f3676<121.5] yes=23,no=24,missing=24
				23:leaf=-0.0853735
				24:[f1000<6.5] yes=41,no=42,missing=41
					41:[f3670<93.175] yes=63,no=64,missing=64
						63:leaf=-0.0755214
						64:[f800<0.0892147] yes=87,no=88,missing=88
							87:[f300<76] yes=117,no=118,missing=118
								117:leaf=-0.0760108
								118:leaf=0.0455844
							88:[f140<7.5] yes=119,no=120,missing=119
								119:[f160<8.00001] yes=153,no=154,missing=154
									153:[f1800<0.00282648] yes=187,no=188,missing=188
										187:leaf=0.091496
										188:leaf=-0.0333333
									154:[f600<669] yes=189,no=190,missing=189
										189:[f1800<0.00117196] yes=225,no=226,missing=226
											225:[f3670<330.227] yes=263,no=264,missing=263
												263:leaf=-0.0834951
												264:leaf=0.0788339
											226:[f500<60] yes=265,no=266,missing=265
												265:leaf=0.0730049
												266:leaf=-0.05
										190:[f600<832] yes=227,no=228,missing=227
											227:leaf=-0.0870463
											228:[f3670<200.5] yes=267,no=268,missing=267
												267:leaf=0.0663712
												268:leaf=-0.0756241
								120:leaf=-0.0690902
					42:leaf=-0.080155
		6:[f400<4.75] yes=13,no=14,missing=14
			13:[f1800<0.00133899] yes=25,no=26,missing=25
				25:[f1000<18.5] yes=43,no=44,missing=43
					43:[f140<11] yes=65,no=66,missing=65
						65:[f3676<208.5] yes=89,no=90,missing=90
							89:[f1000<34] yes=121,no=122,missing=122
								121:leaf=-0.0898977
								122:[f3670<147.871] yes=155,no=156,missing=156
									155:[f1800<0.000324631] yes=191,no=192,missing=192
										191:[f600<1876] yes=229,no=230,missing=229
											229:[f600<1467.5] yes=269,no=270,missing=269
												269:leaf=-0.0555551
												270:leaf=0.0782422
											230:leaf=-0.0769692
										192:leaf=-0.0898008
									156:[f3670<177.175] yes=193,no=194,missing=194
										193:[f1800<0.000344219] yes=231,no=232,missing=231
											231:leaf=-0.0765658
											232:[f300<3.5] yes=271,no=272,missing=272
												271:leaf=-0.0555395
												272:leaf=0.0582003
										194:[f1988<0.261739] yes=233,no=234,missing=234
											233:leaf=0.0465071
											234:leaf=-0.0861962
							90:[f300<44.5] yes=123,no=124,missing=123
								123:leaf=-0.0911604
								124:[f300<45.5] yes=157,no=158,missing=158
									157:leaf=0.0423269
									158:leaf=-0.0892531
						66:[f1988<1.71094] yes=91,no=92,missing=91
							91:leaf=-0.0841257
							92:[f1800<0.000402681] yes=125,no=126,missing=125
								125:leaf=-0.0556707
								126:leaf=0.0833388
					44:[f300<33] yes=67,no=68,missing=68
						67:leaf=0.0755651
						68:leaf=-0.0333333
				26:[f1600<1.5] yes=45,no=46,missing=46
					45:leaf=-0.0895031
					46:[f3676<106.5] yes=69,no=70,missing=69
						69:[f140<3.5] yes=93,no=94,missing=94
							93:leaf=-0.0858893
							94:[f600<1460] yes=127,no=128,missing=127
								127:[f600<1066] yes=159,no=160,missing=159
									159:leaf=-0.0738009
									160:[f300<8.5] yes=197,no=198,missing=198
										197:leaf=-0.0498851
										198:[f1988<0.387863] yes=237,no=238,missing=237
											237:[f1800<0.00147266] yes=275,no=276,missing=276
												275:leaf=-0.0330468
												276:leaf=0.0829176
											238:leaf=-0.0458861
								128:[f600<2910] yes=161,no=162,missing=161
									161:[f500<1.5] yes=199,no=200,missing=200
										199:[f300<20.5] yes=239,no=240,missing=240
											239:leaf=0.0757151
											240:leaf=-0.0548557
										200:leaf=-0.0873635
									162:[f600<3286.5] yes=201,no=202,missing=201
										201:[f800<0.842115] yes=241,no=242,missing=242
											241:leaf=-0.0621211
											242:[f1800<0.00154639] yes=277,no=278,missing=278
												277:leaf=-0.0454318
												278:leaf=0.0803846
										202:leaf=-0.07762
						70:[f1800<0.00148539] yes=95,no=96,missing=96
							95:[f3670<206.75] yes=129,no=130,missing=130
								129:[f600<4453.5] yes=163,no=164,missing=163
									163:leaf=-0.0766542
									164:leaf=0.0464978
								130:leaf=0.0819083
							96:[f300<120.5] yes=131,no=132,missing=132
								131:leaf=-0.0892679
								132:[f140<2.5] yes=165,no=166,missing=166
									165:leaf=0.0549573
									166:leaf=-0.0616288
			14:[f1600<1.5] yes=27,no=28,missing=28
				27:leaf=-0.0873147
				28:[f1800<0.000689802] yes=47,no=48,missing=48
					47:leaf=-0.0755876
					48:[f300<52.5] yes=71,no=72,missing=72
						71:[f800<0.215] yes=97,no=98,missing=97
							97:[f600<1020] yes=133,no=134,missing=133
								133:leaf=-0.0468753
								134:[f3670<422.748] yes=167,no=168,missing=167
									167:[f1000<2.5] yes=203,no=204,missing=203
										203:leaf=0.0879122
										204:leaf=-0.0309332
									168:leaf=-0.0467728
							98:leaf=-0.0469555
						72:leaf=-0.0559545
booster[2]:
0:[f1010<48] yes=1,no=2,missing=2
	1:[f600<2696] yes=3,no=4,missing=3
		3:[f1800<0.00142071] yes=7,no=8,missing=7
			7:[f300<44.5] yes=15,no=16,missing=15
				15:[f400<4.75] yes=29,no=30,missing=30
					29:[f3648<1.5] yes=45,no=46,missing=46
						45:[f1988<0.749468] yes=69,no=70,missing=69
							69:[f1800<0.00124849] yes=99,no=100,missing=99
								99:[f800<0.0137597] yes=137,no=138,missing=137
									137:[f3676<71.5] yes=181,no=182,missing=182
										181:leaf=-0.0517343
										182:[f500<9.5] yes=221,no=222,missing=221
											221:[f600<78] yes=253,no=254,missing=253
												253:leaf=-0.0317364
												254:leaf=0.0775901
											222:leaf=-0.0425655
									138:leaf=-0.0527379
								100:leaf=-0.0531043
							70:leaf=-0.0572547
						46:[f1988<0.102578] yes=71,no=72,missing=71
							71:[f1600<1.5] yes=101,no=102,missing=102
								101:[f600<412.5] yes=139,no=140,missing=139
									139:leaf=-0.0625075
									140:[f1000<1.5] yes=183,no=184,missing=184
										183:leaf=-0.0469122
										184:[f500<2.5] yes=223,no=224,missing=224
											223:leaf=-0.0433296
											224:[f1800<0.00106466] yes=255,no=256,missing=255
												255:leaf=0.0757163
												256:leaf=-0.0334624
								102:[f1000<1.5] yes=141,no=142,missing=142
									141:[f600<512.5] yes=185,no=186,missing=185
										185:leaf=0.0706827
										186:leaf=-0.0425394
									142:leaf=-0.0752232
							72:leaf=-0.0764299
					30:leaf=-0.0730475
				16:leaf=-0.0782618
			8:[f3670<193.893] yes=17,no=18,missing=17
				17:[f1988<0.221638] yes=31,no=32,missing=31
					31:[f400<3.75] yes=47,no=48,missing=48
						47:leaf=-0.0442587
						48:[f3676<58] yes=73,no=74,missing=74
							73:leaf=-0.043545
							74:[f300<237] yes=103,no=104,missing=104
								103:[f300<6] yes=143,no=144,missing=144
									143:leaf=-0.0295762
									144:[f3670<87.629] yes=187,no=188,missing=188
										187:[f400<4.45] yes=225,no=226,missing=226
											225:leaf=-0.0593958
											226:leaf=0.0774029
										188:[f400<4.35] yes=227,no=228,missing=228
											227:leaf=0.0811168
											228:[f1600<1.5] yes=257,no=258,missing=258
												257:leaf=0.0705556
												258:leaf=-0.05859
								104:leaf=-0.0297825
					32:[f400<4.7] yes=49,no=50,missing=50
						49:leaf=-0.0701253
						50:leaf=0.0677867
				18:leaf=-0.0702439
		4:[f1000<1.5] yes=9,no=10,missing=10
			9:[f140<2.5] yes=19,no=20,missing=20
				19:leaf=0.0783744
				20:leaf=-0.0517844
			10:leaf=-0.080967
	2:[f600<844] yes=5,no=6,missing=5
		5:[f300<41.5] yes=11,no=12,missing=11
			11:[f300<32.5] yes=21,no=22,missing=22
				21:[f3648<2.5] yes=33,no=34,missing=34
					33:[f1988<0.404994] yes=51,no=52,missing=51
						51:[f400<3.75] yes=75,no=76,missing=75
							75:[f300<8] yes=105,no=106,missing=106
								105:leaf=-0.0780296
								106:[f600<253] yes=145,no=146,missing=145
									145:leaf=-0.0469312
									146:leaf=0.044104
							76:[f1988<0.218076] yes=107,no=108,missing=108
								107:[f300<5.5] yes=147,no=148,missing=148
									147:[f300<3.5] yes=191,no=192,missing=192
										191:leaf=-0.0417751
										192:leaf=0.0765258
									148:[f1000<13.5] yes=193,no=194,missing=193
										193:leaf=-0.0780448
										194:leaf=0.0450617
								108:[f170<2.5] yes=149,no=150,missing=149
									149:[f800<0.12423] yes=195,no=196,missing=196
										195:leaf=-0.0619481
										196:[f300<3.5] yes=231,no=232,missing=232
											231:[f1800<0.000163557] yes=259,no=260,missing=259
												259:leaf=-0.0521186
												260:leaf=0.0439638
											232:[f600<764] yes=261,no=262,missing=261
												261:leaf=0.0645532
												262:leaf=-0.062537
									150:leaf=-0.0700775
						52:leaf=-0.0798132
					34:[f600<577] yes=53,no=54,missing=53
						53:[f600<557.5] yes=77,no=78,missing=77
							77:[f3676<46.5] yes=109,no=110,missing=110
								109:[f170<4.00001] yes=151,no=152,missing=152
									151:leaf=0.0786295
									152:leaf=-0.0284222
								110:[f600<229.5] yes=153,no=154,missing=153
									153:leaf=-0.0846511
									154:[f600<236.5] yes=197,no=198,missing=197
										197:leaf=0.0836849
										198:[f1800<0.00171153] yes=233,no=234,missing=233
											233:[f300<31] yes=263,no=264,missing=264
												263:leaf=-0.0536471
												264:leaf=0.0745017
											234:[f1600<3.5] yes=265,no=266,missing=266
												265:leaf=-0.0736848
												266:leaf=0.0572108
							78:[f300<10] yes=111,no=112,missing=112
								111:leaf=0.0829083
								112:leaf=-0.0557197
						54:[f3676<348.5] yes=79,no=80,missing=79
							79:leaf=-0.0833465
							80:[f400<4.1] yes=113,no=114,missing=114
								113:leaf=0.0650121
								114:leaf=-0.0435479
				22:[f1988<0.579449] yes=35,no=36,missing=36
					35:[f3676<87.5] yes=55,no=56,missing=56
						55:leaf=-0.0748061
						56:[f400<4.05] yes=81,no=82,missing=81
							81:leaf=-0.0662973
							82:[f300<78] yes=115,no=116,missing=116
								115:leaf=-0.0567658
								116:leaf=0.0815434
					36:leaf=-0.0846081
			12:[f3670<93.175] yes=23,no=24,missing=24
				23:leaf=-0.0776345
				24:[f140<5.5] yes=37,no=38,missing=37
					37:[f3676<121.5] yes=57,no=58,missing=57
						57:[f1800<0.00126359] yes=83,no=84,missing=84
							83:leaf=-0.0827538
							84:[f1000<1.5] yes=117,no=118,missing=117
								117:[f3670<716] yes=155,no=156,missing=156
									155:leaf=-0.0608072
									156:[f170<2.5] yes=199,no=200,missing=199
										199:[f140<3.5] yes=235,no=236,missing=235
											235:[f800<0.449448] yes=267,no=268,missing=268
												267:leaf=-0.0450041
												268:leaf=0.0652825
											236:leaf=-0.0496327
										200:leaf=-0.0504054
								118:leaf=-0.0706614
						58:[f500<2] yes=85,no=86,missing=86
							85:leaf=-0.0446147
							86:[f400<4.15] yes=119,no=120,missing=120
								119:[f300<114.5] yes=157,no=158,missing=158
									157:leaf=-0.06847
									158:leaf=0.0751511
								120:[f1988<0.389833] yes=159,no=160,missing=159
									159:[f800<0.0293221] yes=201,no=202,missing=202
										201:leaf=-0.0286774
										202:[f500<48] yes=237,no=238,missing=237
											237:[f800<0.117037] yes=269,no=270,missing=269
												269:leaf=0.0789168
												270:leaf=-0.0278649
											238:leaf=-0.0279143
									160:leaf=-0.033295
					38:leaf=-0.0767646
		6:[f400<4.75] yes=13,no=14,missing=14
			13:[f600<1476] yes=25,no=26,missing=25
				25:[f600<1444.5] yes=39,no=40,missing=39
					39:[f1988<0.200049] yes=59,no=60,missing=59
						59:[f300<120] yes=87,no=88,missing=87
							87:[f3670<101.333] yes=121,no=122,missing=121
								121:[f500<16.5] yes=161,no=162,missing=162
									161:[f300<39.5] yes=203,no=204,missing=204
										203:leaf=-0.0740032
										204:leaf=0.0787766
									162:[f3670<90.5556] yes=205,no=206,missing=205
										205:[f1000<10] yes=239,no=240,missing=239
											239:leaf=-0.0848021
											240:leaf=0.0376019
										206:[f300<1.5] yes=241,no=242,missing=241
											241:[f600<942] yes=273,no=274,missing=273
												273:leaf=0.07663
												274:leaf=-0.0304841
											242:leaf=-0.055351
								122:leaf=-0.0848447
							88:[f600<1106] yes=123,no=124,missing=123
								123:leaf=-0.0471901
								124:[f400<4.35] yes=163,no=164,missing=164
									163:leaf=0.0783962
									164:leaf=-0.0427052
						60:[f600<1040] yes=89,no=90,missing=89
							89:[f1800<0.00168971] yes=125,no=126,missing=126
								125:[f3676<93.5] yes=165,no=166,missing=166
									165:leaf=-0.0704859
									166:[f500<3.5] yes=207,no=208,missing=208
										207:[f170<1.5] yes=243,no=244,missing=244
											243:leaf=0.0641134
											244:leaf=-0.0677284
										208:[f300<3] yes=245,no=246,missing=246
											245:leaf=-0.0425164
											246:[f400<4.55] yes=275,no=276,missing=276
												275:leaf=0.0743788
												276:leaf=-0.042489
								126:leaf=-0.0733649
							90:[f1800<0.00219391] yes=127,no=128,missing=127
								127:leaf=-0.0820135
								128:[f140<6.00001] yes=167,no=168,missing=168
									167:leaf=-0.0423153
									168:leaf=0.0775859
					40:[f400<4.05] yes=61,no=62,missing=62
						61:leaf=0.0816352
						62:[f600<1473.5] yes=91,no=92,missing=91
							91:leaf=-0.0736688
							92:leaf=0.0592957
				26:[f1800<0.00448322] yes=41,no=42,missing=41
					41:[f500<2.5] yes=63,no=64,missing=64
						63:[f1000<17] yes=93,no=94,missing=94
							93:leaf=-0.0805869
							94:[f300<19.5] yes=129,no=130,missing=130
								129:[f300<16.5] yes=169,no=170,missing=170
									169:leaf=-0.0693642
									170:[f600<1677.5] yes=209,no=210,missing=209
										209:leaf=-0.0282197
										210:leaf=0.0816745
								130:[f140<1.5] yes=171,no=172,missing=172
									171:leaf=0.0519554
									172:leaf=-0.0769624
						64:[f300<111.5] yes=95,no=96,missing=95
							95:[f400<3.65] yes=131,no=132,missing=132
								131:[f300<58] yes=173,no=174,missing=173
									173:leaf=-0.0776674
									174:leaf=0.0644653
								132:[f600<4144.5] yes=175,no=176,missing=175
									175:[f600<1845.5] yes=213,no=214,missing=213
										213:[f600<1842.5] yes=247,no=248,missing=247
											247:leaf=-0.0818312
											248:leaf=0.0622213
										214:[f3676<104.5] yes=249,no=250,missing=250
											249:[f3676<102.5] yes=279,no=280,missing=280
												279:leaf=-0.0803256
												280:leaf=0.00614306
											250:leaf=-0.0851452
									176:[f600<4146] yes=215,no=216,missing=215
										215:leaf=0.0702294
										216:[f1800<0.00128075] yes=251,no=252,missing=251
											251:leaf=-0.0825555
											252:[f1800<0.00139829] yes=281,no=282,missing=282
												281:leaf=0.0663976
												282:leaf=-0.0765634
							96:[f300<124.5] yes=133,no=134,missing=134
								133:[f600<2545.5] yes=177,no=178,missing=177
									177:leaf=-0.0663047
									178:[f600<3250] yes=217,no=218,missing=217
										217:leaf=0.078887
										218:leaf=-0.0280501
								134:leaf=-0.0786312
					42:[f300<24.5] yes=65,no=66,missing=66
						65:leaf=0.078387
						66:leaf=-0.0658944
			14:[f1600<1.5] yes=27,no=28,missing=28
				27:leaf=-0.0816513
				28:[f1800<0.000769829] yes=43,no=44,missing=44
					43:leaf=-0.0759488
					44:[f300<52.5] yes=67,no=68,missing=68
						67:[f800<0.215] yes=97,no=98,missing=97
							97:[f3670<422.748] yes=135,no=136,missing=135
								135:[f600<1020] yes=179,no=180,missing=179
									179:leaf=-0.0438375
									180:[f1000<2.5] yes=219,no=220,missing=219
										219:leaf=0.0831976
										220:leaf=-0.0291824
								136:leaf=-0.0440709
							98:leaf=-0.0441052
						68:leaf=-0.0620473
booster[3]:
0:[f1010<48] yes=1,no=2,missing=2
	1:[f1800<0.00142071] yes=3,no=4,missing=3
		3:[f300<44.5] yes=7,no=8,missing=7
			7:[f400<4.75] yes=15,no=16,missing=16
				15:[f600<2633] yes=27,no=28,missing=27
					27:[f3648<1.5] yes=45,no=46,missing=46
						45:[f3676<71.5] yes=69,no=70,missing=70
							69:leaf=-0.0542511
							70:[f1988<0.749468] yes=103,no=104,missing=103
								103:[f1800<0.00124849] yes=139,no=140,missing=139
									139:[f800<0.0137597] yes=179,no=180,missing=179
										179:[f500<9.5] yes=227,no=228,missing=227
											227:[f1000<36] yes=265,no=266,missing=266
												265:leaf=0.0724503
												266:leaf=-0.0313418
											228:leaf=-0.0400617
										180:leaf=-0.0491388
									140:leaf=-0.0498783
								104:leaf=-0.0537486
						46:[f1988<0.102578] yes=71,no=72,missing=71
							71:[f1600<1.5] yes=105,no=106,missing=106
								105:[f600<412.5] yes=141,no=142,missing=141
									141:leaf=-0.0585552
									142:[f400<2.85] yes=181,no=182,missing=182
										181:leaf=-0.0466491
										182:[f1000<1.5] yes=229,no=230,missing=230
											229:leaf=-0.0438942
											230:[f500<2.5] yes=267,no=268,missing=268
												267:leaf=-0.0408194
												268:leaf=0.0725086
								106:[f1000<1.5] yes=143,no=144,missing=144
									143:[f600<512.5] yes=183,no=184,missing=183
										183:leaf=0.0690398
										184:leaf=-0.0400287
									144:leaf=-0.0726184
							72:leaf=-0.0715601
					28:[f3670<404] yes=47,no=48,missing=48
						47:leaf=-0.0724775
						48:leaf=0.0550063
				16:leaf=-0.070117
			8:leaf=-0.0752339
		4:[f3670<193.893] yes=9,no=10,missing=9
			9:[f600<2773.5] yes=17,no=18,missing=17
				17:[f3676<58] yes=29,no=30,missing=30
					29:leaf=-0.0409075
					30:[f1988<1.01399] yes=49,no=50,missing=49
						49:leaf=0.0697364
						50:leaf=-0.0398439
				18:[f400<4.55] yes=31,no=32,missing=32
					31:leaf=-0.0625227
					32:leaf=0.0663628
			10:leaf=-0.0676476
	2:[f600<958.5] yes=5,no=6,missing=5
		5:[f300<40.5] yes=11,no=12,missing=11
			11:[f3648<6.00001] yes=19,no=20,missing=20
				19:[f400<3.75] yes=33,no=34,missing=33
					33:[f300<8] yes=51,no=52,missing=51
						51:leaf=-0.079259
						52:[f3648<1.5] yes=77,no=78,missing=78
							77:[f1800<0.000892615] yes=109,no=110,missing=110
								109:leaf=-0.0418862
								110:leaf=0.0656246
							78:leaf=-0.0586104
					34:[f600<553.5] yes=53,no=54,missing=53
						53:[f1800<0.0115839] yes=79,no=80,missing=80
							79:[f300<30.5] yes=111,no=112,missing=111
								111:[f300<1.5] yes=147,no=148,missing=148
									147:[f400<4.4] yes=187,no=188,missing=188
										187:leaf=-0.0732191
										188:leaf=0.0593437
									148:[f1988<0.218076] yes=189,no=190,missing=190
										189:[f1000<13.5] yes=233,no=234,missing=233
											233:leaf=-0.0705106
											234:leaf=0.0676787
										190:[f800<0.12423] yes=235,no=236,missing=236
											235:leaf=-0.0582008
											236:[f1988<1.32308] yes=271,no=272,missing=271
												271:leaf=0.0599911
												272:leaf=-0.0530402
								112:leaf=-0.0707214
							80:[f1988<0.284881] yes=113,no=114,missing=114
								113:[f140<15.5] yes=149,no=150,missing=150
									149:leaf=-0.048467
									150:leaf=0.0648007
								114:[f600<106] yes=151,no=152,missing=151
									151:leaf=0.0195307
									152:leaf=-0.0749276
						54:[f300<7.5] yes=81,no=82,missing=81
							81:[f1800<0.000574617] yes=115,no=116,missing=116
								115:leaf=-0.0737637
								116:[f1800<0.00086234] yes=153,no=154,missing=153
									153:[f400<4.35] yes=197,no=198,missing=198
										197:[f600<901] yes=239,no=240,missing=239
											239:leaf=-0.0647644
											240:leaf=0.0405983
										198:leaf=0.0733111
									154:[f800<0.281852] yes=199,no=200,missing=199
										199:leaf=-0.0754015
										200:leaf=0.0616295
							82:[f140<8.5] yes=117,no=118,missing=117
								117:leaf=-0.0792001
								118:[f3676<111.5] yes=155,no=156,missing=156
									155:leaf=0.0395219
									156:leaf=-0.0480773
				20:[f1000<3.5] yes=35,no=36,missing=36
					35:[f140<24.5] yes=55,no=56,missing=55
						55:leaf=-0.0790841
						56:[f600<314] yes=83,no=84,missing=83
							83:leaf=0.0615323
							84:leaf=-0.0609971
					36:[f140<2.5] yes=57,no=58,missing=58
						57:[f100<-9.53674e-06] yes=85,no=86,missing=85
							85:leaf=-0.0786147
							86:leaf=0.0662361
						58:[f1988<0.61353] yes=87,no=88,missing=87
							87:[f3670<164] yes=119,no=120,missing=119
								119:[f1600<1.5] yes=157,no=158,missing=157
									157:[f400<4.55] yes=203,no=204,missing=203
										203:[f600<577] yes=243,no=244,missing=243
											243:[f600<232] yes=275,no=276,missing=275
												275:leaf=-0.00191491
												276:leaf=0.054017
											244:[f3676<164] yes=277,no=278,missing=277
												277:leaf=-0.0511168
												278:leaf=0.0717875
										204:leaf=-0.0726049
									158:leaf=-0.07248
								120:[f400<4.8] yes=159,no=160,missing=159
									159:leaf=-0.0756481
									160:leaf=0.0343314
							88:[f600<938.5] yes=121,no=122,missing=121
								121:leaf=-0.0783237
								122:leaf=0.0541625
			12:[f3676<121.5] yes=21,no=22,missing=22
				21:leaf=-0.0740878
				22:[f1000<6.5] yes=37,no=38,missing=37
					37:[f3670<93.175] yes=59,no=60,missing=60
						59:leaf=-0.0670323
						60:[f160<8.00001] yes=89,no=90,missing=90
							89:[f1800<0.00282648] yes=123,no=124,missing=124
								123:leaf=0.0807313
								124:leaf=-0.0469746
							90:[f1800<0.000435818] yes=125,no=126,missing=126
								125:leaf=-0.0684456
								126:[f170<3.5] yes=161,no=162,missing=161
									161:[f3676<425] yes=207,no=208,missing=208
										207:[f600<852.5] yes=245,no=246,missing=245
											245:[f1988<0.345591] yes=279,no=280,missing=279
												279:leaf=0.0694025
												280:leaf=-0.0433289
											246:[f140<4.5] yes=281,no=282,missing=281
												281:leaf=-0.0727803
												282:leaf=0.0683431
										208:[f400<4.35] yes=247,no=248,missing=248
											247:[f1000<1.5] yes=283,no=284,missing=283
												283:leaf=0.0550993
												284:leaf=-0.0590746
											248:[f1800<0.000628765] yes=285,no=286,missing=286
												285:leaf=0.0660719
												286:leaf=-0.0827057
									162:leaf=-0.067632
					38:leaf=-0.0698813
		6:[f400<4.75] yes=13,no=14,missing=14
			13:[f1800<0.00133899] yes=23,no=24,missing=23
				23:[f140<11] yes=39,no=40,missing=39
					39:[f1000<18.5] yes=61,no=62,missing=61
						61:[f3676<188.5] yes=91,no=92,missing=92
							91:[f600<4012.5] yes=127,no=128,missing=127
								127:[f600<1042] yes=163,no=164,missing=163
									163:[f600<1009.5] yes=209,no=210,missing=209
										209:leaf=-0.0660984
										210:leaf=0.0566547
									164:[f800<0.248529] yes=211,no=212,missing=211
										211:[f1800<0.000117962] yes=253,no=254,missing=254
											253:[f3670<112.464] yes=289,no=290,missing=290
												289:leaf=0.02903
												290:leaf=-0.0670894
											254:leaf=-0.0792978
										212:[f800<0.25854] yes=255,no=256,missing=256
											255:leaf=0.058429
											256:leaf=-0.066009
								128:[f600<4185] yes=165,no=166,missing=165
									165:[f300<4.5] yes=213,no=214,missing=214
										213:leaf=-0.0424054
										214:[f3670<150.613] yes=257,no=258,missing=258
											257:leaf=-0.0416848
											258:leaf=0.0681388
									166:leaf=-0.0752436
							92:[f300<38.5] yes=129,no=130,missing=129
								129:leaf=-0.0796315
								130:[f300<45.5] yes=167,no=168,missing=168
									167:[f300<44.5] yes=215,no=216,missing=216
										215:leaf=-0.0614632
										216:leaf=0.0407762
									168:leaf=-0.0783871
						62:leaf=0.0395431
					40:[f1988<1.71094] yes=63,no=64,missing=63
						63:leaf=-0.0725329
						64:[f1800<0.000402681] yes=95,no=96,missing=95
							95:leaf=-0.0481038
							96:leaf=0.0723688
				24:[f1600<1.5] yes=41,no=42,missing=42
					41:leaf=-0.078346
					42:[f300<19.5] yes=65,no=66,missing=66
						65:[f300<10.5] yes=97,no=98,missing=98
							97:leaf=-0.0743762
							98:[f3670<121.438] yes=131,no=132,missing=131
								131:[f140<2.5] yes=169,no=170,missing=170
									169:leaf=-0.0480102
									170:[f800<0.331843] yes=217,no=218,missing=218
										217:leaf=-0.0468395
										218:[f1988<0.435173] yes=263,no=264,missing=263
											263:[f800<0.363627] yes=295,no=296,missing=295
												295:leaf=0.0713805
												296:leaf=-0.0399204
											264:leaf=-0.0410044
								132:[f1988<0.292615] yes=171,no=172,missing=172
									171:leaf=0.0500093
									172:leaf=-0.0675801
						66:[f300<111] yes=99,no=100,missing=100
							99:[f800<0.410222] yes=133,no=134,missing=133
								133:[f140<11] yes=173,no=174,missing=173
									173:leaf=-0.0795253
									174:[f600<1579] yes=221,no=222,missing=221
										221:leaf=0.053468
										222:leaf=-0.0526962
								134:leaf=0.0620923
							100:[f1800<0.00186036] yes=135,no=136,missing=136
								135:[f3676<206] yes=175,no=176,missing=176
									175:leaf=-0.040551
									176:leaf=0.0736612
								136:leaf=-0.0710054
			14:[f1600<1.5] yes=25,no=26,missing=26
				25:leaf=-0.0757235
				26:[f1800<0.000689802] yes=43,no=44,missing=44
					43:leaf=-0.0642938
					44:[f300<52.5] yes=67,no=68,missing=68
						67:[f3670<422.748] yes=101,no=102,missing=101
							101:[f500<1.5] yes=137,no=138,missing=137
								137:[f1988<0.91907] yes=177,no=178,missing=177
									177:[f600<4395.5] yes=225,no=226,missing=225
										225:leaf=0.0781423
										226:leaf=-0.0275688
									178:leaf=-0.0413505
								138:leaf=-0.0414784
							102:leaf=-0.0416271
						68:leaf=-0.0491318
booster[4]:
0:[f1010<48] yes=1,no=2,missing=2
	1:[f1800<0.00142071] yes=3,no=4,missing=3
		3:[f300<44.5] yes=7,no=8,missing=7
			7:[f600<3750.5] yes=15,no=16,missing=15
				15:[f600<131.5] yes=27,no=28,missing=27
					27:leaf=-0.0654983
					28:[f1988<0.749468] yes=45,no=46,missing=45
						45:[f3676<71.5] yes=65,no=66,missing=66
							65:leaf=-0.0613185
							66:[f1000<2.5] yes=93,no=94,missing=94
								93:[f400<3.45] yes=125,no=126,missing=126
									125:leaf=-0.0426294
									126:[f140<7.5] yes=161,no=162,missing=161
										161:leaf=0.0666891
										162:leaf=-0.0333333
								94:[f1600<1.5] yes=127,no=128,missing=128
									127:[f1010<2.5] yes=163,no=164,missing=164
										163:[f170<1.5] yes=201,no=202,missing=202
											201:leaf=0.0658525
											202:leaf=-0.0733494
										164:[f600<2062] yes=203,no=204,missing=203
											203:[f1800<0.00101714] yes=235,no=236,missing=235
												235:leaf=0.0634757
												236:leaf=-0.0303755
											204:leaf=-0.0471041
									128:leaf=-0.07088
						46:leaf=-0.0637895
				16:leaf=-0.0649791
			8:leaf=-0.0714656
		4:[f3670<193.893] yes=9,no=10,missing=9
			9:[f1988<0.221638] yes=17,no=18,missing=17
				17:[f3676<58] yes=29,no=30,missing=30
					29:leaf=-0.0386934
					30:[f600<2773.5] yes=47,no=48,missing=47
						47:[f300<6] yes=67,no=68,missing=68
							67:leaf=-0.0281137
							68:[f300<237] yes=95,no=96,missing=96
								95:[f400<3.75] yes=129,no=130,missing=130
									129:leaf=-0.027554
									130:[f3670<87.629] yes=165,no=166,missing=166
										165:[f400<4.45] yes=205,no=206,missing=206
											205:leaf=-0.0566504
											206:leaf=0.0711613
										166:[f600<1050] yes=207,no=208,missing=207
											207:[f1600<2.5] yes=237,no=238,missing=238
												237:leaf=0.0745695
												238:leaf=-0.0497642
											208:[f140<4] yes=239,no=240,missing=240
												239:leaf=-0.0580935
												240:leaf=0.0660712
								96:leaf=-0.0276653
						48:[f400<4.55] yes=69,no=70,missing=70
							69:leaf=-0.0541433
							70:leaf=0.0618942
				18:[f400<4.7] yes=31,no=32,missing=32
					31:leaf=-0.0624119
					32:leaf=0.0608413
			10:leaf=-0.0619906
	2:[f600<958.5] yes=5,no=6,missing=5
		5:[f300<40.5] yes=11,no=12,missing=11
			11:[f400<3.75] yes=19,no=20,missing=19
				19:[f1800<0.000999335] yes=33,no=34,missing=34
					33:[f3676<266] yes=49,no=50,missing=50
						49:leaf=-0.0713473
						50:[f140<24] yes=71,no=72,missing=72
							71:leaf=-0.0515595
							72:leaf=0.0691572
					34:leaf=-0.0747428
				20:[f3648<2.5] yes=35,no=36,missing=36
					35:[f170<2.5] yes=51,no=52,missing=51
						51:[f1988<0.39024] yes=73,no=74,missing=73
							73:[f600<814.5] yes=99,no=100,missing=99
								99:[f300<31] yes=131,no=132,missing=132
									131:[f1988<0.218076] yes=167,no=168,missing=168
										167:[f300<5.5] yes=209,no=210,missing=210
											209:[f1988<0.0295649] yes=241,no=242,missing=242
												241:leaf=-0.0467257
												242:leaf=0.0663949
											210:leaf=-0.0692903
										168:[f300<3.5] yes=211,no=212,missing=212
											211:[f1800<0.000163557] yes=243,no=244,missing=243
												243:leaf=-0.0411349
												244:leaf=0.0378865
											212:[f800<0.12423] yes=245,no=246,missing=246
												245:leaf=-0.0550235
												246:leaf=0.0557992
									132:[f1988<0.0403011] yes=169,no=170,missing=169
										169:leaf=-0.0718047
										170:[f1000<7.5] yes=213,no=214,missing=214
											213:leaf=-0.0386537
											214:leaf=0.0608006
								100:[f300<1.5] yes=133,no=134,missing=133
									133:[f600<942] yes=171,no=172,missing=171
										171:leaf=0.0624728
										172:leaf=-0.0414235
									134:leaf=-0.0705589
							74:[f600<902.5] yes=101,no=102,missing=101
								101:[f140<46] yes=135,no=136,missing=136
									135:leaf=-0.0735431
									136:leaf=0.0207484
								102:[f300<8.5] yes=137,no=138,missing=138
									137:leaf=0.0640637
									138:leaf=-0.0496555
						52:leaf=-0.0609829
					36:[f500<1.5] yes=53,no=54,missing=54
						53:[f1000<44] yes=77,no=78,missing=78
							77:leaf=-0.069867
							78:[f300<19] yes=103,no=104,missing=104
								103:[f300<4] yes=139,no=140,missing=140
									139:leaf=-0.0373878
									140:[f3670<186.5] yes=177,no=178,missing=177
										177:leaf=0.0623853
										178:leaf=-0.0372594
								104:leaf=-0.059564
						54:[f140<4.5] yes=79,no=80,missing=80
							79:leaf=-0.0757634
							80:[f1800<0.000374547] yes=105,no=106,missing=106
								105:leaf=-0.0744892
								106:[f600<229.5] yes=141,no=142,missing=141
									141:leaf=-0.0727522
									142:[f600<584] yes=179,no=180,missing=179
										179:[f400<4.15] yes=217,no=218,missing=218
											217:leaf=-0.073633
											218:[f300<6.5] yes=251,no=252,missing=252
												251:leaf=-0.0217987
												252:leaf=0.0541499
										180:[f400<3.95] yes=219,no=220,missing=220
											219:[f300<13.5] yes=253,no=254,missing=253
												253:leaf=-0.0541333
												254:leaf=0.0704768
											220:[f300<37.5] yes=255,no=256,missing=255
												255:leaf=-0.0746026
												256:leaf=0.0575919
			12:[f3676<121.5] yes=21,no=22,missing=22
				21:leaf=-0.0707619
				22:[f1000<6.5] yes=37,no=38,missing=37
					37:[f3670<93.175] yes=55,no=56,missing=56
						55:leaf=-0.0632427
						56:[f160<8.00001] yes=81,no=82,missing=82
							81:[f1800<0.00282648] yes=107,no=108,missing=108
								107:leaf=0.0766686
								108:leaf=-0.0293007
							82:[f1800<0.000435818] yes=109,no=110,missing=110
								109:leaf=-0.065959
								110:[f170<3.5] yes=143,no=144,missing=143
									143:[f3670<223.188] yes=181,no=182,missing=182
										181:[f1000<3] yes=221,no=222,missing=222
											221:leaf=-0.0499248
											222:[f1800<0.0023343] yes=257,no=258,missing=258
												257:leaf=0.0673908
												258:leaf=-0.0418323
										182:[f1000<1.5] yes=223,no=224,missing=223
											223:[f300<42.5] yes=259,no=260,missing=260
												259:leaf=-0.0642697
												260:leaf=0.0420445
											224:leaf=-0.0662738
									144:leaf=-0.0646115
					38:leaf=-0.0676933
		6:[f400<4.75] yes=13,no=14,missing=14
			13:[f1800<0.00133899] yes=23,no=24,missing=23
				23:[f1000<18.5] yes=39,no=40,missing=39
					39:[f140<11] yes=57,no=58,missing=57
						57:[f600<1040] yes=83,no=84,missing=83
							83:[f1988<0.302416] yes=111,no=112,missing=111
								111:leaf=-0.0718828
								112:[f3670<128.571] yes=145,no=146,missing=146
									145:leaf=-0.0524645
									146:leaf=0.0626691
							84:[f600<4012.5] yes=113,no=114,missing=113
								113:[f300<38.5] yes=147,no=148,missing=147
									147:[f3676<91] yes=183,no=184,missing=184
										183:[f3676<89.5] yes=225,no=226,missing=226
											225:leaf=-0.068129
											226:leaf=0.0514084
										184:leaf=-0.0754038
									148:[f300<45.5] yes=185,no=186,missing=186
										185:[f600<1848] yes=227,no=228,missing=227
											227:[f600<1730.5] yes=261,no=262,missing=261
												261:leaf=-0.0610501
												262:leaf=0.064301
											228:leaf=-0.0678914
										186:leaf=-0.0749033
								114:[f600<4146] yes=149,no=150,missing=149
									149:[f3676<190] yes=187,no=188,missing=188
										187:[f300<4.5] yes=229,no=230,missing=230
											229:leaf=-0.0401137
											230:[f3670<150.613] yes=263,no=264,missing=264
												263:leaf=-0.0383837
												264:leaf=0.0640797
										188:leaf=-0.0637062
									150:leaf=-0.0738108
						58:[f1988<1.71094] yes=85,no=86,missing=85
							85:leaf=-0.0691753
							86:[f1800<0.000402681] yes=115,no=116,missing=115
								115:leaf=-0.0454069
								116:leaf=0.0684567
					40:[f300<33] yes=59,no=60,missing=60
						59:leaf=0.0640164
						60:leaf=-0.0427969
				24:[f1600<1.5] yes=41,no=42,missing=42
					41:leaf=-0.0742208
					42:[f300<19.5] yes=61,no=62,missing=62
						61:[f300<10.5] yes=87,no=88,missing=88
							87:leaf=-0.0705939
							88:[f3670<121.438] yes=117,no=118,missing=117
								117:[f140<2.5] yes=151,no=152,missing=152
									151:leaf=-0.0453813
									152:[f800<0.331843] yes=189,no=190,missing=190
										189:leaf=-0.0442673
										190:[f1988<0.435173] yes=231,no=232,missing=231
											231:[f400<4.65] yes=265,no=266,missing=266
												265:leaf=0.0683828
												266:leaf=-0.0383499
											232:leaf=-0.0388256
								118:[f1800<0.00142075] yes=153,no=154,missing=154
									153:leaf=0.0396161
									154:leaf=-0.0635194
						62:[f300<111] yes=89,no=90,missing=90
							89:[f800<0.410222] yes=119,no=120,missing=119
								119:[f140<11] yes=155,no=156,missing=155
									155:leaf=-0.0756172
									156:[f600<1579] yes=193,no=194,missing=193
										193:leaf=0.0624032
										194:leaf=-0.044661
								120:leaf=0.0621939
							90:[f1800<0.00186036] yes=121,no=122,missing=122
								121:[f3676<206] yes=157,no=158,missing=158
									157:leaf=-0.0383425
									158:leaf=0.0683084
								122:leaf=-0.0654707
			14:[f1600<1.5] yes=25,no=26,missing=26
				25:leaf=-0.0723517
				26:[f1800<0.000689802] yes=43,no=44,missing=44
					43:leaf=-0.0621346
					44:[f300<52.5] yes=63,no=64,missing=64
						63:[f3670<422.748] yes=91,no=92,missing=91
							91:[f1988<0.91907] yes=123,no=124,missing=123
								123:[f800<0.215] yes=159,no=160,missing=159
									159:leaf=0.0727006
									160:leaf=-0.0393097
								124:leaf=-0.0393928
							92:leaf=-0.0394634
						64:leaf=-0.046582
booster[5]:
0:[f1010<48] yes=1,no=2,missing=2
	1:[f1800<0.000892938] yes=3,no=4,missing=3
		3:[f1600<1.5] yes=7,no=8,missing=8
			7:[f600<2633] yes=15,no=16,missing=15
				15:[f3676<71.5] yes=29,no=30,missing=29
					29:[f400<3.15] yes=49,no=50,missing=50
						49:[f1000<3] yes=77,no=78,missing=78
							77:leaf=-0.0402213
							78:leaf=0.0683717
						50:[f800<0.641519] yes=79,no=80,missing=80
							79:leaf=0.0560651
							80:leaf=-0.0719159
					30:[f1800<0.00072703] yes=51,no=52,missing=51
						51:[f1988<0.74508] yes=81,no=82,missing=82
							81:leaf=0.0727295
							82:[f1800<0.00055991] yes=115,no=116,missing=115
								115:leaf=-0.0706789
								116:leaf=0.0694158
						52:leaf=-0.0555658
				16:leaf=-0.0628147
			8:[f500<1.5] yes=17,no=18,missing=18
				17:[f300<9] yes=31,no=32,missing=32
					31:leaf=0.0447653
					32:leaf=-0.0411222
				18:leaf=-0.0700607
		4:[f3670<193.893] yes=9,no=10,missing=9
			9:[f600<3750.5] yes=19,no=20,missing=19
				19:[f3676<130.5] yes=33,no=34,missing=34
					33:[f140<2.5] yes=53,no=54,missing=53
						53:[f1800<0.00142043] yes=83,no=84,missing=84
							83:[f300<166] yes=117,no=118,missing=118
								117:leaf=-0.0589092
								118:leaf=0.0527196
							84:[f1800<0.00262654] yes=119,no=120,missing=120
								119:[f3676<58] yes=155,no=156,missing=156
									155:leaf=-0.0365401
									156:[f140<1.5] yes=201,no=202,missing=202
										201:leaf=-0.0311474
										202:leaf=0.0735072
								120:leaf=-0.0437385
						54:leaf=-0.0615988
					34:[f1988<1.01399] yes=55,no=56,missing=55
						55:[f3670<132.418] yes=85,no=86,missing=86
							85:leaf=-0.0372251
							86:[f140<24.5] yes=121,no=122,missing=122
								121:[f800<0.0133797] yes=157,no=158,missing=157
									157:[f600<1447] yes=203,no=204,missing=203
										203:leaf=0.0719943
										204:[f600<2266] yes=249,no=250,missing=249
											249:leaf=-0.0531
											250:leaf=0.0687838
									158:leaf=-0.0240123
								122:[f1000<3] yes=159,no=160,missing=160
									159:[f600<134] yes=205,no=206,missing=205
										205:leaf=-0.0333333
										206:leaf=0.0667962
									160:[f500<34.5] yes=207,no=208,missing=207
										207:leaf=-0.0732702
										208:leaf=0.059863
						56:leaf=-0.0423666
				20:[f600<4804] yes=35,no=36,missing=35
					35:leaf=-0.0579585
					36:leaf=0.0284296
			10:leaf=-0.0670849
	2:[f600<844] yes=5,no=6,missing=5
		5:[f300<42.5] yes=11,no=12,missing=11
			11:[f1988<0.39024] yes=21,no=22,missing=21
				21:[f300<32.5] yes=37,no=38,missing=38
					37:[f3648<2.5] yes=57,no=58,missing=58
						57:[f400<3.65] yes=87,no=88,missing=87
							87:[f1800<0.00120191] yes=123,no=124,missing=123
								123:leaf=-0.065502
								124:leaf=0.00915018
							88:[f170<2.5] yes=125,no=126,missing=126
								125:[f1988<0.061536] yes=163,no=164,missing=164
									163:leaf=-0.0419737
									164:leaf=0.0683102
								126:[f600<612.5] yes=165,no=166,missing=165
									165:[f3676<67.5] yes=211,no=212,missing=212
										211:leaf=-0.0603831
										212:[f1800<0.00013385] yes=255,no=256,missing=255
											255:[f140<16] yes=289,no=290,missing=289
												289:leaf=-0.0700873
												290:leaf=0.044678
											256:[f800<0.12423] yes=291,no=292,missing=292
												291:leaf=-0.0552051
												292:leaf=0.0466328
									166:[f1800<0.00206421] yes=213,no=214,missing=214
										213:[f300<3.5] yes=257,no=258,missing=258
											257:[f3676<119] yes=293,no=294,missing=294
												293:leaf=-0.0574917
												294:leaf=0.0433266
											258:leaf=-0.0727358
										214:leaf=0.0475889
						58:[f1000<3.5] yes=89,no=90,missing=90
							89:[f140<24.5] yes=127,no=128,missing=127
								127:leaf=-0.0709883
								128:[f400<4.45] yes=167,no=168,missing=168
									167:leaf=-0.0523248
									168:leaf=0.0605887
							90:[f3670<93.7083] yes=129,no=130,missing=129
								129:[f600<577] yes=169,no=170,missing=169
									169:[f500<3.5] yes=215,no=216,missing=215
										215:[f140<3.5] yes=261,no=262,missing=261
											261:[f1800<0.00361584] yes=295,no=296,missing=296
												295:leaf=0.0440865
												296:leaf=-0.0592745
											262:[f300<30.5] yes=297,no=298,missing=298
												297:leaf=-0.0690723
												298:leaf=0.0378279
										216:leaf=-0.068905
									170:leaf=-0.0691579
								130:[f300<26] yes=171,no=172,missing=172
									171:leaf=-0.0713459
									172:[f140<10] yes=217,no=218,missing=218
										217:leaf=-0.0469799
										218:leaf=0.0611514
					38:[f1988<0.0772783] yes=59,no=60,missing=60
						59:[f400<3.7] yes=91,no=92,missing=92
							91:leaf=-0.0339832
							92:leaf=0.0691647
						60:[f1988<0.217701] yes=93,no=94,missing=93
							93:leaf=-0.0733216
							94:[f1000<26] yes=131,no=132,missing=132
								131:leaf=-0.0350924
								132:leaf=0.0556976
				22:[f3648<2.5] yes=39,no=40,missing=39
					39:[f300<41.5] yes=61,no=62,missing=62
						61:leaf=-0.0725222
						62:[f140<46] yes=95,no=96,missing=96
							95:leaf=-0.059727
							96:leaf=0.0579587
					40:leaf=0.0571618
			12:[f3670<93.175] yes=23,no=24,missing=24
				23:leaf=-0.0658712
				24:[f140<5.5] yes=41,no=42,missing=41
					41:[f3676<121.5] yes=65,no=66,missing=65
						65:[f1800<0.00126359] yes=97,no=98,missing=98
							97:leaf=-0.0728881
							98:[f1000<1.5] yes=133,no=134,missing=133
								133:[f3670<716] yes=175,no=176,missing=176
									175:leaf=-0.0473768
									176:[f140<3.5] yes=219,no=220,missing=219
										219:[f800<0.449448] yes=263,no=264,missing=264
											263:leaf=-0.0416529
											264:leaf=0.0552954
										220:leaf=-0.0441542
								134:leaf=-0.0590635
						66:[f300<47] yes=99,no=100,missing=100
							99:leaf=-0.0386958
							100:[f500<50] yes=135,no=136,missing=135
								135:[f400<4.15] yes=177,no=178,missing=178
									177:[f300<114.5] yes=221,no=222,missing=222
										221:leaf=-0.0610131
										222:leaf=0.0637052
									178:leaf=0.0677266
								136:leaf=-0.0375908
					42:leaf=-0.0639596
		6:[f400<4.75] yes=13,no=14,missing=14
			13:[f600<1476] yes=25,no=26,missing=25
				25:[f3676<106] yes=43,no=44,missing=43
					43:[f3676<89.5] yes=67,no=68,missing=67
						67:[f500<9.5] yes=101,no=102,missing=101
							101:[f400<4.05] yes=137,no=138,missing=138
								137:[f300<14] yes=179,no=180,missing=179
									179:leaf=-0.066377
									180:[f1000<9] yes=225,no=226,missing=226
										225:leaf=-0.0522434
										226:[f140<5.5] yes=267,no=268,missing=268
											267:leaf=-0.037949
											268:leaf=0.06541
								138:[f140<11] yes=181,no=182,missing=181
									181:[f300<354] yes=227,no=228,missing=228
										227:leaf=-0.072626
										228:leaf=0.0232518
									182:[f500<2.00001] yes=229,no=230,missing=230
										229:leaf=0.0608745
										230:leaf=-0.0542982
							102:leaf=0.0619953
						68:[f400<3.85] yes=103,no=104,missing=104
							103:leaf=-0.0608448
							104:[f300<4.5] yes=141,no=142,missing=141
								141:[f400<4.55] yes=185,no=186,missing=186
									185:leaf=-0.0510285
									186:leaf=0.0516232
								142:[f400<4.55] yes=187,no=188,missing=188
									187:leaf=0.0674207
									188:leaf=-0.0345935
					44:[f1988<0.200049] yes=69,no=70,missing=69
						69:[f300<117] yes=105,no=106,missing=105
							105:leaf=-0.0724774
							106:leaf=0.0327738
						70:[f600<1041.5] yes=107,no=108,missing=107
							107:[f3670<133.571] yes=145,no=146,missing=146
								145:leaf=-0.0635591
								146:[f600<937] yes=189,no=190,missing=189
									189:leaf=-0.0425365
									190:[f1800<0.00213661] yes=233,no=234,missing=234
										233:leaf=0.0646389
										234:leaf=-0.0339267
							108:leaf=-0.067828
				26:[f1800<0.00448322] yes=45,no=46,missing=45
					45:[f500<2.5] yes=71,no=72,missing=72
						71:[f1000<17] yes=109,no=110,missing=110
							109:leaf=-0.0676619
							110:[f600<2724] yes=147,no=148,missing=147
								147:[f1600<3.5] yes=191,no=192,missing=192
									191:[f1800<0.00154194] yes=235,no=236,missing=236
										235:leaf=0.0670458
										236:leaf=-0.0334569
									192:[f1800<0.00145229] yes=237,no=238,missing=237
										237:leaf=-0.0626701
										238:leaf=0.0508426
								148:leaf=-0.0602183
						72:[f300<111.5] yes=111,no=112,missing=111
							111:[f400<3.65] yes=149,no=150,missing=150
								149:[f300<58] yes=193,no=194,missing=193
									193:leaf=-0.0673931
									194:leaf=0.0509699
								150:[f3648<1.5] yes=195,no=196,missing=195
									195:[f600<1845.5] yes=241,no=242,missing=241
										241:[f600<1842.5] yes=279,no=280,missing=279
											279:[f1800<0.00013245] yes=305,no=306,missing=306
												305:leaf=-0.00787805
												306:leaf=-0.0712897
											280:leaf=0.0504761
										242:[f3670<112.464] yes=281,no=282,missing=282
											281:[f3670<110] yes=309,no=310,missing=310
												309:leaf=-0.0700909
												310:leaf=-0.0167745
											282:leaf=-0.0725684
									196:[f600<4138.5] yes=243,no=244,missing=243
										243:leaf=-0.0701311
										244:[f600<4185] yes=283,no=284,missing=283
											283:leaf=0.0612412
											284:leaf=-0.05333
							112:[f3676<242] yes=151,no=152,missing=152
								151:leaf=-0.0659198
								152:[f1000<8.00001] yes=197,no=198,missing=198
									197:leaf=-0.053887
									198:[f1800<0.00178991] yes=245,no=246,missing=246
										245:leaf=0.0615993
										246:leaf=-0.0354816
					46:[f300<24.5] yes=73,no=74,missing=74
						73:leaf=0.0667786
						74:leaf=-0.0548328
			14:[f1600<1.5] yes=27,no=28,missing=28
				27:leaf=-0.068985
				28:[f1800<0.000769829] yes=47,no=48,missing=48
					47:leaf=-0.0637382
					48:[f600<1020] yes=75,no=76,missing=75
						75:leaf=-0.0538067
						76:[f300<52.5] yes=113,no=114,missing=114
							113:[f3670<422.748] yes=153,no=154,missing=153
								153:[f800<0.215] yes=199,no=200,missing=199
									199:leaf=0.0659612
									200:leaf=-0.037362
								154:leaf=-0.037742
							114:leaf=-0.0445818
booster[6]:
0:[f1010<48] yes=1,no=2,missing=2
	1:[f1800<0.00142071] yes=3,no=4,missing=3
		3:[f300<44.5] yes=7,no=8,missing=7
			7:[f400<4.75] yes=15,no=16,missing=16
				15:[f600<2633] yes=27,no=28,missing=27
					27:[f140<12.5] yes=43,no=44,missing=44
						43:[f170<2.5] yes=71,no=72,missing=72
							71:[f600<542.5] yes=103,no=104,missing=103
								103:leaf=0.0523321
								104:leaf=-0.0585665
							72:[f400<3.7] yes=105,no=106,missing=106
								105:leaf=-0.0432724
								106:[f1800<0.00124849] yes=143,no=144,missing=143
									143:[f800<0.0137597] yes=181,no=182,missing=181
										181:[f3648<4.00001] yes=221,no=222,missing=222
											221:leaf=0.063094
											222:[f1800<0.000835298] yes=267,no=268,missing=267
												267:leaf=-0.0564356
												268:leaf=0.0645401
										182:leaf=-0.0327507
									144:leaf=-0.0360011
						44:[f300<16.5] yes=73,no=74,missing=74
							73:[f1000<10.5] yes=107,no=108,missing=108
								107:[f3670<145] yes=145,no=146,missing=146
									145:leaf=-0.0522626
									146:[f1800<0.00100702] yes=183,no=184,missing=184
										183:[f400<4.15] yes=223,no=224,missing=224
											223:leaf=-0.0345247
											224:leaf=0.0677999
										184:[f1010<2.5] yes=225,no=226,missing=226
											225:leaf=-0.0581669
											226:leaf=0.0561455
								108:leaf=-0.0562566
							74:leaf=-0.0538888
					28:[f3670<404] yes=45,no=46,missing=46
						45:leaf=-0.0626295
						46:leaf=0.0420497
				16:leaf=-0.0615708
			8:leaf=-0.0653622
		4:[f3670<193.893] yes=9,no=10,missing=9
			9:[f3676<58] yes=17,no=18,missing=18
				17:leaf=-0.0418928
				18:[f1988<0.221638] yes=29,no=30,missing=29
					29:[f300<6] yes=47,no=48,missing=48
						47:leaf=-0.0272385
						48:[f600<2773.5] yes=77,no=78,missing=77
							77:[f300<237] yes=111,no=112,missing=112
								111:[f400<3.75] yes=149,no=150,missing=150
									149:leaf=-0.0240869
									150:[f600<134] yes=185,no=186,missing=185
										185:[f160<3.5] yes=227,no=228,missing=227
											227:leaf=-0.0580572
											228:leaf=0.0634553
										186:[f1000<2.5] yes=229,no=230,missing=230
											229:leaf=0.0706396
											230:[f1010<1.5] yes=269,no=270,missing=270
												269:leaf=-0.064297
												270:leaf=0.0647024
								112:leaf=-0.0256846
							78:[f400<4.55] yes=113,no=114,missing=114
								113:leaf=-0.0485295
								114:leaf=0.0583754
					30:[f400<4.7] yes=49,no=50,missing=50
						49:leaf=-0.0540876
						50:leaf=0.0560319
			10:leaf=-0.0582875
	2:[f600<844] yes=5,no=6,missing=5
		5:[f300<47.5] yes=11,no=12,missing=11
			11:[f100<-9.53674e-06] yes=19,no=20,missing=19
				19:[f3648<6.00001] yes=31,no=32,missing=32
					31:[f400<3.65] yes=51,no=52,missing=51
						51:leaf=-0.0635579
						52:[f1800<0.000310387] yes=81,no=82,missing=81
							81:[f3670<101.764] yes=117,no=118,missing=118
								117:[f140<5] yes=151,no=152,missing=152
									151:[f300<1.5] yes=187,no=188,missing=188
										187:[f600<241.5] yes=231,no=232,missing=231
											231:leaf=0.0572849
											232:leaf=-0.040884
										188:leaf=-0.0646595
									152:[f300<7.5] yes=189,no=190,missing=190
										189:[f800<1.00001] yes=233,no=234,missing=234
											233:leaf=-0.0397327
											234:leaf=0.0688012
										190:[f1000<11.5] yes=235,no=236,missing=235
											235:leaf=-0.015308
											236:leaf=0.0606062
								118:leaf=-0.0707095
							82:[f600<556] yes=119,no=120,missing=119
								119:[f300<30.5] yes=153,no=154,missing=153
									153:[f1988<0.218076] yes=191,no=192,missing=192
										191:leaf=-0.0623762
										192:[f300<1.5] yes=237,no=238,missing=238
											237:leaf=-0.0592866
											238:[f1000<6.5] yes=273,no=274,missing=273
												273:leaf=0.0509623
												274:leaf=-0.0634704
									154:[f1988<0.0718369] yes=193,no=194,missing=194
										193:leaf=0.0403616
										194:leaf=-0.0629683
								120:[f300<5.5] yes=155,no=156,missing=156
									155:[f400<4.25] yes=195,no=196,missing=196
										195:leaf=-0.0552768
										196:leaf=0.0557513
									156:[f1800<0.00300286] yes=197,no=198,missing=198
										197:leaf=-0.0695533
										198:leaf=0.0418137
					32:[f1988<0.163235] yes=53,no=54,missing=53
						53:[f140<2.5] yes=83,no=84,missing=84
							83:leaf=-0.0687528
							84:[f1000<3.5] yes=121,no=122,missing=122
								121:[f140<18] yes=157,no=158,missing=157
									157:leaf=-0.0680191
									158:[f300<4] yes=199,no=200,missing=200
										199:leaf=0.0573083
										200:leaf=-0.0362537
								122:[f300<10.5] yes=159,no=160,missing=160
									159:[f140<3.5] yes=201,no=202,missing=201
										201:[f3670<153.833] yes=243,no=244,missing=243
											243:[f300<4.5] yes=277,no=278,missing=278
												277:leaf=0.00308615
												278:leaf=0.0598871
											244:leaf=-0.0553524
										202:leaf=-0.0652111
									160:[f1800<0.00235884] yes=203,no=204,missing=203
										203:[f300<31] yes=245,no=246,missing=245
											245:[f3670<319] yes=279,no=280,missing=279
												279:leaf=-0.0679836
												280:leaf=0.048104
											246:[f140<4.5] yes=281,no=282,missing=281
												281:leaf=-0.0527349
												282:leaf=0.0663961
										204:[f1800<0.00300036] yes=247,no=248,missing=248
											247:leaf=0.067937
											248:leaf=-0.0425118
						54:leaf=-0.069728
				20:[f140<8.5] yes=33,no=34,missing=34
					33:leaf=0.0680764
					34:leaf=-0.0483738
			12:[f3676<121.5] yes=21,no=22,missing=22
				21:leaf=-0.062538
				22:[f1000<1.5] yes=35,no=36,missing=35
					35:[f1800<0.0013605] yes=57,no=58,missing=58
						57:[f3670<209.1] yes=85,no=86,missing=85
							85:leaf=-0.0729294
							86:[f400<4.45] yes=123,no=124,missing=124
								123:leaf=-0.0478247
								124:[f600<271] yes=161,no=162,missing=161
									161:leaf=-0.0427767
									162:leaf=0.0682328
						58:leaf=0.0578185
					36:[f3676<138.5] yes=59,no=60,missing=60
						59:[f170<18] yes=89,no=90,missing=90
							89:leaf=-0.0323366
							90:leaf=0.066013
						60:leaf=-0.0659496
		6:[f400<4.75] yes=13,no=14,missing=14
			13:[f1000<11.5] yes=23,no=24,missing=24
				23:[f3676<99.5] yes=37,no=38,missing=38
					37:[f1988<0.345725] yes=61,no=62,missing=61
						61:leaf=-0.0627466
						62:leaf=0.0623671
					38:[f500<9.5] yes=63,no=64,missing=63
						63:[f400<3.75] yes=91,no=92,missing=92
							91:[f1988<0.23896] yes=127,no=128,missing=127
								127:leaf=-0.0626516
								128:leaf=0.039917
							92:leaf=-0.0694714
						64:[f300<58] yes=93,no=94,missing=94
							93:leaf=0.0566405
							94:leaf=-0.0362752
				24:[f500<24] yes=39,no=40,missing=40
					39:[f600<2712.5] yes=65,no=66,missing=65
						65:[f1988<4.43645] yes=95,no=96,missing=96
							95:[f1800<0.00208984] yes=129,no=130,missing=130
								129:[f3670<263.929] yes=167,no=168,missing=167
									167:[f3670<101.938] yes=207,no=208,missing=208
										207:leaf=-0.0381919
										208:leaf=0.0475709
									168:leaf=-0.0430378
								130:leaf=-0.0436431
							96:[f1800<0.0015497] yes=131,no=132,missing=131
								131:leaf=-0.0662947
								132:[f3676<206] yes=169,no=170,missing=170
									169:leaf=-0.0527993
									170:leaf=0.0651687
						66:leaf=-0.0643971
					40:[f1800<0.00316253] yes=67,no=68,missing=67
						67:[f300<111.5] yes=97,no=98,missing=97
							97:[f3670<177.175] yes=133,no=134,missing=134
								133:[f300<7.5] yes=171,no=172,missing=172
									171:[f300<4.5] yes=209,no=210,missing=210
										209:[f1988<0.510969] yes=253,no=254,missing=254
											253:leaf=0.0394418
											254:[f1800<0.00437474] yes=289,no=290,missing=290
												289:leaf=-0.0675006
												290:leaf=-0.0040299
										210:[f1800<0.000908486] yes=255,no=256,missing=256
											255:[f1800<0.000284495] yes=291,no=292,missing=292
												291:leaf=-0.0386959
												292:leaf=0.063278
											256:leaf=-0.0566031
									172:[f3670<176.337] yes=211,no=212,missing=212
										211:[f1800<0.000110153] yes=257,no=258,missing=258
											257:[f400<3.95] yes=293,no=294,missing=294
												293:leaf=0.0633129
												294:leaf=-0.0520242
											258:leaf=-0.0537298
										212:[f300<53] yes=259,no=260,missing=259
											259:leaf=-0.0511069
											260:leaf=0.0551851
								134:[f1000<12.5] yes=173,no=174,missing=174
									173:leaf=0.0257476
									174:[f300<44.5] yes=215,no=216,missing=215
										215:leaf=-0.0699156
										216:[f300<45.5] yes=261,no=262,missing=262
											261:[f400<4.45] yes=297,no=298,missing=298
												297:leaf=-0.0553351
												298:leaf=0.0648256
											262:leaf=-0.0679812
							98:[f3676<242] yes=135,no=136,missing=136
								135:leaf=-0.0632712
								136:[f140<10] yes=175,no=176,missing=176
									175:leaf=-0.0426467
									176:[f1800<0.0012719] yes=217,no=218,missing=218
										217:leaf=-0.0339593
										218:leaf=0.0630002
						68:[f300<19.5] yes=99,no=100,missing=100
							99:[f300<13] yes=137,no=138,missing=138
								137:leaf=-0.0484777
								138:leaf=0.0634627
							100:leaf=-0.0600045
			14:[f1600<1.5] yes=25,no=26,missing=26
				25:leaf=-0.0661504
				26:[f1800<0.000769829] yes=41,no=42,missing=42
					41:leaf=-0.0616779
					42:[f300<52.5] yes=69,no=70,missing=70
						69:[f500<1.5] yes=101,no=102,missing=101
							101:[f1988<0.91907] yes=139,no=140,missing=139
								139:[f3670<422.748] yes=179,no=180,missing=179
									179:leaf=0.0665638
									180:leaf=-0.0358081
								140:leaf=-0.0358341
							102:leaf=-0.0362137
						70:leaf=-0.0548294
booster[7]:
0:[f1010<48] yes=1,no=2,missing=2
	1:[f1800<0.00142071] yes=3,no=4,missing=3
		3:[f300<44.5] yes=7,no=8,missing=7
			7:[f400<4.75] yes=15,no=16,missing=16
				15:[f600<2633] yes=27,no=28,missing=27
					27:[f140<12.5] yes=45,no=46,missing=46
						45:[f170<2.5] yes=67,no=68,missing=68
							67:[f600<542.5] yes=101,no=102,missing=101
								101:leaf=0.0409204
								102:leaf=-0.0578531
							68:[f400<3.7] yes=103,no=104,missing=104
								103:leaf=-0.0411322
								104:[f1988<0.0855256] yes=143,no=144,missing=144
									143:leaf=-0.000971492
									144:leaf=0.0557253
						46:[f300<16.5] yes=69,no=70,missing=70
							69:[f1000<10.5] yes=105,no=106,missing=106
								105:[f3670<145] yes=145,no=146,missing=146
									145:leaf=-0.0490464
									146:[f1800<0.00100702] yes=197,no=198,missing=197
										197:leaf=0.0530927
										198:leaf=-0.0343788
								106:leaf=-0.052442
							70:leaf=-0.0535097
					28:[f3670<404] yes=47,no=48,missing=48
						47:leaf=-0.0601291
						48:leaf=0.0389702
				16:leaf=-0.0576254
			8:leaf=-0.0626253
		4:[f3670<193.893] yes=9,no=10,missing=9
			9:[f1988<0.221638] yes=17,no=18,missing=17
				17:[f3676<58] yes=29,no=30,missing=30
					29:leaf=-0.0327057
					30:[f1000<37] yes=49,no=50,missing=50
						49:[f300<6] yes=73,no=74,missing=74
							73:leaf=-0.0259915
							74:[f300<237] yes=109,no=110,missing=110
								109:[f400<3.75] yes=149,no=150,missing=150
									149:leaf=-0.0229172
									150:[f1010<18] yes=199,no=200,missing=200
										199:[f3670<87.629] yes=249,no=250,missing=250
											249:[f400<4.45] yes=279,no=280,missing=280
												279:leaf=-0.0475379
												280:leaf=0.0628975
											250:leaf=0.0607418
										200:leaf=-0.0194317
								110:leaf=-0.0229839
						50:leaf=-0.0302846
				18:[f400<4.7] yes=31,no=32,missing=32
					31:leaf=-0.0525763
					32:leaf=0.0521275
			10:leaf=-0.054033
	2:[f600<950.5] yes=5,no=6,missing=5
		5:[f160<5.5] yes=11,no=12,missing=12
			11:[f300<17.5] yes=19,no=20,missing=20
				19:leaf=-0.0555041
				20:[f1800<0.00282648] yes=33,no=34,missing=34
					33:leaf=0.0665066
					34:leaf=-0.0359907
			12:[f400<3.65] yes=21,no=22,missing=21
				21:[f300<5.5] yes=35,no=36,missing=35
					35:leaf=-0.0668076
					36:[f400<7.20001] yes=53,no=54,missing=54
						53:leaf=-0.0389716
						54:[f500<14] yes=79,no=80,missing=80
							79:leaf=-0.0301968
							80:leaf=0.0613752
				22:[f3648<2.5] yes=37,no=38,missing=38
					37:[f400<4.25] yes=55,no=56,missing=56
						55:[f600<386] yes=81,no=82,missing=81
							81:[f1800<0.000703893] yes=113,no=114,missing=113
								113:[f600<207] yes=151,no=152,missing=151
									151:[f140<16] yes=201,no=202,missing=202
										201:leaf=-0.0520634
										202:leaf=0.0634376
									152:[f1000<17] yes=203,no=204,missing=203
										203:leaf=-0.06823
										204:leaf=0.0381396
								114:[f3670<98.1889] yes=153,no=154,missing=154
									153:leaf=-0.053887
									154:[f1000<1.5] yes=205,no=206,missing=205
										205:[f300<20] yes=251,no=252,missing=252
											251:leaf=0.0664324
											252:[f140<52] yes=285,no=286,missing=286
												285:leaf=-0.0577808
												286:leaf=0.0526808
										206:leaf=-0.0525658
							82:[f140<6.5] yes=115,no=116,missing=115
								115:[f300<212] yes=155,no=156,missing=156
									155:leaf=-0.070671
									156:[f800<0.178748] yes=207,no=208,missing=208
										207:leaf=0.0538304
										208:leaf=-0.0451444
								116:[f600<735] yes=157,no=158,missing=157
									157:leaf=-0.0577416
									158:[f400<4.05] yes=209,no=210,missing=210
										209:leaf=0.0637262
										210:leaf=-0.0384941
						56:[f1988<0.39024] yes=83,no=84,missing=83
							83:[f600<848] yes=117,no=118,missing=117
								117:[f1988<0.207423] yes=159,no=160,missing=160
									159:[f600<372] yes=211,no=212,missing=211
										211:leaf=-0.0611723
										212:[f1800<0.000546334] yes=253,no=254,missing=254
											253:leaf=-0.041503
											254:[f1800<0.00176851] yes=287,no=288,missing=287
												287:leaf=0.0550789
												288:leaf=-0.0388463
									160:[f1000<1.5] yes=213,no=214,missing=214
										213:[f300<78.5] yes=255,no=256,missing=255
											255:leaf=-0.0641081
											256:leaf=0.0607963
										214:[f140<11.5] yes=257,no=258,missing=257
											257:[f3676<25.5] yes=289,no=290,missing=290
												289:leaf=-0.0356715
												290:leaf=0.0539556
											258:[f600<174] yes=291,no=292,missing=291
												291:leaf=0.0536284
												292:leaf=-0.0325529
								118:[f300<1.5] yes=161,no=162,missing=162
									161:leaf=0.0398426
									162:leaf=-0.0608419
							84:[f600<902.5] yes=119,no=120,missing=119
								119:leaf=-0.0631497
								120:[f300<8.5] yes=163,no=164,missing=164
									163:leaf=0.0498937
									164:leaf=-0.0372647
					38:[f300<42.5] yes=57,no=58,missing=57
						57:[f140<2.5] yes=85,no=86,missing=86
							85:leaf=-0.0665762
							86:[f1800<0.000228459] yes=121,no=122,missing=122
								121:[f500<6.00001] yes=165,no=166,missing=166
									165:[f1000<36] yes=217,no=218,missing=218
										217:leaf=-0.0415104
										218:[f300<11.5] yes=259,no=260,missing=260
											259:leaf=0.0702291
											260:leaf=-0.0347994
									166:leaf=-0.0627805
								122:[f600<437] yes=167,no=168,missing=167
									167:[f140<20.5] yes=219,no=220,missing=219
										219:[f1800<0.00173401] yes=261,no=262,missing=261
											261:[f3670<319] yes=293,no=294,missing=293
												293:leaf=-0.0693359
												294:leaf=0.00977395
											262:[f1800<0.00179795] yes=295,no=296,missing=296
												295:leaf=0.0453042
												296:leaf=-0.0597941
										220:[f400<4.45] yes=263,no=264,missing=264
											263:leaf=-0.051228
											264:leaf=0.0603423
									168:[f600<577] yes=221,no=222,missing=221
										221:[f400<4.15] yes=265,no=266,missing=266
											265:leaf=-0.0601831
											266:[f400<4.55] yes=297,no=298,missing=298
												297:leaf=0.0550263
												298:leaf=-0.0531736
										222:[f600<911] yes=267,no=268,missing=267
											267:[f3676<333.5] yes=299,no=300,missing=299
												299:leaf=-0.0667517
												300:leaf=0.0039205
											268:[f1800<0.000862467] yes=301,no=302,missing=302
												301:leaf=0.0575805
												302:leaf=-0.0503439
						58:[f1000<1.5] yes=87,no=88,missing=87
							87:[f1800<0.00113861] yes=123,no=124,missing=124
								123:[f1988<2.9238] yes=169,no=170,missing=169
									169:[f3670<319] yes=223,no=224,missing=223
										223:leaf=-0.0657336
										224:leaf=0.0418604
									170:leaf=0.0574261
								124:[f3670<330.227] yes=171,no=172,missing=171
									171:[f600<676.5] yes=225,no=226,missing=225
										225:[f140<3.5] yes=269,no=270,missing=269
											269:[f500<60] yes=303,no=304,missing=303
												303:leaf=0.0529479
												304:leaf=-0.046111
											270:leaf=-0.0490676
										226:leaf=-0.0545776
									172:leaf=-0.0589194
							88:leaf=-0.0632677
		6:[f400<4.75] yes=13,no=14,missing=14
			13:[f1800<0.00133899] yes=23,no=24,missing=23
				23:[f500<2.5] yes=39,no=40,missing=40
					39:[f1988<1.77113] yes=59,no=60,missing=60
						59:[f1000<16] yes=89,no=90,missing=90
							89:leaf=-0.0584324
							90:[f400<4.35] yes=125,no=126,missing=126
								125:leaf=-0.0474031
								126:leaf=0.0503296
						60:leaf=-0.0642836
					40:[f3676<188.5] yes=61,no=62,missing=62
						61:[f3676<187.5] yes=91,no=92,missing=92
							91:[f600<1042.5] yes=127,no=128,missing=127
								127:[f600<1009.5] yes=175,no=176,missing=175
									175:leaf=-0.0563774
									176:[f140<3.5] yes=229,no=230,missing=230
										229:leaf=-0.0346826
										230:leaf=0.0590501
								128:[f800<0.248529] yes=177,no=178,missing=177
									177:[f300<57.5] yes=231,no=232,missing=231
										231:leaf=-0.066512
										232:[f400<3.7] yes=271,no=272,missing=272
											271:leaf=0.0503781
											272:leaf=-0.0601293
									178:[f800<0.258663] yes=233,no=234,missing=234
										233:leaf=0.042052
										234:leaf=-0.0495679
							92:[f300<5.5] yes=129,no=130,missing=130
								129:leaf=0.0586029
								130:leaf=-0.0495353
						62:[f300<44.5] yes=93,no=94,missing=93
							93:leaf=-0.0671863
							94:[f300<45.5] yes=131,no=132,missing=132
								131:leaf=0.0231335
								132:leaf=-0.0659637
				24:[f1600<1.5] yes=41,no=42,missing=42
					41:leaf=-0.0658894
					42:[f300<19.5] yes=63,no=64,missing=64
						63:[f300<10.5] yes=95,no=96,missing=96
							95:leaf=-0.0628391
							96:[f3670<121.438] yes=133,no=134,missing=133
								133:[f140<3] yes=181,no=182,missing=182
									181:leaf=-0.0423734
									182:[f800<0.331843] yes=237,no=238,missing=238
										237:leaf=-0.036875
										238:[f1988<0.435173] yes=273,no=274,missing=273
											273:[f800<0.363627] yes=305,no=306,missing=305
												305:leaf=0.0602329
												306:leaf=-0.0326547
											274:leaf=-0.0340102
								134:[f1988<0.292615] yes=183,no=184,missing=184
									183:leaf=0.0282935
									184:leaf=-0.0559448
						64:[f300<111] yes=97,no=98,missing=98
							97:[f140<11] yes=135,no=136,missing=135
								135:[f800<0.410222] yes=185,no=186,missing=185
									185:leaf=-0.0670334
									186:leaf=0.0278659
								136:[f600<1579] yes=187,no=188,missing=187
									187:leaf=0.0568823
									188:leaf=-0.0373743
							98:[f1800<0.00186036] yes=137,no=138,missing=138
								137:[f3676<206] yes=189,no=190,missing=190
									189:leaf=-0.0320229
									190:leaf=0.0628884
								138:leaf=-0.0589778
			14:[f1600<1.5] yes=25,no=26,missing=26
				25:leaf=-0.0634154
				26:[f1800<0.000689802] yes=43,no=44,missing=44
					43:leaf=-0.0523699
					44:[f300<52.5] yes=65,no=66,missing=66
						65:[f800<0.215] yes=99,no=100,missing=99
							99:[f600<1020] yes=139,no=140,missing=139
								139:leaf=-0.034402
								140:[f3670<422.748] yes=191,no=192,missing=191
									191:leaf=0.0642258
									192:leaf=-0.0340464
							100:leaf=-0.0345594
						66:leaf=-0.0396731
booster[8]:
0:[f1010<48] yes=1,no=2,missing=2
	1:[f1800<0.000892938] yes=3,no=4,missing=3
		3:[f1600<1.5] yes=7,no=8,missing=8
			7:[f600<2633] yes=15,no=16,missing=15
				15:[f1800<0.000698304] yes=29,no=30,missing=29
					29:[f3676<71.5] yes=49,no=50,missing=49
						49:[f1000<6] yes=75,no=76,missing=76
							75:[f1800<0.000270271] yes=115,no=116,missing=115
								115:[f1000<1.5] yes=161,no=162,missing=162
									161:leaf=-0.0357303
									162:leaf=0.0500295
								116:leaf=-0.043789
							76:leaf=-0.0596603
						50:[f1988<0.74508] yes=77,no=78,missing=78
							77:leaf=0.063565
							78:[f1800<0.00055991] yes=117,no=118,missing=117
								117:leaf=-0.0633814
								118:leaf=0.0619418
					30:leaf=-0.055549
				16:leaf=-0.0557784
			8:[f500<1.5] yes=17,no=18,missing=18
				17:leaf=0.0250869
				18:leaf=-0.0630933
		4:[f3670<193.893] yes=9,no=10,missing=9
			9:[f3676<130.5] yes=19,no=20,missing=20
				19:[f140<2.5] yes=33,no=34,missing=33
					33:[f3676<98.5] yes=51,no=52,missing=52
						51:[f3676<59] yes=79,no=80,missing=80
							79:leaf=-0.038637
							80:[f500<24] yes=119,no=120,missing=120
								119:leaf=-0.0296161
								120:leaf=0.0627997
						52:[f400<4.05] yes=81,no=82,missing=82
							81:leaf=0.0403333
							82:leaf=-0.0556022
					34:leaf=-0.0598802
				20:[f1988<0.176228] yes=35,no=36,missing=35
					35:[f300<4.5] yes=53,no=54,missing=54
						53:leaf=-0.0248669
						54:[f300<237] yes=83,no=84,missing=84
							83:[f400<3.75] yes=121,no=122,missing=122
								121:leaf=-0.0218499
								122:[f3670<108.618] yes=165,no=166,missing=166
									165:leaf=-0.0201046
									166:[f600<1039] yes=203,no=204,missing=203
										203:leaf=0.0625319
										204:[f140<1.5] yes=237,no=238,missing=238
											237:leaf=-0.0474719
											238:[f600<1216.5] yes=273,no=274,missing=273
												273:leaf=-0.0381118
												274:leaf=0.0577864
							84:leaf=-0.0219136
					36:[f1988<0.591501] yes=55,no=56,missing=56
						55:leaf=-0.0538323
						56:[f1988<1.01399] yes=85,no=86,missing=86
							85:leaf=0.0583517
							86:leaf=-0.0359368
			10:leaf=-0.0599336
	2:[f600<950.5] yes=5,no=6,missing=5
		5:[f300<40.5] yes=11,no=12,missing=11
			11:[f3648<1.5] yes=21,no=22,missing=22
				21:[f400<3.95] yes=37,no=38,missing=37
					37:[f3676<304] yes=57,no=58,missing=58
						57:[f600<119.5] yes=87,no=88,missing=87
							87:leaf=0.0197216
							88:leaf=-0.0620978
						58:leaf=0.0503336
					38:[f1000<1.5] yes=59,no=60,missing=60
						59:leaf=-0.0651922
						60:[f170<2.5] yes=89,no=90,missing=89
							89:[f300<28.5] yes=127,no=128,missing=127
								127:[f1988<0.39024] yes=169,no=170,missing=169
									169:[f1988<0.212444] yes=205,no=206,missing=206
										205:[f300<5.5] yes=239,no=240,missing=239
											239:[f300<3.5] yes=275,no=276,missing=276
												275:leaf=-0.0421925
												276:leaf=0.0510337
											240:leaf=-0.0560866
										206:[f1800<0.00087153] yes=241,no=242,missing=242
											241:[f400<4.05] yes=277,no=278,missing=278
												277:leaf=-0.0575877
												278:leaf=0.0592487
											242:[f1988<0.77501] yes=279,no=280,missing=280
												279:leaf=0.0630678
												280:leaf=0.00703365
									170:[f600<902.5] yes=207,no=208,missing=207
										207:[f140<46] yes=243,no=244,missing=244
											243:leaf=-0.0607192
											244:leaf=0.0158196
										208:[f300<8.5] yes=245,no=246,missing=246
											245:leaf=0.0540164
											246:leaf=-0.0359218
								128:leaf=-0.0562638
							90:leaf=-0.0580091
				22:[f800<0.397896] yes=39,no=40,missing=40
					39:[f500<4.5] yes=61,no=62,missing=62
						61:[f3670<125.944] yes=91,no=92,missing=91
							91:leaf=0.0584075
							92:leaf=-0.0384072
						62:[f1000<1.5] yes=93,no=94,missing=94
							93:leaf=0.0522135
							94:leaf=-0.062559
					40:[f3676<46.5] yes=63,no=64,missing=64
						63:leaf=0.0545023
						64:[f140<4.5] yes=97,no=98,missing=98
							97:leaf=-0.0639615
							98:[f1800<0.00173401] yes=135,no=136,missing=135
								135:[f600<461] yes=173,no=174,missing=173
									173:[f300<2.5] yes=211,no=212,missing=212
										211:[f500<2.5] yes=247,no=248,missing=247
											247:[f140<18] yes=285,no=286,missing=285
												285:leaf=-0.0568234
												286:leaf=0.036201
											248:leaf=0.0595579
										212:[f3670<330.227] yes=249,no=250,missing=249
											249:leaf=-0.0681468
											250:leaf=0.0277795
									174:[f600<577] yes=213,no=214,missing=213
										213:[f600<553.5] yes=251,no=252,missing=251
											251:[f1988<3.43163] yes=289,no=290,missing=290
												289:leaf=0.0384223
												290:leaf=-0.0417009
											252:leaf=0.0610292
										214:[f600<912.5] yes=253,no=254,missing=253
											253:leaf=-0.0633459
											254:[f1800<0.000862467] yes=293,no=294,missing=294
												293:leaf=0.0415755
												294:leaf=-0.0493639
								136:[f1000<24] yes=175,no=176,missing=176
									175:leaf=-0.0570476
									176:[f600<544] yes=215,no=216,missing=215
										215:leaf=0.0606321
										216:leaf=-0.0469166
			12:[f3676<121.5] yes=23,no=24,missing=24
				23:leaf=-0.0615231
				24:[f1000<6.5] yes=41,no=42,missing=41
					41:[f1800<0.00117196] yes=65,no=66,missing=66
						65:[f1800<0.000727353] yes=99,no=100,missing=100
							99:[f500<13.5] yes=137,no=138,missing=137
								137:[f3676<223.5] yes=177,no=178,missing=177
									177:[f500<7] yes=217,no=218,missing=218
										217:leaf=-0.0363547
										218:leaf=0.0596173
									178:leaf=-0.0454168
								138:leaf=-0.0534051
							100:[f300<107] yes=139,no=140,missing=140
								139:leaf=-0.0634172
								140:leaf=0.0307177
						66:[f600<852.5] yes=101,no=102,missing=101
							101:[f3670<90.675] yes=141,no=142,missing=141
								141:[f1000<1.5] yes=181,no=182,missing=181
									181:[f140<3.5] yes=219,no=220,missing=219
										219:[f800<0.449448] yes=259,no=260,missing=260
											259:leaf=-0.0475217
											260:[f400<4.35] yes=297,no=298,missing=298
												297:leaf=0.0557363
												298:leaf=0.0122644
										220:leaf=-0.049775
									182:leaf=-0.0518159
								142:[f1988<0.367655] yes=183,no=184,missing=183
									183:[f500<2] yes=221,no=222,missing=222
										221:leaf=-0.0321723
										222:leaf=0.0617074
									184:leaf=-0.0392263
							102:[f160<2.00001] yes=143,no=144,missing=144
								143:leaf=0.0470969
								144:leaf=-0.0552135
					42:leaf=-0.0555137
		6:[f400<4.75] yes=13,no=14,missing=14
			13:[f1800<0.00133899] yes=25,no=26,missing=25
				25:[f140<11] yes=43,no=44,missing=43
					43:[f600<1040] yes=67,no=68,missing=67
						67:[f1988<0.302416] yes=103,no=104,missing=103
							103:leaf=-0.0626493
							104:[f3670<128.571] yes=145,no=146,missing=146
								145:leaf=-0.0424159
								146:leaf=0.0617745
						68:[f3676<113.5] yes=105,no=106,missing=106
							105:[f3676<111.5] yes=147,no=148,missing=148
								147:leaf=-0.0575728
								148:leaf=0.0622301
							106:[f1000<18.5] yes=149,no=150,missing=149
								149:[f3648<1.5] yes=187,no=188,missing=187
									187:[f300<44.5] yes=225,no=226,missing=225
										225:leaf=-0.0652918
										226:[f300<45.5] yes=263,no=264,missing=264
											263:leaf=0.031284
											264:leaf=-0.0639743
									188:[f1800<0.00123226] yes=227,no=228,missing=227
										227:[f600<4138.5] yes=265,no=266,missing=265
											265:leaf=-0.0631855
											266:leaf=0.01713
										228:leaf=0.0309584
								150:leaf=0.00891101
					44:[f500<1.5] yes=69,no=70,missing=69
						69:leaf=-0.0595313
						70:[f500<3] yes=107,no=108,missing=108
							107:leaf=0.058615
							108:leaf=-0.0402802
				26:[f1600<1.5] yes=45,no=46,missing=46
					45:leaf=-0.0634498
					46:[f600<1460] yes=71,no=72,missing=71
						71:[f3676<106.5] yes=109,no=110,missing=109
							109:[f140<3.5] yes=151,no=152,missing=152
								151:leaf=-0.0541785
								152:[f600<1066] yes=191,no=192,missing=191
									191:leaf=-0.0494608
									192:[f300<8.5] yes=229,no=230,missing=230
										229:leaf=-0.0312266
										230:leaf=0.0546809
							110:[f500<4.5] yes=153,no=154,missing=154
								153:[f3648<1.5] yes=193,no=194,missing=193
									193:leaf=-0.0390904
									194:leaf=0.0538852
								154:leaf=-0.059947
						72:[f400<4.55] yes=111,no=112,missing=112
							111:[f1800<0.00167283] yes=155,no=156,missing=156
								155:[f300<111] yes=195,no=196,missing=196
									195:[f300<18.5] yes=231,no=232,missing=232
										231:[f300<12.5] yes=271,no=272,missing=272
											271:leaf=-0.0505172
											272:leaf=0.0596996
										232:leaf=-0.0587798
									196:leaf=0.0587522
								156:leaf=-0.0620478
							112:[f400<4.65] yes=157,no=158,missing=158
								157:leaf=0.0599185
								158:leaf=-0.0449349
			14:[f1600<1.5] yes=27,no=28,missing=28
				27:leaf=-0.0614958
				28:[f1800<0.000689802] yes=47,no=48,missing=48
					47:leaf=-0.050726
					48:[f600<1020] yes=73,no=74,missing=73
						73:leaf=-0.0403027
						74:[f300<52.5] yes=113,no=114,missing=114
							113:[f1000<1.5] yes=159,no=160,missing=159
								159:[f3670<422.748] yes=197,no=198,missing=197
									197:leaf=0.0622982
									198:leaf=-0.0325479
								160:leaf=-0.0336151
							114:leaf=-0.038761
booster[9]:
0:[f1010<48] yes=1,no=2,missing=2
	1:[f1800<0.00142071] yes=3,no=4,missing=3
		3:[f300<44.5] yes=7,no=8,missing=7
			7:[f600<2633] yes=15,no=16,missing=15
				15:[f3676<71.5] yes=27,no=28,missing=28
					27:leaf=-0.0548247
					28:[f3648<1.5] yes=47,no=48,missing=48
						47:[f1800<0.00124849] yes=73,no=74,missing=73
							73:[f1988<0.749468] yes=107,no=108,missing=107
								107:[f800<0.0137597] yes=155,no=156,missing=155
									155:[f600<128.5] yes=203,no=204,missing=203
										203:leaf=-0.0305946
										204:[f500<9.5] yes=251,no=252,missing=251
											251:leaf=0.0572485
											252:leaf=-0.0297899
									156:leaf=-0.0344244
								108:leaf=-0.0394188
							74:leaf=-0.041007
						48:[f1600<1.5] yes=75,no=76,missing=76
							75:[f600<421] yes=109,no=110,missing=109
								109:leaf=-0.0526598
								110:[f1000<1.5] yes=157,no=158,missing=158
									157:leaf=-0.0387024
									158:[f500<2.5] yes=205,no=206,missing=206
										205:leaf=-0.036849
										206:[f1800<0.00106466] yes=253,no=254,missing=253
											253:leaf=0.0532669
											254:leaf=-0.037088
							76:[f1800<0.000877836] yes=111,no=112,missing=111
								111:leaf=-0.0592631
								112:leaf=0.0311473
				16:[f3670<404] yes=29,no=30,missing=30
					29:leaf=-0.0570501
					30:leaf=0.0322898
			8:leaf=-0.059023
		4:[f3670<193.893] yes=9,no=10,missing=9
			9:[f1988<0.221638] yes=17,no=18,missing=17
				17:[f400<3.75] yes=31,no=32,missing=32
					31:leaf=-0.0321693
					32:[f3676<58] yes=51,no=52,missing=52
						51:leaf=-0.0295343
						52:[f600<2773.5] yes=77,no=78,missing=77
							77:[f300<6] yes=113,no=114,missing=114
								113:leaf=-0.0237104
								114:[f300<237] yes=161,no=162,missing=162
									161:[f100<-9.53674e-06] yes=207,no=208,missing=207
										207:[f170<18] yes=255,no=256,missing=256
											255:leaf=-0.0515392
											256:leaf=0.0556295
										208:leaf=0.0631791
									162:leaf=-0.0225112
							78:[f400<4.55] yes=115,no=116,missing=116
								115:leaf=-0.0461376
								116:leaf=0.0525994
				18:[f400<4.7] yes=33,no=34,missing=34
					33:leaf=-0.0486888
					34:leaf=0.0449786
			10:leaf=-0.0499853
	2:[f600<844] yes=5,no=6,missing=5
		5:[f300<47.5] yes=11,no=12,missing=11
			11:[f600<573] yes=19,no=20,missing=19
				19:[f1800<0.00271297] yes=35,no=36,missing=36
					35:[f3648<6.00001] yes=53,no=54,missing=54
						53:[f1988<0.281642] yes=79,no=80,missing=79
							79:[f300<29] yes=117,no=118,missing=117
								117:[f1988<0.218076] yes=163,no=164,missing=164
									163:[f1000<13.5] yes=209,no=210,missing=209
										209:leaf=-0.0577617
										210:leaf=0.0534676
									164:[f1000<5.5] yes=211,no=212,missing=211
										211:[f400<3.15] yes=257,no=258,missing=257
											257:leaf=-0.0477529
											258:[f800<0.12423] yes=295,no=296,missing=296
												295:leaf=-0.0456222
												296:leaf=0.0450075
										212:leaf=-0.0569579
								118:[f1988<0.0718369] yes=165,no=166,missing=166
									165:leaf=0.045396
									166:leaf=-0.0566196
							80:[f1600<2.5] yes=119,no=120,missing=119
								119:leaf=-0.0581599
								120:leaf=0.0509857
						54:[f3676<46.5] yes=81,no=82,missing=81
							81:[f500<3.5] yes=121,no=122,missing=121
								121:[f1000<3.5] yes=167,no=168,missing=168
									167:leaf=-0.0589071
									168:[f1000<4.5] yes=213,no=214,missing=213
										213:[f1800<0.000878324] yes=259,no=260,missing=260
											259:[f1800<0.000440249] yes=297,no=298,missing=298
												297:leaf=0.0406978
												298:leaf=-0.065797
											260:[f1600<3.5] yes=299,no=300,missing=300
												299:leaf=-0.0491267
												300:leaf=0.054991
										214:leaf=-0.0530381
								122:leaf=-0.0614023
							82:[f400<4.85] yes=123,no=124,missing=123
								123:leaf=-0.0617874
								124:leaf=0.00232792
					36:[f600<518.5] yes=55,no=56,missing=55
						55:[f400<4.45] yes=83,no=84,missing=83
							83:[f1000<11.5] yes=125,no=126,missing=125
								125:[f1988<0.0660035] yes=171,no=172,missing=172
									171:leaf=-0.000273618
									172:[f1988<0.539091] yes=217,no=218,missing=217
										217:leaf=-0.0656916
										218:[f1000<3] yes=261,no=262,missing=262
											261:leaf=0.0426457
											262:leaf=-0.0506475
								126:leaf=0.0368218
							84:[f140<17] yes=127,no=128,missing=128
								127:leaf=-0.0576644
								128:leaf=0.0423238
						56:leaf=0.036756
				20:[f3676<32.5] yes=37,no=38,missing=38
					37:[f300<5.5] yes=57,no=58,missing=57
						57:leaf=-0.0414852
						58:leaf=0.0562096
					38:[f3670<176.337] yes=59,no=60,missing=60
						59:[f600<735.5] yes=87,no=88,missing=87
							87:leaf=-0.0501656
							88:[f140<7.5] yes=133,no=134,missing=134
								133:leaf=-0.0493026
								134:[f1800<0.000818289] yes=177,no=178,missing=177
									177:leaf=-0.0384977
									178:leaf=0.0542985
						60:leaf=-0.0637017
			12:[f140<5.5] yes=21,no=22,missing=21
				21:[f3670<93.175] yes=39,no=40,missing=40
					39:leaf=-0.0548693
					40:[f3676<121.5] yes=61,no=62,missing=61
						61:[f1800<0.00179463] yes=89,no=90,missing=90
							89:leaf=-0.0660213
							90:[f1000<1.5] yes=135,no=136,missing=135
								135:[f600<177] yes=179,no=180,missing=179
									179:leaf=-0.0479688
									180:[f1800<0.00330807] yes=225,no=226,missing=226
										225:[f400<4.15] yes=265,no=266,missing=266
											265:leaf=0.0663657
											266:[f300<140.5] yes=301,no=302,missing=302
												301:leaf=-0.0629768
												302:leaf=0.0538569
										226:[f170<1.5] yes=267,no=268,missing=268
											267:leaf=0.050298
											268:leaf=-0.0552708
								136:leaf=-0.046139
						62:[f400<4.15] yes=91,no=92,missing=92
							91:[f300<114.5] yes=137,no=138,missing=138
								137:leaf=-0.0539521
								138:leaf=0.0543968
							92:leaf=0.0589405
				22:leaf=-0.0565179
		6:[f400<4.75] yes=13,no=14,missing=14
			13:[f3676<117.5] yes=23,no=24,missing=23
				23:[f500<9.5] yes=41,no=42,missing=41
					41:[f1800<0.00154294] yes=63,no=64,missing=63
						63:[f3648<1.5] yes=93,no=94,missing=94
							93:[f3676<89.5] yes=141,no=142,missing=142
								141:[f800<0.178748] yes=183,no=184,missing=184
									183:leaf=0.00509924
									184:leaf=-0.060563
								142:[f300<8] yes=185,no=186,missing=186
									185:[f1800<0.000274332] yes=231,no=232,missing=231
										231:leaf=-0.0338234
										232:leaf=0.0614549
									186:[f3676<111] yes=233,no=234,missing=234
										233:leaf=-0.0581573
										234:[f400<4.05] yes=275,no=276,missing=276
											275:leaf=0.0566742
											276:leaf=-0.0381879
							94:[f140<5.5] yes=143,no=144,missing=143
								143:[f300<44.5] yes=187,no=188,missing=187
									187:leaf=-0.0634518
									188:[f300<45.5] yes=235,no=236,missing=236
										235:leaf=0.04061
										236:leaf=-0.0606713
								144:[f1600<1.5] yes=189,no=190,missing=190
									189:[f1800<0.00040746] yes=237,no=238,missing=237
										237:leaf=-0.0507331
										238:leaf=0.0495508
									190:leaf=-0.0559359
						64:[f140<3.5] yes=95,no=96,missing=96
							95:leaf=-0.0609004
							96:[f1600<1.5] yes=145,no=146,missing=146
								145:leaf=-0.0580385
								146:[f300<19.5] yes=191,no=192,missing=192
									191:[f300<10] yes=239,no=240,missing=240
										239:leaf=-0.0519274
										240:leaf=0.0505644
									192:[f1800<0.00185218] yes=241,no=242,missing=242
										241:[f300<103.5] yes=283,no=284,missing=284
											283:[f600<1109] yes=311,no=312,missing=311
												311:leaf=0.0460586
												312:leaf=-0.0470543
											284:leaf=0.053331
										242:leaf=-0.0604341
					42:leaf=0.0469798
				24:[f600<1039.5] yes=43,no=44,missing=43
					43:[f1988<0.200049] yes=67,no=68,missing=67
						67:leaf=-0.0623898
						68:[f3670<133.571] yes=99,no=100,missing=100
							99:leaf=-0.0492654
							100:leaf=0.0471569
					44:[f1000<18.5] yes=69,no=70,missing=69
						69:[f300<120.5] yes=101,no=102,missing=101
							101:[f600<4144.5] yes=149,no=150,missing=149
								149:[f500<1.5] yes=195,no=196,missing=196
									195:[f1988<0.248666] yes=245,no=246,missing=246
										245:leaf=0.0216334
										246:leaf=-0.0575306
									196:leaf=-0.0638931
								150:[f600<4146] yes=197,no=198,missing=197
									197:leaf=0.0496134
									198:leaf=-0.0512569
							102:[f1600<1.5] yes=151,no=152,missing=151
								151:leaf=-0.0556556
								152:leaf=0.0437285
						70:leaf=0.0292934
			14:[f1600<1.5] yes=25,no=26,missing=26
				25:leaf=-0.0596415
				26:[f1800<0.000769829] yes=45,no=46,missing=46
					45:leaf=-0.0547903
					46:[f300<52.5] yes=71,no=72,missing=72
						71:[f3670<422.748] yes=105,no=106,missing=105
							105:[f800<0.215] yes=153,no=154,missing=153
								153:[f1988<0.91907] yes=201,no=202,missing=201
									201:leaf=0.0603803
									202:leaf=-0.0320468
								154:leaf=-0.0323804
							106:leaf=-0.0379959
						72:leaf=-0.0430309
